{"model": "dvergar_policy", "species": "dvergar", "input_dim": 40, "output_dim": 19, "actions": ["talk", "call_meeting", "set_personal_goal", "set_medium_term_goal", "set_group_goal", "follow_agent", "gather", "till", "plan_build", "build", "farm", "help", "deposit_items", "idle", "explore", "plant", "set_priorities", "pick", "wander"], "weights": {"net.0.weight": [[-0.003388455370441079, 0.060959331691265106, 0.00162426196038723, 0.004858146421611309, 0.03957127407193184, 0.0005939413676969707, 0.11283962428569794, 0.2219720333814621, 0.08239400386810303, -0.11905574053525925, -0.013935369439423084, -0.03587138280272484, 0.01501974556595087, -0.010039926506578922, 0.10170276463031769, -0.09619562327861786, -0.15150496363639832, -0.1146005243062973, 0.11490432918071747, 0.06854308396577835, 0.06784513592720032, 0.06658484041690826, 0.16909965872764587, 0.10013418644666672, -0.11995413154363632, -0.06724651157855988, 0.01879705674946308, 8.649024307656099e-16, -5.070322688951359e-23, 9.954974411776859e-17, 0.07837524265050888, -0.05051803961396217, -0.13218553364276886, -0.10910706222057343, -0.0829915776848793, 0.05551031976938248, 0.012108858674764633, -0.12208918482065201, 0.07103429734706879, 2.2794700578720713e-15], [-0.027745699509978294, 0.06739377975463867, -0.03918973356485367, 0.003622991032898426, -0.14443513751029968, -0.006702797953039408, 0.021258778870105743, 0.13335733115673065, -0.08664856851100922, 0.009511217474937439, 0.03479775786399841, -0.0061558871529996395, 0.012176507152616978, -0.02479715831577778, 0.12640613317489624, 0.029874112457036972, 0.0324731320142746, -0.03506070375442505, -0.02241343818604946, -0.10017821937799454, 0.032803867012262344, -0.04833802953362465, 0.10675812512636185, 0.1212412640452385, -0.0215890035033226, 0.0032813381403684616, -0.07340449094772339, 2.1796979384560137e-23, -7.331140210344095e-21, 1.4073372226375346e-24, -0.12412171810865402, -0.03635186702013016, 0.015887180343270302, 0.07681681215763092, 0.15377846360206604, -0.018561532720923424, -0.09256263077259064, -0.012478300370275974, -0.07749009877443314, 1.1847981452693623e-22], [0.01150798611342907, -0.03750747814774513, -0.05384812504053116, -0.004817778244614601, 0.1059064194560051, -0.005074367858469486, -0.023540565744042397, -0.015343477949500084, 0.13796956837177277, -0.10569097846746445, -0.08027330785989761, 0.023723840713500977, 0.016816161572933197, 0.09406814724206924, 0.15550725162029266, -0.05775383487343788, 0.11806727945804596, 0.027752313762903214, -0.08457958698272705, 0.12090007960796356, -0.15882684290409088, 0.046685829758644104, 0.00803570169955492, 0.0760059803724289, -0.057254940271377563, 0.0736660361289978, -0.009077672846615314, -1.6093590770459123e-25, -2.4946400841293727e-23, -1.193304714428134e-25, 0.049333855509757996, 0.031562186777591705, 0.054492175579071045, 0.054804615676403046, -0.020264532417058945, 0.04416705667972565, 0.1331561803817749, -0.11035560816526413, -0.0629885196685791, -1.0911693646111658e-23], [0.13618235290050507, -0.07554113864898682, -0.075593002140522, -0.11008951812982559, -0.15259213745594025, -0.028236284852027893, 0.05279124155640602, -0.10356850922107697, 0.09022283554077148, 0.013465641066432, 0.12573176622390747, 0.11160695552825928, -0.031519558280706406, 0.14625972509384155, 0.1341504603624344, 0.13627856969833374, 0.07515833526849747, 0.043847937136888504, 0.06924482434988022, -0.19204255938529968, 0.08242258429527283, 0.08809685707092285, -0.08422473818063736, 0.10507453233003616, 0.005769193638116121, 0.051782164722681046, -0.07573932409286499, 2.115686490833624e-25, 7.273718009000212e-24, -7.663007159268553e-26, -0.13061602413654327, 0.05659716948866844, -0.07895530760288239, 0.007316375616937876, -0.022277463227510452, 0.016771674156188965, 0.09281936287879944, 0.07385914027690887, -0.13890740275382996, -1.6439494444484958e-24], [-0.08224429190158844, 0.027977775782346725, 0.01733740046620369, 0.026725150644779205, -0.1884773224592209, -0.02063073217868805, -0.1581057608127594, -0.12167518585920334, -0.06790772825479507, 0.09243209660053253, -0.00924759916961193, 0.10363514721393585, 0.05896342918276787, 0.013819105923175812, 0.041166700422763824, -0.02205389365553856, -0.00735093280673027, 0.07413702458143234, 0.06496328115463257, -0.044603463262319565, -0.1456381231546402, -0.16629210114479065, -0.12954920530319214, -0.07920624315738678, 0.03429558500647545, 0.06775006651878357, 0.04143325239419937, -3.679040870694444e-21, -6.388225397867535e-22, 2.6183164104386676e-19, 0.003104071132838726, 0.0494377501308918, 0.11479683220386505, 0.11813629418611526, -0.008853635750710964, -0.015860337764024734, 0.16317400336265564, -0.020823637023568153, -0.05165550112724304, 2.6686470226030235e-23], [0.07916761934757233, 0.10853250324726105, -0.07241804152727127, -0.11253499984741211, 0.06036217138171196, 0.05424700304865837, 0.06483082473278046, -0.03667014092206955, 0.139714315533638, -0.1212618425488472, 0.16122999787330627, -0.12842608988285065, -0.1141698956489563, 0.030474016442894936, -0.07592229545116425, -0.04341594874858856, 0.09718804806470871, 0.12971265614032745, 0.08496890217065811, 0.03565732389688492, -0.029169799759984016, -0.09463465213775635, -0.08551298826932907, 0.17623193562030792, 0.00991146918386221, -0.12490915507078171, 0.01459516678005457, 7.026886488592565e-25, 1.0841460565527488e-15, -3.203659024533529e-15, -0.02530922181904316, -0.006995743606239557, -0.10270161926746368, 0.023753363639116287, -0.09740746766328812, 0.0019450390245765448, -0.1361979842185974, 0.042858678847551346, 0.11735916882753372, 1.6199199524145586e-24], [-0.06649679690599442, -0.018589438870549202, -0.028272312134504318, 0.06248883903026581, -0.1662188172340393, 0.05238700658082962, 0.018450269475579262, 0.04919980466365814, 0.0418553426861763, -0.06513030081987381, 0.009274682961404324, -0.08853095024824142, -0.013094077818095684, -0.004365682601928711, 0.15401561558246613, -0.08997660130262375, -0.13735121488571167, 0.0902772843837738, 0.05218169838190079, 0.040138836950063705, -0.09503636509180069, 0.055692415684461594, -0.059321288019418716, -0.06290241330862045, -0.027298424392938614, -0.012075439095497131, -0.043238844722509384, 9.32716418693863e-22, 4.5865010429161045e-23, -1.0666323884961385e-26, 0.005199186038225889, 0.028755417093634605, 0.02119874209165573, 0.07265026867389679, 0.016582803800702095, 0.034060023725032806, 0.13704857230186462, 0.022145496681332588, -0.11250992119312286, 6.2533753374729566e-24], [0.039310019463300705, -0.05340762063860893, 0.014172176830470562, 0.008819522336125374, 0.17081472277641296, 0.008331717923283577, 0.01517464593052864, 0.07590311765670776, 0.04373110830783844, 0.056317947804927826, -0.08715593814849854, -0.05587263032793999, -0.024654394015669823, -0.15857702493667603, -0.22415325045585632, -0.12253792583942413, -0.05656762048602104, -0.07407809793949127, -0.07966103404760361, 0.00551225058734417, 0.10810956358909607, 0.10295946896076202, 0.15589585900306702, -0.11237819492816925, 0.07694185525178909, -0.07893843948841095, 0.02141297608613968, 4.573467648132853e-19, -2.857060122267078e-19, 2.0305808552739704e-22, 0.10077793151140213, 0.025709228590130806, 0.03240819647908211, 0.06438545882701874, 0.024480465799570084, 0.020818714052438736, -0.2856408655643463, -0.05730564147233963, 0.03657083958387375, -8.735668959574715e-24], [0.053927209228277206, -0.028960874304175377, -0.13315239548683167, 0.03121373802423477, -0.18274469673633575, 0.0005507990135811269, -0.09339921176433563, -0.06013173609972, 0.11998504400253296, 0.0279806200414896, -0.03348345682024956, 0.007720484863966703, 0.06318552047014236, 0.0022694820072501898, 0.07034479826688766, -0.014413723722100258, 0.15869882702827454, -0.00037645670818164945, 0.1889672726392746, 0.009385199286043644, -0.21709924936294556, -0.16803504526615143, 0.061120081692934036, -0.0951043963432312, 0.03168327361345291, -0.011185677722096443, 0.1298666000366211, -2.9624448561172006e-24, -1.7341808454949723e-16, -5.277754078131199e-25, 0.041223522275686264, 0.03571823239326477, 0.08016449958086014, -0.10153380036354065, 0.05576781556010246, -0.029117131605744362, 0.008174394257366657, 0.05338265001773834, -0.04551573842763901, 1.0260804559914367e-19], [0.022600915282964706, 0.030544383451342583, 0.014483604580163956, 0.07715202122926712, -0.1768234372138977, 0.020098965615034103, 0.007981421425938606, -0.0967584177851677, 0.15300656855106354, -0.04568169265985489, 0.04985575005412102, 0.12253406643867493, 0.12081347405910492, -0.0434056855738163, -0.04794493317604065, -0.07352875918149948, 0.13762721419334412, 0.02481842413544655, 0.17136527597904205, -0.025790711864829063, 0.03693416342139244, -0.11061669886112213, -0.08751785755157471, -0.06107601150870323, 0.11436253041028976, 0.11100916564464569, 0.023080974817276, 8.55899044503792e-26, -1.7627009742246166e-15, -4.398559790620633e-19, -0.11734163016080856, 0.051595065742731094, 0.01744181662797928, 0.14825063943862915, 0.006797000300139189, 0.006948839873075485, 0.16133636236190796, 0.06780914962291718, -0.10462360829114914, -2.865898368772067e-14], [-0.14877811074256897, -0.08117125183343887, -0.07461317628622055, -0.006912618409842253, 0.2403617799282074, -0.0036405199207365513, -0.034100256860256195, -0.07535340636968613, -0.1598636955022812, -0.11834017932415009, 0.12903983891010284, -0.016099752858281136, -0.027424337342381477, -0.009789098985493183, 0.014053511433303356, -0.012311726808547974, -0.07806948572397232, 0.0215466171503067, 0.010254405438899994, -0.008617187850177288, -0.1371966451406479, 0.005630642641335726, 0.19852416217327118, 0.16956254839897156, 0.04294697567820549, -0.021510619670152664, 0.01700306311249733, 2.860964931746211e-19, 1.1090430525153254e-19, 9.83459677118873e-25, 0.15496152639389038, 0.04706551507115364, 0.13066516816616058, -0.10328381508588791, -0.012524306774139404, 0.026562105864286423, -0.1421319544315338, -0.03188299760222435, -0.09183403849601746, 1.6625184412964932e-25], [-0.08131931722164154, 0.05571906641125679, 0.041857149451971054, -0.03161109983921051, -0.03461676463484764, 0.0008060593972913921, -0.015066425316035748, -0.01938285119831562, -0.04226783290505409, -0.006361120380461216, -0.007152197882533073, -0.03859970346093178, -0.07432504743337631, -0.12910671532154083, 0.03436734154820442, 0.0796433612704277, 0.0031991389114409685, -0.042847003787755966, -0.026299428194761276, -0.14732269942760468, -0.02942417375743389, 0.017209818586707115, 0.059157609939575195, -0.03579772636294365, 0.04923107475042343, -0.05236060172319412, 0.14353075623512268, -7.25643406656682e-24, 8.470482716662452e-26, 8.35131950814679e-20, -0.09994972497224808, 0.023027777671813965, -0.06839517503976822, -0.07076677680015564, 0.10711286216974258, -0.05947421118617058, -0.2521175146102905, 0.05818818882107735, 0.006646899040788412, -2.902370731601905e-22], [0.0927891805768013, -0.03683099523186684, -0.01840818300843239, 0.05042331665754318, -0.11517511308193207, 0.006035569589585066, -0.04756523668766022, 0.053464971482753754, 0.11716858297586441, 0.04692862182855606, 0.007776375859975815, -0.018909262493252754, -0.07829219102859497, 0.0635150894522667, 0.20739051699638367, 0.0147738978266716, -0.11396323889493942, 0.10578923672437668, 0.07521385699510574, 0.16306620836257935, 0.02370685525238514, -0.06733483821153641, -0.11196080595254898, -0.16107982397079468, 0.132238507270813, -0.0577130988240242, 0.09385878592729568, 4.2465441242490745e-21, -1.9488620077210648e-16, 5.167639624688848e-20, -0.04356745630502701, 0.02549857646226883, -0.05116840824484825, -0.003200958017259836, 0.12750309705734253, 0.025669720023870468, 0.055242013186216354, 0.0029398882761597633, -0.07876254618167877, 1.723413770014124e-24], [0.09736387431621552, 0.12816008925437927, 0.011292321607470512, -0.004808299243450165, -0.18354354798793793, 0.011954509653151035, 0.16520944237709045, -0.04211476072669029, -0.010670670308172703, 0.03896602988243103, 0.06716358661651611, -0.05081683769822121, -0.04986763373017311, -0.00884870532900095, -0.03479207679629326, -0.0765196681022644, -0.08459430932998657, 0.0765073373913765, -0.015234440565109253, -0.1711837649345398, -0.045712847262620926, -0.046576425433158875, 0.17687982320785522, 0.04188785329461098, -0.1524975299835205, -0.0884854793548584, 0.00018207996618002653, 2.3877306960254266e-24, 8.129822757142367e-16, 5.995657931003712e-25, -0.013700359500944614, 0.11943028122186661, 0.07184955477714539, 0.030982941389083862, 0.18475884199142456, -0.012584148906171322, -0.2127787321805954, -0.06512141972780228, -0.038085199892520905, 4.928245962156472e-21], [0.04883064329624176, -0.0014595375396311283, 0.09254734963178635, -0.0009855140233412385, 0.24799704551696777, 0.009146145544946194, 0.10621005296707153, 0.1450260430574417, -0.020523561164736748, 0.111671082675457, -0.019413260743021965, -0.031138820573687553, -0.021896012127399445, -0.06464355438947678, -0.14534726738929749, -0.0638979822397232, -0.03288000077009201, -0.10017748922109604, 0.005243226420134306, 0.04891960695385933, 0.15074196457862854, 0.026493392884731293, -0.019889885559678078, -0.06457972526550293, 0.0030409367755055428, -0.1592981070280075, -0.06909292191267014, 9.255009817285405e-25, -2.059672633397501e-24, 1.883577698436866e-22, 0.12778450548648834, 0.05152842402458191, -0.05613720789551735, -0.08485224097967148, -0.12395885586738586, 0.04359375312924385, -0.11017408967018127, -0.04535448178648949, -0.056302692741155624, -5.296756751261842e-25], [0.007357424590736628, -0.09349533170461655, -0.03404569998383522, 0.05910024419426918, 0.12566815316677094, 0.0349125899374485, 0.1470879763364792, -0.2234506756067276, 0.0012885848991572857, 0.12103089690208435, 0.03683095797896385, 0.01668545976281166, 0.15153677761554718, 0.22679147124290466, 0.18043716251850128, -0.12098867446184158, 0.08498098701238632, -0.14197899401187897, 0.10319652408361435, -0.2245035469532013, -0.07168613374233246, -0.15277178585529327, -0.1359870433807373, 0.0062383427284657955, -0.10160863399505615, 0.0646403431892395, -0.00986024085432291, 5.111874541624041e-16, 5.204355205458202e-23, -2.232675154723579e-24, -0.14579139649868011, 0.023510677739977837, 0.03303605690598488, 0.05063038319349289, 0.05472903698682785, 0.034249767661094666, 0.21981403231620789, -0.010938610881567001, 0.05155128240585327, 1.1103717113742387e-19], [-0.004279179032891989, -0.04805920273065567, 0.10173981636762619, 0.14378923177719116, -0.1301383078098297, 0.07436130195856094, -0.10472286492586136, -0.03917907923460007, 0.15172451734542847, 0.08589795231819153, -0.02910696156322956, -0.03807888925075531, 0.15805543959140778, 0.11898607760667801, -0.09729982167482376, -0.019752798601984978, -0.08847196400165558, -0.1277177631855011, 0.08618979156017303, 0.14545880258083344, -0.0515328086912632, -0.16207239031791687, 0.028188789263367653, 0.025681322440505028, 0.108860082924366, 0.1145671159029007, -0.13349977135658264, 2.2727118525256883e-21, 3.5615166743794837e-25, -1.002224745344863e-23, 0.01925327256321907, 0.0330016203224659, 0.08087699115276337, 0.1180599108338356, 0.06423740088939667, 0.05475220829248428, 0.2193785011768341, 0.06154089793562889, 0.056247517466545105, -1.3508874193659418e-21], [-0.04622287675738335, -0.07892481237649918, 0.06815200299024582, -0.04440707713365555, -0.2772982716560364, -0.02005848102271557, -0.1134236678481102, 0.18681217730045319, 0.04183974117040634, -0.024425163865089417, -0.06988615542650223, -0.019398169592022896, -0.024283001199364662, 0.011842723935842514, 0.11372290551662445, -0.007879418320953846, 0.032715264707803726, -0.07407829165458679, -0.06734368950128555, 0.04407097026705742, 0.04293764755129814, 0.0487150177359581, 0.08338145166635513, 0.13589860498905182, 0.09437678754329681, 0.0623922161757946, 0.05556371062994003, 2.674956016578619e-23, 1.1993125311708775e-24, 7.341670643471959e-17, -0.026149459183216095, -0.05101560428738594, -0.0271157156676054, -0.035188380628824234, 0.1419752985239029, -0.09603574126958847, -0.15517520904541016, -0.04710465669631958, -0.0005722831701859832, 3.1815679172745808e-22], [0.07712464034557343, -0.08153166621923447, 0.117620088160038, -0.012821798212826252, 0.11640161275863647, -0.009045492857694626, 0.08705209940671921, 0.11847507208585739, -0.07278197258710861, -0.05357209965586662, -0.08644259721040726, -0.021997947245836258, -0.018531812354922295, -0.0559934601187706, 0.013248315081000328, -0.10206981003284454, 0.09047441929578781, -0.024901317432522774, -0.09023264795541763, 0.13532622158527374, -0.057542845606803894, -0.021022450178861618, -0.0393882654607296, -0.018683722242712975, 0.05099492520093918, -0.1103576049208641, -0.0513000562787056, 4.825331502149502e-25, 1.7832037044979275e-17, 2.625806353423186e-24, 0.03642585128545761, -0.019728446379303932, -0.02810364030301571, -0.01199404988437891, 0.0720779076218605, 0.0038062352687120438, -0.02684294432401657, -0.12197314202785492, -0.06523222476243973, 1.1248962448668944e-23], [-0.17442980408668518, -0.10772264748811722, -0.1546180248260498, -0.02645706571638584, -0.06592947244644165, 0.01693272776901722, -0.029303420335054398, 0.04682472348213196, 0.07850941270589828, 0.08405527472496033, -0.053849320858716965, 0.07569046318531036, -0.015409063547849655, -0.10984860360622406, 0.017565390095114708, -0.11609432101249695, 0.05795779451727867, 0.1049044206738472, -0.09149650484323502, -0.09604056179523468, 0.06832222640514374, 0.03596125915646553, -0.05051562935113907, 0.08044146746397018, 0.027302587404847145, -0.0019077104516327381, 0.07158277928829193, -3.777872394126409e-21, 3.042589574213582e-24, 9.961022578087844e-25, -0.034459300339221954, 0.08277098089456558, -0.06706776469945908, 0.023628083989024162, 0.14721958339214325, -0.027793947607278824, -0.1418815404176712, -0.024646954610943794, -0.026912078261375427, 4.906057551568463e-23], [-0.0883510410785675, -0.05309068411588669, -0.02237946353852749, 0.008496430702507496, 0.10454897582530975, 0.005663861986249685, -0.16354386508464813, -0.11902592331171036, 0.025611761957406998, -0.10202854126691818, -0.06496938318014145, -0.005492737982422113, -0.0008229818195104599, -0.06722819060087204, -0.08280647546052933, 0.046219442039728165, 0.06606273353099823, 0.03075885958969593, -0.10669199377298355, 0.17428286373615265, -0.007710698992013931, 0.06838101893663406, 0.07824200391769409, -0.050302159041166306, -0.05232122540473938, -0.012788445688784122, -0.11454731971025467, 1.5235704044993758e-17, -9.934400279273072e-18, -1.2692148449346593e-22, 0.13831020891666412, 0.0551743283867836, 0.014819108881056309, -0.06468558311462402, 0.06119673699140549, 0.016876187175512314, -0.03711238130927086, 0.04621761664748192, -0.10459517687559128, 3.052586571807176e-23], [0.11792613565921783, -0.02187816984951496, -0.14669647812843323, 0.07631244510412216, 0.04416775330901146, 0.0006552150589413941, 0.09399696439504623, 0.05239848420023918, -0.17184220254421234, 0.07807788252830505, 0.0027411545161157846, 0.05606750771403313, -0.019310234114527702, 0.01241044420748949, 0.17724940180778503, 0.05386774241924286, -0.12544232606887817, -0.18524742126464844, 0.05555570498108864, -0.04488460719585419, -0.026377886533737183, 0.04696211963891983, 0.006105260923504829, 0.06108400225639343, 0.10617391020059586, 0.05510428547859192, -0.01378485094755888, -2.312810692877161e-19, -2.9481148033434083e-24, -2.2113959029761785e-26, -0.041690219193696976, -0.051418330520391464, -0.054518043994903564, 0.02135690674185753, 0.12475308775901794, 0.028099164366722107, 0.23798754811286926, -0.04730227589607239, 0.04105626791715622, 5.731590686812188e-20], [-0.008139575831592083, -0.048690687865018845, 0.13223527371883392, 0.04637918248772621, -0.1949407160282135, -0.0055967532098293304, -0.1311788260936737, 0.07272153347730637, 0.1280471682548523, 0.16499707102775574, -0.06757029891014099, -0.04040137305855751, 0.046772174537181854, 0.1574706882238388, -0.04350873827934265, -0.06887640804052353, 0.04917677864432335, 0.056407030671834946, 0.037897564470767975, 0.16201424598693848, -0.02263001538813114, -0.08184386044740677, 0.06351369619369507, -0.05520658940076828, 0.011654623784124851, -0.08027239143848419, 0.02873074822127819, -3.8536224280732325e-21, -2.3908836697038837e-18, -3.819335832072588e-22, 0.038606539368629456, -0.020820707082748413, -0.0966363325715065, -0.039380088448524475, 0.15009881556034088, -0.01609727181494236, 0.17194020748138428, 0.011996610090136528, -0.03045593947172165, 5.268511093512338e-26], [0.1103445515036583, -0.07007572054862976, -0.07049116492271423, 0.013538899831473827, -0.18099886178970337, -0.0013525108806788921, -0.012707089073956013, 0.15275950729846954, -0.019596315920352936, -0.0872434675693512, 0.031061943620443344, 0.020005742087960243, -0.12651705741882324, -0.12765945494174957, 0.002449770923703909, -0.08031992614269257, 0.016580846160650253, -0.09766432642936707, -0.012536898255348206, -0.12712492048740387, 0.05814875289797783, 0.09851639717817307, 0.15623897314071655, 0.013522426597774029, 0.10376012325286865, 0.07787013798952103, 0.010884726420044899, -2.2992342089178573e-25, 3.960415037941935e-25, -2.5966033071000627e-20, 0.06989631801843643, -0.04132470116019249, -0.04597378149628639, 0.1034606546163559, 0.1028858944773674, -0.01624417118728161, 0.037204328924417496, 0.09862686693668365, -0.12059160321950912, 7.05598908594341e-23], [-0.018675679340958595, -0.021424051374197006, 0.13835062086582184, -0.048672303557395935, 0.13668712973594666, -0.010344001464545727, -0.06530390679836273, -0.15515531599521637, -0.025570500642061234, -0.1497628539800644, 0.03969332575798035, 0.07266946136951447, -0.06621705740690231, 0.022394364699721336, 0.133085697889328, 0.05489614978432655, -0.09819674491882324, 0.060571011155843735, 0.04206760972738266, 0.00458034360781312, 0.02789936773478985, 0.10588594526052475, 0.20165415108203888, -0.0047294022515416145, 0.022790340706706047, -0.13716621696949005, -0.0030163684859871864, 1.0511803146388206e-20, 2.4752177369971525e-25, 1.7604163162926924e-23, 0.16262149810791016, 0.059249941259622574, -0.13196174800395966, 0.006890737451612949, -0.09502729028463364, -0.03485976532101631, -0.1675373911857605, 0.11172576993703842, -0.06549941748380661, 3.940705805764313e-21], [0.057793546468019485, 0.038884446024894714, 0.03829922154545784, 0.02924245223402977, 0.10661228746175766, -0.0258763637393713, -0.09442025423049927, -0.09213358908891678, 0.0011571748182177544, -0.13688990473747253, -0.12795132398605347, -0.06307069957256317, -0.03951990604400635, -0.01770721562206745, 0.019557703286409378, -0.07602108269929886, -0.0894286036491394, -0.09396293759346008, 0.11818882077932358, 0.06633051484823227, 0.07985489815473557, -0.04344281926751137, -0.05404200404882431, 0.10925208777189255, -0.0640682727098465, -0.005020711570978165, 0.09499243646860123, 9.17562631430605e-20, 2.4307398617925426e-20, 2.1594119069617123e-23, 0.04267434403300285, 0.06311938166618347, 0.0951484963297844, 0.014672531746327877, 0.09039938449859619, 0.013087189756333828, 0.04166246950626373, -0.012452619150280952, 0.10116663575172424, -2.0254641141160897e-23], [-0.11540891230106354, 0.10581766813993454, 0.04430703446269035, -0.02440671995282173, -0.2136751413345337, 0.020556792616844177, 0.07079385221004486, 0.16308100521564484, -0.05604974180459976, 0.14818154275417328, -0.011535296216607094, -0.028956184163689613, -0.009493323042988777, 0.01887676492333412, 0.09382153302431107, -0.017759842798113823, -0.050104472786188126, 0.06757257133722305, -0.042564790695905685, 0.1669301986694336, 0.13283281028270721, 0.002356956945732236, 0.018450073897838593, 0.06930592656135559, -0.10523800551891327, -0.023481570184230804, -0.10864564776420593, -3.374896899216353e-19, -6.034118351399697e-25, -3.5390124449057913e-26, 0.05595356971025467, -0.06601894646883011, -0.03221266716718674, -0.04445556551218033, -0.04749278351664543, -0.03797183558344841, -0.04356633871793747, -0.04563905671238899, 0.037872329354286194, 2.5705379695424967e-23], [0.17153088748455048, 0.10544804483652115, 0.1148412823677063, -0.17337319254875183, 0.1589500457048416, -0.06739957630634308, 0.026746001094579697, -0.03852793946862221, -0.14413754642009735, -0.12325426936149597, 0.2004675418138504, 0.14292924106121063, 0.004892354365438223, 0.10529953986406326, 0.13337793946266174, 0.11819969862699509, 0.1444483995437622, 0.030846362933516502, 0.13285920023918152, -0.15206050872802734, 0.10058509558439255, -0.10060803592205048, 0.04267748072743416, 0.20710033178329468, -0.09935050457715988, 0.04847578704357147, -0.0002012494660448283, 2.925339304325933e-25, 1.1118632989644308e-18, 1.416597601639356e-23, 0.12700054049491882, 0.05592692270874977, -0.04845196381211281, -0.14015719294548035, -0.1791038066148758, 0.039782363921403885, 0.021453628316521645, 0.10179825127124786, 0.017012886703014374, -1.0119264870927751e-25], [0.11031176894903183, -0.09203976392745972, 0.09071259945631027, 0.020907124504446983, -0.0118857491761446, 0.03289487212896347, -0.0665169209241867, -0.15339164435863495, 0.049156151711940765, -0.10874620079994202, -0.05871621519327164, 0.011655861511826515, -0.017857316881418228, 0.1796979159116745, 0.012301773764193058, -0.07052003592252731, 0.11893235146999359, 0.03745700791478157, 0.07462619245052338, -0.013977300375699997, 0.15794292092323303, -0.08931528776884079, -0.0636652410030365, 0.14744020998477936, 0.11856377869844437, 0.16461876034736633, -0.0015825767768546939, -2.322419710495548e-15, 2.574751275637282e-25, 3.4542753213188688e-15, -0.1670421063899994, 0.07742848992347717, -0.028250189498066902, 0.06422045081853867, 0.06264140456914902, 0.00694976095110178, 0.16105981171131134, 0.09815812855958939, -0.10215818881988525, 5.4984800711214e-26], [-0.05743666738271713, -0.007228482514619827, -0.022051384672522545, 0.051641300320625305, 0.11384181678295135, 0.013744502328336239, 0.18330305814743042, 0.09285943955183029, 0.057562172412872314, 0.0694289579987526, 0.03148145228624344, -0.02231586165726185, 0.07310368120670319, -0.17316687107086182, -0.07888714224100113, -0.03018612042069435, -0.03580927103757858, -0.06895145028829575, -0.011778191663324833, 0.11468788981437683, -0.08865883201360703, -0.10835035145282745, 0.0021128777880221605, -0.17476972937583923, -0.14757350087165833, -0.00041209685150533915, -0.0005707572563551366, -2.10841299607226e-24, 6.599727968017171e-21, -5.954243226517675e-26, 0.1075604036450386, -0.011501846835017204, -0.0966784656047821, -0.11963170021772385, -0.11686918884515762, -0.03921229764819145, -0.2389661818742752, 0.11513784527778625, 0.04864577576518059, -9.618630863311977e-17], [0.07276131212711334, -0.0002900449326261878, -0.12812793254852295, -0.000726656406186521, -0.21800649166107178, 0.0015358163509517908, -0.18423329293727875, -0.08825546503067017, 0.03884708508849144, -0.0973186120390892, 0.02980070188641548, 0.00040006363997235894, -0.028985729441046715, -0.08109965920448303, -0.09517520666122437, -0.0786583349108696, -0.013015905395150185, -0.055858295410871506, -0.027206147089600563, 0.19970977306365967, -0.05673392117023468, -0.0458056703209877, 0.049559615552425385, -0.010457946918904781, 0.012114724144339561, 0.12126873433589935, 0.11754602938890457, 1.296078827797026e-21, 3.4299381589201214e-15, 1.5576614027486627e-15, 0.0805540606379509, 0.0003468353534117341, -0.016162114217877388, -0.07261435687541962, -0.12029130756855011, -0.012834231369197369, -0.15209649503231049, 0.03374719247221947, -0.1089891567826271, -1.6148796430059931e-15], [0.0814349502325058, -0.01951492205262184, -0.015605594031512737, -0.0072930133901536465, 0.06596226990222931, -0.020368564873933792, 0.06307277828454971, 0.11188343167304993, -0.16993971168994904, -0.073393315076828, 0.023256652057170868, 0.01198658999055624, 0.010892989113926888, -0.020913368090987206, 0.08618209511041641, 0.01627383567392826, -0.04682710021734238, 0.013978933915495872, -0.027494607493281364, 0.00530507555231452, -0.18534597754478455, -0.22590987384319305, -0.21843397617340088, -0.022195808589458466, -0.14976507425308228, -0.11743514984846115, -0.1655714362859726, -4.0180822492277884e-25, 3.82693454420846e-21, 1.1816207082064406e-23, -0.006486354861408472, -0.034519780427217484, -0.0914832204580307, -0.07278919219970703, 0.013740906491875648, -0.022164244204759598, 0.04902832955121994, -0.13260596990585327, -0.06421791017055511, -7.966541737912482e-18], [0.13982291519641876, 0.13888725638389587, -0.07365602999925613, -0.025766033679246902, 0.20369890332221985, -6.975830183364451e-05, -0.08836179971694946, -0.0018842024728655815, 0.11509999632835388, -0.04982253164052963, 0.026778768748044968, -0.020850664004683495, -0.10533266514539719, -0.185573548078537, -0.1889297068119049, -0.09643418341875076, 0.04376468434929848, -0.0375792533159256, -0.10254929214715958, -0.0016507288673892617, 0.08870789408683777, 0.18588954210281372, 0.011153819970786572, -0.08158369362354279, -0.08991743624210358, 0.056287068873643875, 0.056107018142938614, 7.167602806612597e-23, -7.312305695537175e-20, -8.573521509431124e-26, 0.06282361596822739, 0.008672723546624184, 0.05689089372754097, -0.0020960213150829077, 0.001394285005517304, -0.029579458758234978, -0.3153857886791229, 0.030414270237088203, -0.005693868268281221, -1.3318277033088122e-26], [-0.056100159883499146, 0.037919480353593826, -0.08117780834436417, 0.05849356949329376, 0.2778206765651703, 0.019701702520251274, -0.004640202969312668, 0.06377483904361725, -0.11658363789319992, -0.07864481210708618, -0.09359361976385117, 0.01930772326886654, -0.0021175453439354897, 0.1103048101067543, 0.0828055664896965, -0.13903972506523132, 0.13992761075496674, -0.005788832902908325, 0.007993357256054878, 0.10513385385274887, -0.10067319869995117, 0.12892812490463257, -0.11639286577701569, -0.1339191496372223, -0.04430466145277023, -0.08190275728702545, -0.029554810374975204, 8.532185814295125e-26, -3.4818692147547085e-23, -9.788235810673727e-18, 0.10384932160377502, -0.030548863112926483, 0.06930309534072876, -0.09138047695159912, -0.11434987187385559, 0.0549105666577816, 0.03217282146215439, 0.0940677747130394, -0.15039141476154327, 3.9783703749613805e-27], [-0.021497005596756935, 0.023203112185001373, -0.06417596340179443, -0.011622333899140358, 0.06924780458211899, -0.0071125030517578125, -0.09287498891353607, -0.0406235009431839, 0.11996082961559296, 0.03010627254843712, 0.0706871747970581, 0.007830696180462837, -0.02495812624692917, 0.009481597691774368, -0.02105593867599964, 0.052845679223537445, 0.024263428524136543, 0.007032555062323809, -0.10346180200576782, 0.00754736689850688, 0.08936289697885513, -0.16338524222373962, 0.049723152071237564, -0.09146211296319962, 0.037189360707998276, -0.0023895283229649067, -7.222755812108517e-05, -1.8732079009566823e-22, -6.023833380132652e-23, 4.669841594311717e-25, 0.03183121606707573, 0.005263409111648798, 0.007900758646428585, 0.01839572563767433, 0.05332750082015991, 0.0032302553299814463, -0.09036088734865189, -0.10919695347547531, -0.07622992247343063, 3.4201339643138897e-15], [-0.029499022290110588, 0.1272110790014267, 0.040530309081077576, -0.011384417302906513, 0.06596153229475021, 0.013463159091770649, 0.10992469638586044, 0.09223669767379761, -0.036617644131183624, 0.006330781150609255, 0.07235877960920334, 5.3875381126999855e-05, 0.005100816022604704, 0.02993292361497879, -0.027047866955399513, 0.09167362004518509, 0.04969649016857147, -0.03324150666594505, -0.05059725046157837, 0.06958669424057007, 0.09052665531635284, -0.1293080747127533, 0.0363493375480175, 0.040050722658634186, -0.06017541140317917, 0.0875471979379654, 0.05516468733549118, 1.0506975724986238e-15, -1.6144204029178155e-14, -8.816227435215885e-23, 0.05856116861104965, -0.047513917088508606, -0.05730345472693443, 0.03082295134663582, 0.09974050521850586, -0.004860205575823784, -0.03572539612650871, 0.011952565982937813, 0.00909608043730259, 1.0912305999389336e-24], [0.065096415579319, 0.08927048742771149, 0.15214183926582336, -0.14012494683265686, -0.12267260998487473, -0.02426474168896675, -0.00035839647171087563, 0.03461914137005806, -0.04811976104974747, -0.13131676614284515, 0.1416926383972168, -0.08636422455310822, -0.08353646844625473, -0.03656063228845596, 0.12568578124046326, 0.08013610541820526, 0.11083992570638657, 0.07122868299484253, -0.14630667865276337, 0.09507457166910172, -0.16767184436321259, -0.033287327736616135, -0.12538446485996246, 0.12168969959020615, 0.011046954430639744, -0.04838574305176735, -0.060152940452098846, -6.0982864667978635e-24, -2.89634448052087e-20, 1.043323027861055e-25, -0.03755350410938263, -0.03291873633861542, 0.01892358623445034, -0.10376182943582535, -0.1361955851316452, -0.04634809494018555, 0.010360772721469402, -0.03519732505083084, 0.043957654386758804, -4.960899603461535e-22], [0.020485064014792442, 0.10179027915000916, 0.0675133615732193, -0.04332315921783447, 0.0026439866051077843, -0.011914604343473911, 0.09196536242961884, 0.012008553370833397, 0.043702382594347, -0.10070633888244629, -0.006881866604089737, -0.03662063553929329, -0.04449944570660591, 0.024462921544909477, 0.03458626568317413, 0.050676193088293076, 0.15491658449172974, 0.14293672144412994, -0.10846758633852005, -0.05334394425153732, -0.11477649956941605, 0.003636070992797613, 0.145919069647789, -0.0765286460518837, -0.04285716637969017, 0.07978031784296036, 0.03599470108747482, 2.4338563792298307e-24, -4.281513966879227e-25, 3.0215563731129004e-24, 0.009232058189809322, -0.0025735909584909678, 0.00955901388078928, 0.05562512204051018, -0.056572362780570984, -0.014909856952726841, 0.0034721035044640303, -0.01828719675540924, -0.02169051393866539, -1.0093534446870738e-24], [0.07771892100572586, -0.18481722474098206, -0.07254322618246078, -0.04431893676519394, 0.10303766280412674, -0.020579632371664047, 0.1321982443332672, -0.033347081393003464, 0.03657232224941254, 0.11915668845176697, 0.16094417870044708, -0.028569186106324196, -0.03370513767004013, 0.04857757315039635, -0.09153969585895538, 0.05911479890346527, 0.1688375174999237, 0.16337789595127106, 0.08304309099912643, -0.09080976247787476, -0.10292927920818329, -0.14291253685951233, 0.0016160138184204698, -0.006323290057480335, 0.08639681339263916, -0.045347314327955246, -0.09709113091230392, -2.9317873547575964e-24, -3.436251987176708e-19, 6.23344328758835e-26, 0.04579728841781616, 0.07787011563777924, -0.10877098888158798, 0.1215088963508606, -0.01614924892783165, 0.028623905032873154, -0.11768734455108643, -0.07358694076538086, 0.011202129535377026, -2.986559840951741e-25], [-0.013217802159488201, 0.07695594429969788, -0.17985433340072632, -0.0747474730014801, -0.12823498249053955, -0.006086203269660473, -0.03629956766963005, 0.16986127197742462, 0.14092540740966797, -0.1699066013097763, -0.04483218863606453, -0.10252215713262558, -0.18113550543785095, -0.2015317678451538, -0.03416818380355835, 0.15285898745059967, 0.0157850943505764, 0.010593744926154613, 0.04353916272521019, 0.11981314420700073, -0.05982745438814163, -0.15290378034114838, -0.11066791415214539, 0.13825435936450958, -0.09979739040136337, -0.0033743223175406456, 0.09933553636074066, -1.05923757079297e-20, -2.0183659042478657e-24, -1.5931524851062239e-21, -0.02484542690217495, -0.04620525985956192, -0.03779128938913345, -0.13676542043685913, -0.0784587413072586, -0.05844923108816147, -0.11833170801401138, 0.08307039737701416, 0.11903458833694458, -1.1880781903209336e-16], [-0.04415862634778023, -0.03307786211371422, -0.07062423974275589, 0.06294392794370651, 0.10780143737792969, 0.006950028706341982, -0.04469585046172142, 0.053552523255348206, -0.10681580007076263, -0.08112803101539612, -0.16439667344093323, -0.0023237192071974277, 0.1156018003821373, -0.12041917443275452, -0.10989247262477875, 0.049938734620809555, -0.14309754967689514, -0.06571587920188904, 0.015255865640938282, -0.11097841709852219, 0.11633201688528061, 0.0623042918741703, -0.09646565467119217, 0.11653472483158112, 0.06366194039583206, 0.08403019607067108, 0.12241344153881073, 3.5296701131166786e-25, 2.2170953096176452e-23, -8.400512252469976e-16, 0.027150191366672516, 0.02644226886332035, 0.10170059651136398, -0.0039269025437533855, -0.05002086982131004, 0.02011941373348236, -0.1806364506483078, 0.08314254134893417, 0.03950970992445946, -3.1052732506033487e-24], [0.14934894442558289, -0.08266296982765198, -0.009834147989749908, -0.01882680132985115, -0.2960834503173828, -0.012190351262688637, -0.062167562544345856, -0.23434993624687195, -0.05249921604990959, 0.033168237656354904, 0.006785200908780098, -0.04472758248448372, 0.113651804625988, -0.062227267771959305, 0.10908906906843185, 0.11837558448314667, -0.03670484572649002, 0.03928329050540924, 0.02550499141216278, -0.08050775527954102, 0.07610122114419937, -0.16261470317840576, -0.19120672345161438, 0.11648796498775482, 0.042220354080200195, 0.028522076085209846, 0.1644171178340912, 1.0692719462407265e-15, -1.682739534747153e-26, -1.7389047104960395e-23, -0.14001548290252686, 0.05505568906664848, -0.09765328466892242, 0.060641925781965256, 0.08872614800930023, -0.11905431002378464, 0.04400214925408363, 0.07035623490810394, 0.06014208123087883, 1.260810459689954e-21], [0.029770681634545326, 0.11279461532831192, -0.0748627558350563, -0.035213518887758255, -0.004401208832859993, 0.011360743083059788, 0.14809970557689667, 0.18526650965213776, -0.11914746463298798, 0.07937687635421753, 0.024687496945261955, 0.055685609579086304, -0.10743654519319534, 0.06113147363066673, 0.09420139342546463, -0.05970623344182968, 0.13781331479549408, 0.11673768609762192, -0.10971421003341675, 0.016578102484345436, 0.12521708011627197, 0.16998985409736633, -0.019112516194581985, -0.07519511133432388, -0.08832564949989319, -0.13675379753112793, 0.004455369431525469, 2.25685536849422e-25, -9.578641633438956e-21, -1.1342398787024856e-19, 0.048940107226371765, -0.10132754594087601, -0.0035556701477617025, -0.09657055139541626, -0.10471826046705246, -0.08491457253694534, -0.1295781284570694, 0.050759028643369675, -0.10249505937099457, -7.88529583640819e-26], [0.1743108034133911, -0.021324312314391136, -0.16076184809207916, 0.012140301056206226, -0.26654231548309326, 0.017835242673754692, 0.09933870285749435, -0.16842541098594666, -0.11458110809326172, -0.07774664461612701, -0.044048964977264404, -0.01833743415772915, 0.061250146478414536, 0.09052249044179916, -0.04106445610523224, -0.15270787477493286, 0.04583371803164482, -0.0818563848733902, -0.023667670786380768, 0.031222015619277954, -0.07690279930830002, -0.08988551795482635, -0.0972762182354927, 0.030537649989128113, -0.07893987745046616, 0.042568810284137726, 0.11107528954744339, 6.274004886766186e-18, -6.1117680996680906e-24, 1.581297811588699e-22, -0.03756868466734886, 0.03792280703783035, -0.012009789235889912, 0.1074533760547638, 0.15152092278003693, -0.006690292153507471, -0.02162419632077217, -0.028353841975331306, 0.08395837992429733, -1.0891844919660166e-24], [0.04542112350463867, -0.11167361587285995, 0.16167114675045013, 0.01973574236035347, 0.20816536247730255, -0.014526900835335255, -0.031481172889471054, -0.06452127546072006, 0.0011399384820833802, 0.09812397509813309, -0.051255930215120316, 0.04937806352972984, -0.007818329147994518, -0.020802374929189682, 0.11795862019062042, -0.07446944713592529, 0.028366850689053535, 0.06597142666578293, -0.054532501846551895, -0.11969809979200363, 0.05084647238254547, 0.04876793175935745, -0.08151825517416, 0.05076609179377556, -0.12540312111377716, 0.12685585021972656, 0.06429483741521835, -1.1150927548533508e-22, 2.866524892068662e-24, -1.0999065841557358e-19, -0.005263733211904764, 0.04922877997159958, -0.12465903162956238, 0.019441496580839157, -0.11520403623580933, 0.025096578523516655, 0.05700283125042915, 0.11619193106889725, -0.16868926584720612, 1.0686610330607662e-22], [-0.024336811155080795, -0.04578646272420883, 0.024927550926804543, 0.07210986316204071, -0.10604455322027206, 0.00338177103549242, 0.0019859399180859327, 0.08611395955085754, -0.13455159962177277, -0.05078801140189171, -0.02891998365521431, -0.014801150187849998, 0.18296578526496887, 0.06055194139480591, 0.1001703068614006, -0.09985921531915665, -0.02202608808875084, -0.108538918197155, 0.07339324802160263, -0.15278251469135284, 0.0956164076924324, -0.013701402582228184, -0.09072752296924591, 0.09250357747077942, -0.0035149173345416784, -0.06377773731946945, -0.060254763811826706, 1.7508687327568024e-23, -5.2228137617794685e-24, -2.2271999293209718e-18, -0.1521126925945282, -0.005690402816981077, -0.013352704234421253, -0.032562222331762314, 0.0666898712515831, 0.038274843245744705, 0.19691967964172363, 0.07087580859661102, -0.10004834085702896, 8.182283034562175e-24], [-3.081996692344546e-05, -0.025354435667395592, 0.011765597388148308, -0.002230290789157152, -0.1547543704509735, -0.0054078251123428345, -0.07394832372665405, 0.05750727653503418, -0.1311788558959961, 0.04698948934674263, -0.024860946461558342, -0.03202761709690094, -0.04182595759630203, 0.07105614244937897, 0.09446677565574646, 0.03672780841588974, -0.12485256046056747, 0.04192216321825981, -0.08734413981437683, -0.1059349849820137, -0.10409615188837051, -0.14769065380096436, -0.031862031668424606, 0.004723170772194862, 0.10963355749845505, 0.023018205538392067, -0.043666403740644455, -1.829727981742605e-17, 4.688706709822012e-25, -1.9694216542243739e-19, 0.07136142998933792, 0.0062288749031722546, 0.06305389851331711, -0.032844580709934235, -0.08289244025945663, 0.016532599925994873, 0.09898006916046143, 0.0578521266579628, -0.09072553366422653, -6.0793676101384006e-24], [-0.06227301433682442, -0.045602768659591675, 0.1103186160326004, 0.026297051459550858, -0.23231075704097748, -0.02014056406915188, -0.1318017840385437, 0.05227743461728096, -0.03397171571850777, -0.10708237439393997, 0.004015625454485416, -0.03562060743570328, -0.0024879539851099253, 0.061587534844875336, 0.027226148173213005, -0.018590683117508888, 0.04498522728681564, -0.1489066630601883, -0.057318538427352905, 0.061774637550115585, -0.002950729802250862, 0.003745590802282095, 0.07759644091129303, 0.02236194908618927, -0.054779864847660065, 0.07129361480474472, 0.06705950945615768, -4.720631378175195e-23, -1.1004572772251623e-21, -1.6371915688963069e-25, -0.09760453552007675, 0.021134374663233757, 0.11712266504764557, 0.12867078185081482, 0.12952949106693268, -0.04368375614285469, 0.011977193877100945, -0.04748187214136124, 0.06532467156648636, -1.230330493292081e-17], [-0.020589670166373253, -0.00853219348937273, 0.04765978828072548, -0.06305442750453949, 0.2326292097568512, -0.047349292784929276, 0.05099215358495712, -0.05158970132470131, -0.02671191655099392, 0.04603482037782669, -0.0035286028869450092, 0.08450434356927872, 0.07074246555566788, -0.03357602283358574, 0.06919314712285995, 0.006595243234187365, 0.1483566164970398, 0.12984739243984222, -0.024033652618527412, -0.06543448567390442, 0.1336958408355713, 0.09352860599756241, -0.07040003687143326, 0.029004978016018867, 0.10157883167266846, 0.038940612226724625, -0.06534935534000397, 8.056029988201305e-25, 1.472916906017981e-23, -8.503753950859325e-23, 0.04471824690699577, 0.08840425312519073, 0.06725922971963882, 0.11185133457183838, -0.04960889369249344, 0.02878715470433235, 0.10604600608348846, -0.04607051983475685, -0.018141744658350945, -3.027442713703218e-15], [0.08007106930017471, 0.0010587464785203338, -0.13040609657764435, -0.00117543525993824, -0.13173604011535645, -0.005534328520298004, 0.0874381959438324, -0.03816712275147438, 0.10831562429666519, -0.11331327259540558, 0.03280685842037201, 0.010990728624165058, -0.0023001309018582106, 0.018436308950185776, -0.05442092940211296, 0.01837080903351307, -0.023368394002318382, 0.055344726890325546, 0.02767632156610489, -0.1419408917427063, -0.028018886223435402, -0.17172157764434814, -0.17388981580734253, -0.03253152221441269, 0.04241032898426056, -0.048086490482091904, 0.13779577612876892, 6.3336601541106615e-21, -1.025892781312028e-22, -1.7852399545999156e-24, 0.06064681336283684, 0.01149326004087925, -0.010279582813382149, 0.014475973322987556, -0.003559085074812174, -0.011363067664206028, -0.07644359022378922, -0.09049839526414871, -0.010938812978565693, 1.0931001509805008e-25], [-0.010481126606464386, -0.10808436572551727, 0.0020229285582900047, -0.08876760303974152, -0.006581874098628759, 0.033377278596162796, -0.05538104474544525, 0.019778894260525703, -0.07956679165363312, 0.07881669700145721, 0.1782187521457672, -0.12379807978868484, -0.13568179309368134, 0.07246889173984528, -0.08365830034017563, 0.12753936648368835, -0.06544464081525803, -0.0006670162547379732, -0.18043574690818787, -0.10646676272153854, -0.2060193568468094, 0.16185127198696136, 0.14049981534481049, 0.15918923914432526, 0.08436165750026703, 0.016616083681583405, 0.014884856529533863, 6.03839726705597e-22, -2.297405132514957e-20, 1.2368809470982836e-24, 0.02781485952436924, 0.015189397148787975, -0.08225119858980179, 0.04407985135912895, 0.07391159981489182, -0.07946643233299255, -0.06694164127111435, 0.09308245778083801, -0.11568191647529602, 1.9353179508944685e-16], [-0.06970202177762985, -0.05789109319448471, 0.07829298824071884, -0.05145051330327988, 0.16164059937000275, -0.011235787533223629, -0.025548849254846573, -0.026875073090195656, 0.11051499098539352, -0.05695430561900139, -0.03927464038133621, -0.042115915566682816, 0.1355031132698059, -0.052545126527547836, 0.03040774166584015, -0.015125623904168606, 0.10829145461320877, 0.11183658987283707, 0.07582878321409225, -0.11381108313798904, -0.09034515172243118, 0.06971153616905212, -0.1484668254852295, 0.023405497893691063, 0.012518337927758694, 0.019705718383193016, -0.12330902367830276, 3.2610494163421156e-25, 1.819309476589827e-24, -3.286392558998472e-24, -0.0005171914235688746, 0.04549631103873253, -0.044047143310308456, -0.08416765928268433, 0.010559889487922192, 0.01221655122935772, -0.02229115180671215, 0.05627446249127388, 0.0037161321379244328, 9.69055570027603e-25], [-0.10962294787168503, -0.13550764322280884, 0.035089198499917984, -0.1101604476571083, 0.18269909918308258, 0.0430678091943264, -0.17240765690803528, 0.03743232041597366, -0.07224888354539871, -0.15519389510154724, 0.10798130184412003, 0.03043433465063572, -0.13184313476085663, 0.038555875420570374, 0.1028689593076706, 0.0606701485812664, -0.03874610364437103, 0.12401528656482697, 0.04755285382270813, 0.024360571056604385, -0.08178811520338058, 0.1492632031440735, 0.05696405842900276, 0.16579335927963257, 0.08049742877483368, -0.15165191888809204, 0.023136107251048088, -1.7407240426636138e-16, -1.087914623123837e-25, 1.026101088977841e-17, 0.07257106155157089, 0.08664216846227646, -0.04183181747794151, -0.04898974671959877, 0.04841110110282898, 0.027916809543967247, -0.06845590472221375, 0.08934582769870758, -0.1328461915254593, -2.654716133447273e-25], [0.0402032844722271, 0.1457589566707611, 0.11570189893245697, 0.018253039568662643, 0.2922426164150238, 0.01854804717004299, 0.10205251723527908, 0.17856061458587646, -0.10760892182588577, -0.013050037436187267, -0.03344116359949112, -0.01839139312505722, -0.026480447500944138, 0.008926482871174812, -0.03532338887453079, -0.09717041254043579, -0.043760474771261215, 0.1196569874882698, 0.00943894125521183, 0.11818229407072067, 0.029094938188791275, 0.1055385023355484, -0.02764667198061943, -0.018165042623877525, -0.10575634241104126, -0.08809852600097656, 0.08222948759794235, 3.3254995652911167e-22, 2.627231193990196e-22, 1.2752780505518982e-19, 0.04421586915850639, -0.06317954510450363, -0.007952925749123096, 0.11608213186264038, -0.2031846046447754, -0.04585915803909302, 0.12884686887264252, -0.07902561128139496, -0.09579364210367203, 4.721030778451509e-25], [-0.11365131288766861, -0.05050303414463997, 0.08504850417375565, 0.008693985641002655, 0.13296709954738617, -0.023055922240018845, 0.09388904273509979, -0.07799758017063141, 0.05121832340955734, -0.13483940064907074, 0.028421789407730103, 0.041420601308345795, 0.015072770416736603, -0.0196820218116045, -0.09313786774873734, 0.034846313297748566, -0.1712769716978073, 0.025509154424071312, 0.09948991239070892, 0.09662207216024399, 0.06319596618413925, 0.1406899243593216, 0.03624565154314041, 0.05899447202682495, 0.05575105920433998, 0.049003176391124725, -0.08972333371639252, 1.2159790716167987e-23, -2.169795619948264e-22, -8.704408661198439e-20, 0.062471989542245865, 0.018101759254932404, -0.0061154793947935104, 0.06593300402164459, -0.1088695228099823, 0.058292537927627563, 0.10299059748649597, -0.04215575382113457, -0.05298939347267151, 1.7244856840728996e-25], [0.052164603024721146, -0.05597803741693497, 0.0752970278263092, 0.034860070794820786, -0.12352041155099869, -0.0427272729575634, -0.13908597826957703, 0.08583617210388184, 0.06914898753166199, -0.10639443248510361, -0.08750692754983902, -0.09982358664274216, 0.035102106630802155, 0.11928854137659073, 0.05097652226686478, -0.045231036841869354, -0.16053414344787598, 0.03274574130773544, -0.11823735386133194, 0.132709339261055, 0.09026581048965454, 0.07269290089607239, 0.04549019783735275, -0.030189273878932, 0.09828069806098938, 0.04992295801639557, 0.09650584310293198, 4.531687579342238e-22, -2.8167408269732503e-23, -6.670800099394523e-25, 0.06891341507434845, -0.019155988469719887, -0.06534307450056076, -0.031455788761377335, 0.012093164026737213, 0.004726770333945751, 0.12506258487701416, -0.08505042642354965, 0.025989821180701256, 9.170262687452739e-24], [0.15243415534496307, 0.07266583293676376, 0.09368321299552917, 0.02354910783469677, -0.06832627952098846, 0.01714039407670498, 0.11187374591827393, -0.10270445793867111, -0.022596435621380806, -0.0733209177851677, 0.15809181332588196, 0.12031912803649902, 0.036330729722976685, 0.20634175837039948, 0.05517440661787987, -0.05381869897246361, -0.05759430304169655, -0.034022342413663864, 0.031149709597229958, -0.19069676101207733, -0.11176140606403351, 0.04724842309951782, -0.003940993454307318, 0.15653236210346222, 0.07657714933156967, -0.15353769063949585, 0.12295319885015488, -1.7911938822820712e-23, -1.6746051708710633e-24, 1.4410057074647542e-24, -0.21928656101226807, -0.016804881393909454, 0.041170164942741394, -0.09712716192007065, 0.014539367519319057, 0.023602182045578957, 0.2611960768699646, 0.04789897799491882, 0.02167915739119053, 2.085705003826749e-23], [-0.017193444073200226, -0.10784248262643814, 0.15055681765079498, -0.0054301791824400425, 0.34586092829704285, 0.020348582416772842, -0.12745019793510437, 0.0031527618411928415, -0.03854825720191002, -0.0359787754714489, 0.0041592055931687355, -0.01271288562566042, 0.009893810376524925, -0.07920798659324646, 0.04895392805337906, 0.05231203883886337, -0.020472273230552673, -0.03129453957080841, 0.06549163907766342, -0.041905440390110016, -0.038810815662145615, 0.1159556657075882, 0.13665637373924255, 0.13711480796337128, -0.0005858637159690261, -0.028099551796913147, 0.16677188873291016, 1.2112102546029373e-25, 1.164467142392576e-21, 9.052394820728975e-21, -0.011419997550547123, 0.06303981691598892, 0.15256476402282715, -0.10493969917297363, -0.2031150758266449, 0.06281373649835587, -0.17279084026813507, 0.09629148989915848, -0.11178286373615265, 6.018386492797327e-25], [0.0023178679402917624, 0.038175977766513824, -0.03183046728372574, -0.01592707820236683, 0.024428369477391243, 0.01599343679845333, -0.02193325012922287, -0.14590822160243988, 0.02253548614680767, -0.06052260100841522, -0.055953171104192734, 0.11498431861400604, -0.056635782122612, -0.039840616285800934, -0.06113789975643158, -0.09688111394643784, 0.09569777548313141, -0.0027864701114594936, 0.09891530126333237, -0.14992398023605347, -0.1783314198255539, -0.06249731779098511, 0.011966665275394917, 0.027631545439362526, -0.14455856382846832, 0.0014840266667306423, -0.14364036917686462, -6.721967708188557e-23, -2.315277707355312e-18, 3.987304589363962e-21, -0.044029854238033295, -0.015403235331177711, -0.08031034469604492, 0.0248133335262537, -0.05103444308042526, -0.005687459371984005, 0.15686017274856567, -0.07854752987623215, 0.059931643307209015, -4.228131749422921e-25], [-0.07361816614866257, -0.07763413339853287, 0.1578463464975357, 0.018706291913986206, 0.002734578913077712, -0.0028637712821364403, -0.15772950649261475, -0.004597651772201061, -0.10581211745738983, 0.039056167006492615, -0.15181195735931396, -0.08077844977378845, 0.04685330390930176, 0.10236841440200806, -0.11141780763864517, 0.08176775276660919, -0.06272321939468384, -0.12145921587944031, 0.0006139331380836666, 0.17114679515361786, 0.04967353865504265, 0.07560707628726959, -0.05540391430258751, 0.1364089846611023, 0.14908716082572937, 0.135493203997612, -0.06351598352193832, -1.6318842681315782e-21, -3.75996446700839e-19, 7.35109205038223e-25, 0.1504599004983902, 0.028320439159870148, 0.0070981900207698345, -0.02826373092830181, 0.030015042051672935, 0.03065730258822441, 0.12119925022125244, -0.06706671416759491, 0.05037331581115723, -1.2425775996291149e-22], [-0.11633798480033875, -0.043647199869155884, -0.061126772314310074, 0.07966689765453339, -0.02395215816795826, -0.005925735458731651, -0.1135258898139, -0.12305902689695358, -0.11585120856761932, -0.05501379817724228, -0.13422323763370514, 0.0034748876933008432, 0.11208562552928925, 0.16577161848545074, 0.012742599472403526, -0.055484164506196976, -0.10464049875736237, -0.038615643978118896, 0.017107006162405014, -0.1276562213897705, 0.03588695451617241, 0.028101276606321335, -0.21748211979866028, -0.10482746362686157, -0.0062746331095695496, 0.07768480479717255, -0.1243615373969078, 6.3048812965978486e-21, -7.125734151948256e-18, 1.1236319658930893e-20, -0.1600506603717804, -0.00863875262439251, -0.12231293320655823, 0.008151114918291569, 0.029848728328943253, -0.007969128899276257, 0.08646930754184723, 0.08783404529094696, 0.013466455042362213, 6.415184514199627e-26], [0.046395521610975266, 0.07296184450387955, -0.0410781130194664, 0.057373739778995514, -0.21323513984680176, -0.011850986629724503, -0.16227678954601288, 0.014096458442509174, 0.04382125288248062, -0.12137187272310257, -0.11421424150466919, -0.006664677523076534, 0.005300021264702082, -0.02925059385597706, 0.09494353830814362, -0.018288835883140564, -0.024358447641134262, 0.12657909095287323, -0.01996535435318947, -0.14912927150726318, -0.008228644728660583, 0.021193519234657288, 0.06148535758256912, -0.11986356973648071, 0.10345383733510971, -0.05449714511632919, 0.09015152603387833, -1.3448413937508235e-23, 1.3961295010481297e-23, -6.978086231653577e-23, -0.13613861799240112, -0.0048862784169614315, -0.13723717629909515, 0.08951873332262039, 0.21806399524211884, -0.053139835596084595, 0.03510598465800285, 0.006132950074970722, -0.016404593363404274, 1.874410424743383e-25], [0.08437133580446243, 0.04068834334611893, -0.16383805871009827, 0.11229464411735535, 0.0026125244330614805, 0.03172948583960533, -0.03335065394639969, 0.18711188435554504, 0.024859439581632614, 0.029423631727695465, -0.1182423010468483, -0.1389555037021637, 0.0618910938501358, 0.005705639719963074, -0.13369527459144592, -0.08224326372146606, -0.023014012724161148, -0.09265551716089249, 0.08499854803085327, 0.07793296873569489, -0.07994875311851501, 0.1307602971792221, 0.056354671716690063, 0.10669352114200592, 0.12605944275856018, -0.06458110362291336, -0.04170498251914978, 1.2183753677041378e-15, 6.380296272919232e-23, 4.433813425393459e-25, -0.064368337392807, -0.08178506046533585, -0.08439003676176071, -0.10148461908102036, -0.0004986418061889708, 0.06380970031023026, 0.1673184484243393, -0.0044772084802389145, -0.056086745113134384, 1.0176278856080275e-23], [-0.056831445544958115, 0.027657220140099525, -0.10584552586078644, -0.012364986352622509, -0.1883116066455841, -0.0064007192850112915, -0.05232793837785721, -0.05581444501876831, -0.11590003222227097, 0.07003125548362732, 0.07724736630916595, -0.047115474939346313, -0.013005661778151989, 0.030410146340727806, 0.0336209312081337, -0.022621886804699898, 0.13632164895534515, -0.04971617832779884, -0.12362690269947052, -0.11789342015981674, -0.10893477499485016, -0.09130657464265823, -0.04398422688245773, -0.05897105112671852, -0.11308249086141586, 0.08910869061946869, 0.0843416154384613, -1.904677785081549e-25, -4.873469766738351e-25, 4.287214914757688e-22, -0.03483249992132187, 0.043827228248119354, 0.05054055526852608, -0.020306162536144257, -0.06913208961486816, -0.030380751937627792, 0.030896220356225967, -0.10214608162641525, -0.10923833400011063, 1.0354884064770459e-24], [-0.03985080495476723, -0.008429202251136303, -0.08357498794794083, 0.006905166432261467, 0.17410245537757874, 0.0007466585957445204, -0.07069026678800583, -0.059260763227939606, -0.03585142269730568, -0.01797822117805481, -0.03257594630122185, -0.00028210849268361926, -0.003620544681325555, -0.10912492126226425, -0.19108420610427856, 0.02278556302189827, -0.012754358351230621, -0.09610689431428909, -0.020313307642936707, 0.02091808244585991, 0.03766557201743126, 0.08429297059774399, 0.1198461502790451, -0.10988426208496094, -0.014390192925930023, 0.10274460166692734, 0.15659816563129425, -2.1357645785933093e-24, -7.927045806778946e-25, -1.4251336781402877e-25, 0.027322467416524887, 0.04679521173238754, 0.10950373113155365, 0.0304575152695179, -0.08928634971380234, 0.0214868001639843, -0.1842733472585678, 0.002637380501255393, -0.046012308448553085, -1.0195398083409664e-24], [0.10800690948963165, -0.061273034662008286, 0.059386737644672394, -0.009370878338813782, 0.030888723209500313, 0.0062695275992155075, 0.13271956145763397, -0.037883274257183075, -0.052718717604875565, 0.08521275222301483, -0.025463756173849106, 0.0929039791226387, -0.01838841289281845, 0.02282673306763172, -0.02407437190413475, -0.10600337386131287, 0.08279210329055786, -0.044879935681819916, 0.020281152799725533, 0.0012383991852402687, 0.008982524275779724, 0.1292545199394226, -0.04333426058292389, 0.07199162244796753, -0.11823007464408875, 0.02067561261355877, -0.14242754876613617, -3.829666766320276e-25, -4.64272221299812e-23, 1.568896665723135e-23, 0.1521909385919571, 0.0881512314081192, -0.023240521550178528, 0.05810078978538513, -0.16278758645057678, 0.03897270932793617, 0.008053282275795937, -0.01982724666595459, -0.07623337209224701, 2.0804648848232918e-22], [-0.14436963200569153, 0.10059381276369095, 0.00915131438523531, -0.07208272069692612, 0.1786835491657257, 0.04221019521355629, -0.024128427729010582, -0.053811680525541306, 0.12596771121025085, -0.11780371516942978, 0.18404221534729004, -0.060296956449747086, -0.0918390080332756, -0.045463234186172485, 0.05190163478255272, 0.07207532227039337, -0.010619685985147953, 0.05567479133605957, -0.03839530423283577, 0.07933968305587769, -0.09714294224977493, -0.018250111490488052, -0.11406734585762024, 0.19542330503463745, -0.08500264585018158, -0.11175797879695892, -0.02647741697728634, -5.738704440080144e-20, -3.4332005063164714e-15, -2.233197429946642e-26, -0.004023207351565361, 0.00735224736854434, -0.09226106107234955, -0.07671605795621872, -0.14810995757579803, 0.00819945614784956, -0.0897076278924942, -0.0650135800242424, 0.13517382740974426, 1.5729964350121366e-24], [0.026575803756713867, 0.04993332549929619, -0.08840427547693253, 0.13136884570121765, 0.1417967975139618, -0.05551581084728241, 0.11645915359258652, 0.21827471256256104, 0.033008232712745667, 0.000830749690067023, -0.14579197764396667, -0.08517865836620331, 0.004555793013423681, -0.02816726267337799, 0.06807690858840942, 0.10184592753648758, 0.0031088560353964567, -0.17650969326496124, -0.12439273297786713, 0.14351314306259155, 0.16342628002166748, 0.11278983950614929, -0.011179642751812935, -0.1985008418560028, 0.0772743821144104, -0.03380098566412926, -0.04426374286413193, -1.088080458418296e-16, 1.9862677456601017e-24, -2.790725665513095e-19, 0.013055568560957909, 0.04266193136572838, 0.1293358951807022, 0.09300922602415085, -0.11764920502901077, 0.07839788496494293, -0.10257050395011902, -0.006163243670016527, -0.004989479202777147, 2.4490885695483014e-20], [0.009192299097776413, 0.08559072762727737, -0.04703579470515251, 0.02586580626666546, 0.14170315861701965, 0.022683728486299515, -0.17431068420410156, 0.08568985760211945, 0.02726309932768345, -0.05972076579928398, 0.1539752036333084, 0.08926020562648773, 0.012824500910937786, 0.11209259182214737, 0.0748491957783699, 0.16302546858787537, -0.11716082692146301, 0.04292144998908043, 0.1465899646282196, -0.008886936120688915, 0.07369217276573181, 0.031292516738176346, 0.06011904403567314, 0.06152593716979027, 0.11981292814016342, 0.06845506280660629, -0.07859306782484055, 4.620450989937982e-19, -5.024820324191215e-24, -2.07150530608925e-18, -0.14900840818881989, 0.05673213675618172, -0.038281068205833435, -0.11793152242898941, 0.09932870417833328, 0.0010453498689457774, 0.2564651072025299, -0.0035655463580042124, -0.0127792377024889, -2.260446718901959e-21], [-0.014849638566374779, 0.04886682704091072, 0.09989184141159058, -0.013424263335764408, 0.050321899354457855, -0.016230594366788864, 0.1082707941532135, -0.01101730391383171, -0.1041051596403122, -0.030951393768191338, 0.027820102870464325, 0.07215318083763123, -0.04492327198386192, 0.007608045823872089, 0.07465270906686783, 0.11198791116476059, -0.035465359687805176, 0.019720913842320442, -0.06484916806221008, -0.14306879043579102, -0.10488384962081909, 0.056430116295814514, 0.03166668862104416, 0.050489626824855804, -0.12482086569070816, 0.01823578029870987, -0.05006717890501022, 1.2361876764915077e-17, -3.1162967329394783e-21, -3.270932541864041e-23, 0.0034529257100075483, 0.02254496142268181, -0.011098342016339302, 0.05708327144384384, 0.0771743655204773, 0.0021420158445835114, -0.07854507863521576, -0.08022360503673553, -0.03242219239473343, -6.156892505391325e-22], [0.0969109833240509, -0.08851606398820877, 0.12555715441703796, -0.022352740168571472, -0.22464577853679657, 0.0076632630079984665, -0.09629331529140472, -0.10632888972759247, 0.0386090949177742, 0.009854638949036598, -0.04532906413078308, -0.02986421249806881, -0.014266927726566792, -0.024545885622501373, 0.02851109206676483, 0.000986471539363265, -0.04487112909555435, 0.09167252480983734, -0.05547477677464485, -0.10189370810985565, 0.1318599134683609, -0.1368243396282196, 0.06032934412360191, -0.09537730365991592, -0.05586346611380577, -0.10834768414497375, 0.13768211007118225, -1.9199630170359814e-15, -3.9857902280725663e-25, 1.1783946023699714e-24, -0.10812267661094666, 0.02580927312374115, 0.020481448620557785, 0.03176341950893402, 0.10873080790042877, -0.03639359027147293, -0.05368365719914436, -0.06013293191790581, 0.07847197353839874, -4.7286683659567225e-16], [0.11391077935695648, -0.07928182929754257, 0.11166650056838989, 0.12809523940086365, 0.0375874824821949, -0.024204835295677185, -0.025878582149744034, -0.01142666395753622, 0.0055101667530834675, -0.03611354902386665, -0.190935418009758, -0.04243176057934761, 0.024095071479678154, 0.03911113739013672, 0.0793256014585495, -0.004178634379059076, 0.016104938462376595, -0.06036166101694107, 0.17249874770641327, 0.10542015731334686, 0.16394037008285522, -0.16145402193069458, 0.049497347325086594, -0.16555048525333405, 0.02820531465113163, -0.09670663625001907, -0.1200483962893486, -2.271447865430418e-24, -4.741524595908245e-24, -8.962816168709597e-21, -0.17320089042186737, 0.07290597259998322, 0.0071396175771951675, -0.018140288069844246, 0.12546207010746002, 0.05458705872297287, 0.24309206008911133, 0.055136945098638535, 0.023046839982271194, 2.6992855913009024e-24], [-0.10938575863838196, -0.04033706709742546, 0.16534371674060822, -0.012638682499527931, 0.13813740015029907, 0.002552325837314129, -0.14836814999580383, -0.04616052657365799, 0.005616263952106237, -0.1495189070701599, 0.058549970388412476, 0.005420152563601732, -0.02538410574197769, -0.05698646232485771, -0.060915257781744, 0.07458242028951645, -0.07951080054044724, -0.01641637459397316, -0.005327108781784773, 0.18018317222595215, -0.037100911140441895, 0.002286779461428523, 0.10982681065797806, 0.07201916724443436, -0.0406610369682312, -0.16106344759464264, 0.03103913739323616, -1.8032864255434084e-16, 3.9436271911991745e-21, 1.988489125963333e-14, 0.12365422397851944, 0.05895646661520004, 0.09474111348390579, 0.05634445324540138, -0.17276698350906372, 0.03439488261938095, -0.001568296691402793, 0.015058296732604504, -0.04753345251083374, 5.601855115850923e-25], [0.046721696853637695, -0.014505976811051369, -0.10970033705234528, 0.13451382517814636, -0.008012916892766953, -0.051461707800626755, -0.022002292796969414, -0.03040461428463459, -0.08505736291408539, 0.08215004205703735, -0.09929412603378296, 0.10756877809762955, 0.011385452933609486, 0.15610121190547943, -0.058724675327539444, 0.03510412573814392, -0.08458337932825089, 0.00297852442599833, -0.08302831649780273, 0.15258604288101196, -0.04073851928114891, -0.10610935837030411, -0.16836905479431152, -0.07770547270774841, -0.03313635289669037, 0.02540695294737816, 0.11311612278223038, 2.357986623950756e-15, -9.699747901974118e-25, 9.385522102271673e-18, -0.19010020792484283, 0.042089980095624924, 0.049763210117816925, 0.0786251425743103, -0.09068819135427475, 0.07609046995639801, 0.236184760928154, 0.02648780681192875, 0.05532899126410484, 5.4292710363256884e-21], [0.15443925559520721, 0.08574371039867401, 0.026548033580183983, 0.0634249895811081, -0.19897830486297607, 0.025106189772486687, -0.14189058542251587, -0.1575196236371994, 0.107674241065979, 0.11201546341180801, 0.05405571684241295, 0.06330795586109161, 0.135309100151062, 0.17344005405902863, -0.09320654720067978, -0.11512145400047302, -0.04846775531768799, -0.15537643432617188, 0.04703197255730629, 0.13743703067302704, -0.08327903598546982, -0.03296448290348053, -0.12723734974861145, 0.10916098207235336, 0.14730997383594513, 0.15130086243152618, -0.00928389374166727, -2.1873237306090404e-22, 1.3359219182818226e-18, -3.0541010269730195e-24, -0.0939490795135498, 0.09182857722043991, 0.04286395385861397, 0.12703542411327362, 0.1509852409362793, 0.031154852360486984, 0.055287379771471024, 0.02147950790822506, -0.04015672951936722, -6.876049913462498e-22], [-0.13814951479434967, 0.14492875337600708, 0.03066682629287243, -0.1362997442483902, 0.16072632372379303, 0.029963180422782898, -0.1270313709974289, -0.07831862568855286, -0.04430225491523743, -0.04125693440437317, 0.14703193306922913, 0.05417320877313614, -0.01369951106607914, 0.019469162449240685, 0.05487639084458351, -0.026197025552392006, 0.10752920806407928, 0.17065951228141785, -0.031277600675821304, -0.14914125204086304, -0.05224663019180298, 0.01313988957554102, 0.09958437085151672, 0.0726129412651062, 0.02766825072467327, 0.1259257197380066, -0.003426815615966916, -1.2692820478341213e-16, 3.580104801104433e-24, -1.2961405135643707e-23, 0.08990839123725891, 0.04972391948103905, 0.07573714852333069, -0.019708603620529175, -0.05658683925867081, 0.025377195328474045, -0.1583818644285202, -0.016571279615163803, 0.08918694406747818, -7.43884106480306e-20], [0.07943028956651688, -0.03458277881145477, 0.07683338969945908, -0.01739809848368168, -0.10002250969409943, -0.014225360006093979, -0.030603159219026566, 0.06000547856092453, -0.09568851441144943, 0.12319294363260269, 0.054488372057676315, 0.06420828402042389, -0.012906207703053951, -0.022133054211735725, -0.007466987241059542, 0.1500544250011444, -0.08587891608476639, 0.16688713431358337, -0.05391577631235123, -0.01818988472223282, 0.002325604669749737, -0.03371884301304817, -0.08873583376407623, -0.03644608333706856, 0.020695438608527184, -0.028742359951138496, -0.09257841855287552, 1.2652248870717153e-14, -3.9463603607329374e-21, -1.3970347978229613e-23, 0.06979596614837646, -0.007732706610113382, 0.07624335587024689, 0.05327335745096207, 0.011733738705515862, -0.01375851035118103, 0.03066512756049633, -0.07870128750801086, -0.034044381231069565, -4.7178306064172985e-23], [0.06829983741044998, 0.08612963557243347, 0.10277234017848969, -0.1772402673959732, 0.19840458035469055, -0.028202317655086517, 0.0030810674652457237, 0.16860496997833252, 0.10464445501565933, -0.1314803659915924, 0.11068215221166611, 0.0033663909416645765, -0.04043417423963547, -0.23679523169994354, -0.03896882012486458, -0.0231544878333807, 0.023695118725299835, 0.17582657933235168, 0.034242190420627594, 0.1182679682970047, 0.020783646032214165, 0.1793634295463562, 0.12979085743427277, 0.08963494002819061, -0.1893775463104248, 0.027797099202871323, -0.04972974210977554, 1.087739805589712e-15, -4.935201484820535e-19, 5.064302102522712e-23, -0.0041303131729364395, -0.07388973981142044, 0.058362025767564774, 0.1088150218129158, -0.20115189254283905, -0.049877915531396866, -0.25170469284057617, 0.022840313613414764, 0.05945195257663727, -5.817870869679856e-24], [-0.07627341896295547, 0.05947669968008995, -0.08937516063451767, -0.04313752055168152, 0.0022708047181367874, 0.0199727863073349, 0.06301058083772659, -0.16816674172878265, 0.055685535073280334, -0.09696866571903229, 0.13697054982185364, 0.011998905800282955, 0.03839018940925598, 0.02175881341099739, 0.07179179787635803, -0.041390497237443924, -0.048914894461631775, -0.03344019502401352, -0.05469139292836189, -0.08882687240839005, -0.18532401323318481, -0.1718566119670868, -0.23026472330093384, 0.042434945702552795, -0.011392461135983467, 0.023413099348545074, -0.2502116560935974, -2.577543592371375e-18, -9.273917666179797e-21, -1.5476206958343154e-21, 0.08125380426645279, -0.013806497678160667, -0.057105690240859985, -0.07486336678266525, -0.11151622980833054, -0.0073092058300971985, -0.12896327674388885, 0.046724241226911545, -0.0231644157320261, -1.9768327892623004e-17], [-0.17802613973617554, -0.02844247780740261, 0.02404313161969185, 0.05324449762701988, -0.16848145425319672, -0.0009136111475527287, 0.05742333456873894, -0.048452600836753845, 0.021084092557430267, 0.03659246489405632, 0.029502850025892258, -0.014332149177789688, 0.016086319461464882, 0.15897312760353088, -0.0458039715886116, -0.07519800961017609, -0.1499529480934143, -0.04840252175927162, 0.06236368417739868, -0.1361815184354782, -0.09983283281326294, -0.027245819568634033, -0.1227145567536354, -0.16430413722991943, -0.006474494002759457, 0.0354650542140007, -0.07431712001562119, -1.885557029334156e-24, 1.4669698762537203e-16, 4.846219081388791e-19, -0.10963138937950134, -0.00975983589887619, -0.13636301457881927, 0.019057050347328186, -0.022894393652677536, -0.00943679828196764, 0.1973777562379837, 0.07784371823072433, -0.005645944271236658, -3.22362619420862e-22], [0.08758093416690826, -0.09593330323696136, -0.08868858963251114, -0.06826508790254593, -0.12888601422309875, 0.00985705852508545, 0.15916065871715546, -0.1261269748210907, 0.1398959755897522, -0.07316392660140991, -0.05678635835647583, -0.04041757062077522, -0.13267047703266144, -0.10204651951789856, -0.2009541243314743, 0.01449036505073309, 0.049446530640125275, -0.0811377689242363, -0.15075765550136566, -0.13963408768177032, 0.11427765339612961, 0.08331982046365738, 0.05089804157614708, 0.0756455808877945, -0.19450165331363678, 0.12086333334445953, 0.11895503103733063, -1.1234843416187298e-22, -9.35036891147164e-17, -5.478975957442482e-18, -0.03004988469183445, 0.01375395618379116, 0.14259541034698486, -0.010161759331822395, 0.12152432650327682, -0.03402720019221306, -0.2582244277000427, 0.027774628251791, 0.036214038729667664, -3.4096919538983755e-15], [0.04192011430859566, 0.18703804910182953, -0.13385255634784698, 0.09909947216510773, 0.09038300812244415, -0.04087921231985092, -0.020465396344661713, 0.20991189777851105, -0.03305276110768318, 0.05881543457508087, -0.2668857276439667, -0.03760937973856926, -0.06892501562833786, -0.060785405337810516, -0.19621682167053223, -0.17332588136196136, -0.21138809621334076, -0.06081013381481171, 0.023096006363630295, 0.22329553961753845, 0.026795808225870132, 0.23078182339668274, 0.16150198876857758, 0.08665100485086441, -0.06886332482099533, -0.10856274515390396, 0.08377265930175781, -5.4528404741460316e-24, -2.4002136862099073e-22, -1.507919847673995e-24, 0.11228656023740768, -0.08188700675964355, 0.0059992303140461445, 0.062464021146297455, -0.10398037731647491, 0.017490843310952187, -0.17206533253192902, 0.057622279971838, 0.0367121547460556, -3.0069272193092724e-20], [0.04855049028992653, -0.15729132294654846, -0.13040058314800262, 0.03734665364027023, -0.10253104567527771, -0.014853560365736485, -0.05857101082801819, -0.017185593023896217, 0.12144383043050766, -0.04935866966843605, -0.029078412801027298, -0.08551567792892456, 0.03699928894639015, 0.11187932640314102, -0.07694032788276672, 0.11776668578386307, -0.009291142225265503, 0.04815496504306793, 0.05929723009467125, 0.08652085065841675, -0.03341173008084297, -0.14487873017787933, -0.04205061495304108, -0.08897297084331512, 0.1455470323562622, 0.12204679846763611, 0.034309498965740204, 1.8786806958296157e-17, -2.4583810786970204e-24, 8.402852052515277e-21, -0.13312408328056335, -0.007868337444961071, 0.12139929831027985, -0.009481674060225487, 0.2016618400812149, -0.036938268691301346, 0.13279201090335846, -0.005523636471480131, 0.013059047982096672, 2.3036986377884633e-26], [0.021086791530251503, 0.09482507407665253, -0.022022048011422157, 0.0613490492105484, 0.08123628795146942, 0.022409478202462196, -0.12291647493839264, -0.11796488612890244, -0.11266228556632996, 0.03934497758746147, 0.055721886456012726, -0.007107426878064871, 0.08282259106636047, 0.066677525639534, -0.10141816735267639, 0.004402387887239456, -0.18852128088474274, -0.17316044867038727, 0.032784294337034225, 0.21492721140384674, 0.033509209752082825, 0.12514324486255646, -0.11077064275741577, 0.10847966372966766, 0.08791331946849823, 0.00766980042681098, 0.09369777143001556, -2.2226645174093892e-20, -1.248031446689776e-25, -5.2475992981049696e-23, 0.11876893043518066, 0.035784441977739334, -0.03054462932050228, 0.016154490411281586, -0.004970150534063578, 0.03430209681391716, 0.08802565932273865, -0.03547917306423187, 0.09366568922996521, 8.645979621257414e-18], [0.11125147342681885, 0.004246388096362352, 0.1907626986503601, 0.030713863670825958, -0.056753434240818024, -0.0012613116996362805, -0.07351280748844147, -0.11786499619483948, -0.08855640888214111, -0.11096300929784775, -0.14117871224880219, 0.10337039083242416, 0.12711285054683685, -0.0406079962849617, 0.03303016349673271, -0.011003975756466389, 0.17434106767177582, -0.020428940653800964, 0.0822974294424057, -0.012923583388328552, 0.1264551430940628, 0.08674965053796768, 0.05671452730894089, -0.026369763538241386, -0.05541845038533211, -0.01993098296225071, -0.09123283624649048, -8.701979865756347e-25, 2.393535537955835e-14, -1.1204000532514967e-23, 0.041829269379377365, 0.025770463049411774, -0.04431799054145813, 0.13287386298179626, -0.010073122568428516, 0.02062593586742878, 0.08602811396121979, 0.00416086008772254, -0.11877260357141495, -1.8915005046093174e-24], [-0.09675569087266922, 0.11771152913570404, 0.023839926347136497, -0.011617867276072502, 0.1575184315443039, 0.004613871220499277, 0.04000168293714523, 0.030826931819319725, -0.04453291743993759, -0.046896252781152725, 0.028005946427583694, -0.049990396946668625, -0.043399859219789505, 0.045109253376722336, 0.07669999450445175, 0.11217275261878967, -0.039344366639852524, -0.12634187936782837, 0.055017318576574326, -0.08533317595720291, -0.021864140406250954, 0.11287640035152435, 0.13098940253257751, 0.13119322061538696, 0.11137402802705765, 0.061397574841976166, -0.0029868113342672586, 2.3882276059918658e-15, 2.792443692761998e-16, -1.3448586949017842e-17, 0.09650436043739319, -0.035825420171022415, 0.019651122391223907, -0.1240159273147583, -0.03158155456185341, 0.08121997863054276, -0.06818317621946335, -0.10692501068115234, -0.027630699798464775, 2.9921232824858123e-25], [0.09181474894285202, 0.020946336910128593, 0.023431699723005295, -0.0006401701248250902, 0.04058084636926651, 0.00964614748954773, 0.07824791222810745, -0.022854294627904892, -0.024430405348539352, 0.1445021629333496, 0.10823160409927368, 0.043822210282087326, -0.005751932039856911, 0.03126474842429161, -0.036949336528778076, -0.14426766335964203, 0.02438327483832836, -0.13612960278987885, -0.03556020185351372, 0.1294449120759964, -0.09368995577096939, -0.044549982994794846, 0.06041822209954262, 0.018276890739798546, -0.006319304928183556, 0.026909952983260155, 0.07559723407030106, 2.234258595775584e-24, -1.742760653975948e-15, 2.980885893415484e-20, -0.12246114760637283, 0.024759676307439804, 0.07028461247682571, 0.05785171315073967, 0.0992274060845375, -0.0034073065035045147, 0.0438145212829113, -0.07426758855581284, -0.06408911198377609, 1.3252276295199514e-23], [0.0007161496905609965, 0.09458640217781067, -0.045537319034338, 0.0006172590074129403, -0.14200544357299805, 0.020026084035634995, -0.0009842428844422102, 0.022719381377100945, -0.15164990723133087, -0.16258051991462708, 0.011563178151845932, -0.012148403562605381, 0.07451652735471725, 0.04750422015786171, 0.03581542521715164, 0.10848354548215866, -0.006424253806471825, 0.006408157758414745, -0.0026900675147771835, -0.08869323879480362, -0.01396787166595459, -0.1538633108139038, -0.23483508825302124, -0.10810397565364838, -0.044869665056467056, -0.06821006536483765, -0.24629506468772888, 5.23259129826923e-24, -3.225038409056842e-25, -3.0621635305510243e-25, -0.016747305169701576, -0.04500729218125343, -0.11336178332567215, -0.10602974891662598, 0.06166289001703262, 8.658494334667921e-05, 0.025790689513087273, 0.07655606418848038, -0.04331684857606888, 7.129063697341316e-25], [-0.015162973664700985, 0.16324979066848755, -0.14117972552776337, 0.058561041951179504, -0.036071714013814926, 0.013978230766952038, -0.08443022519350052, -0.04826754704117775, 0.027854453772306442, 0.05823436379432678, 0.027030333876609802, -0.07683667540550232, -0.004239637870341539, -0.03735965117812157, 0.13978071510791779, 0.06497789919376373, -0.02280854806303978, 0.10954784601926804, -0.00015279189392458647, 0.0979250892996788, 0.11221873760223389, 0.04876192286610603, -0.025836216285824776, -0.1689574122428894, -0.11457351595163345, 0.11455544084310532, 0.022881781682372093, 1.7079720579201482e-15, -4.69621059281353e-16, -7.167834731718732e-25, -0.08539284765720367, -0.054708532989025116, 0.0545676089823246, -0.06473079323768616, 0.005516791250556707, -0.04834984615445137, -0.042148470878601074, 0.05966945365071297, -0.15138590335845947, 2.0210482285408435e-24], [-0.09407366812229156, -0.0028686781879514456, -0.01205191109329462, 0.03650164604187012, 0.08079744875431061, 0.010709958150982857, 0.05670716613531113, -0.0830451250076294, 0.0707297995686531, -0.09184905141592026, -0.12115191668272018, -0.01224624365568161, 0.04259662330150604, -0.005735494662076235, -0.022777821868658066, -0.07834799587726593, -0.07728400081396103, 0.028185417875647545, -0.013456880114972591, 0.0885288268327713, -0.0587485171854496, 0.04679561406373978, -0.12484436482191086, -0.08027385175228119, -0.05113453045487404, -0.06365419924259186, 0.1186433732509613, -1.9521627892373964e-16, -8.159663198478544e-16, -1.2206249890320073e-24, -0.10038857161998749, 0.05102104693651199, 0.08271120488643646, -0.030812403187155724, -0.02414068952202797, 0.003766033099964261, -0.09143702685832977, 0.04586926847696304, 0.05837053060531616, -8.138705076258796e-26], [0.09058104455471039, -0.010182030498981476, 0.05921212211251259, -0.004201080650091171, -0.08388989418745041, 0.0033806334249675274, -0.057886961847543716, -0.0192568376660347, 0.13194885849952698, 0.0011535694357007742, 0.008421976119279861, -0.018318260088562965, -0.023053277283906937, -0.05435402691364288, -0.15340758860111237, -0.11588228493928909, 0.06970790773630142, -0.058127883821725845, -0.022032950073480606, -0.09247038513422012, -0.10035879909992218, 0.13444365561008453, 0.08474214375019073, -0.09009721875190735, -0.11067303270101547, -0.02160719782114029, 0.06336943060159683, 1.138038447171694e-19, -1.3231234696516724e-19, -6.878523939033452e-25, 0.06702253967523575, 0.023310597985982895, -0.10399843007326126, -0.1182078868150711, -0.05527272820472717, -0.019879838451743126, -0.2239460051059723, -0.03735889866948128, -0.0756019726395607, 9.511214089930823e-25], [0.019452815875411034, 0.14055699110031128, -0.15498869121074677, 0.04319010674953461, -0.17130129039287567, 0.002444451441988349, -0.1051575317978859, 0.19150970876216888, -0.09108781814575195, -0.028105027973651886, -0.033764373511075974, -0.03372099995613098, -0.08903882652521133, -0.0727851390838623, -0.08199398964643478, -0.12176579236984253, 0.003298295894637704, -0.053849417716264725, -0.08787085115909576, 0.1485978066921234, 0.08840067684650421, -0.09360677748918533, -0.03961992636322975, 0.03333117067813873, -0.023535050451755524, -0.04862377792596817, -0.0931159183382988, -3.657444591107726e-17, 5.285543881250625e-20, 2.0451219927109592e-20, -0.09899291396141052, -0.08281834423542023, 0.04734107106924057, 0.0748199000954628, -0.0445517972111702, -0.028652265667915344, 0.06808919459581375, -0.02903071977198124, 0.11256356537342072, -1.2694641565351454e-23], [0.02944800816476345, -0.04777940735220909, -0.07394751906394958, -0.07952447235584259, 0.026726210489869118, -0.014626179821789265, -0.06246500089764595, -0.054670386016368866, -0.07929500937461853, 0.1131030023097992, 0.057654429227113724, -0.028596412390470505, -0.10675401240587234, -0.0007578395889140666, -0.07122921943664551, 0.17908160388469696, 0.17192544043064117, 0.12887045741081238, 0.08647125959396362, 0.022184191271662712, 0.12761396169662476, -0.02394730970263481, -0.11605921387672424, 0.051491864025592804, -0.14505654573440552, 0.07696777582168579, -0.09491881728172302, 4.495541547563647e-19, -5.170162029521397e-24, 3.813364462675818e-25, -0.009089373983442783, 0.035463329404592514, -0.04372662678360939, 0.026406144723296165, 0.025167249143123627, -0.025607116520404816, -0.008070401847362518, -0.06042870134115219, 0.015528774820268154, 3.1290828476599556e-24], [-0.010924669913947582, 0.0870891809463501, 0.039533067494630814, -0.04546478018164635, 0.10369259119033813, -0.006208330858498812, -0.07187042385339737, -0.03772049769759178, -0.13028405606746674, -0.035002779215574265, 0.07086805999279022, 0.11682391166687012, 0.03630027920007706, -0.11873404681682587, -0.06906870752573013, -0.048179659992456436, 0.1613820344209671, -0.053500495851039886, 0.09972035139799118, -0.15366092324256897, 0.14127537608146667, 0.09231092780828476, 0.015304720029234886, 0.17164626717567444, 0.039547111839056015, -0.0807172879576683, -0.05158918723464012, 2.7947575328423733e-21, 1.6034667665696224e-18, 1.2907973219950372e-25, 0.08946357667446136, -0.013347451575100422, -0.04560866206884384, 0.059578754007816315, -0.1294596791267395, 0.01850053109228611, 0.03256919980049133, -0.06495697051286697, 0.06036281958222389, -1.9196944315427842e-20], [0.023157842457294464, -0.12196454405784607, -0.048238035291433334, 0.034363262355327606, -0.2013663947582245, -0.0013219917891547084, 0.025515448302030563, -0.1137833297252655, 0.11959164589643478, 0.11578839272260666, -0.15155699849128723, 0.029505236074328423, 0.06898724287748337, -0.003405883675441146, -0.018577396869659424, -0.018454253673553467, -0.05348539352416992, -0.06166444718837738, -0.08482381701469421, -0.1314125806093216, -0.09678570926189423, -0.20304875075817108, -0.18945199251174927, 0.01188784372061491, 0.029509898275136948, -0.12816521525382996, -0.04288206249475479, -1.4863084060631445e-15, 4.9984322169367575e-23, 4.296309660579544e-22, 0.01888168975710869, 0.12829293310642242, 0.01918921433389187, -0.077824167907238, -0.035162098705768585, -0.0019498314941301942, -0.08498315513134003, 0.04126008227467537, 0.07481786608695984, -1.0091055688134352e-22], [0.09543348103761673, 0.07786303013563156, -0.06885074079036713, -0.015951674431562424, -0.148559108376503, -0.01087618712335825, -0.09904628247022629, -0.0954020619392395, 0.09390783309936523, 0.12034234404563904, 0.10704942792654037, -0.011825981549918652, 0.013551056385040283, 0.05220199003815651, 0.1373840719461441, -0.01047228742390871, 0.07981709390878677, 0.19262191653251648, 0.2266148179769516, -0.10245344042778015, 0.005189667455852032, -0.03040582314133644, 0.1449400633573532, 0.11518218368291855, 0.15895715355873108, -0.06643535941839218, -0.12232932448387146, -2.4147248761140402e-18, 5.037585765139286e-19, -2.7341232350428365e-22, -0.14896570146083832, 0.07218775153160095, 0.07483267784118652, 0.010393320582807064, 0.05980387330055237, 0.021050238981842995, -0.04990001395344734, -0.0727434903383255, -0.15253375470638275, 6.256258687190412e-22], [-0.11302970349788666, -0.039393238723278046, 0.13724979758262634, -0.04335065558552742, 0.20050179958343506, 0.006578484084457159, -0.0484604649245739, 0.2037251889705658, 0.04449570178985596, -0.1363016664981842, -0.013431859202682972, -0.028040068224072456, -0.07655155658721924, 0.002663749735802412, -0.14508414268493652, -0.1316763311624527, 0.11752063781023026, 0.1278475821018219, -0.058626871556043625, -0.0537109412252903, 0.010507487691938877, 0.15080994367599487, 0.07017210125923157, 0.059253089129924774, 0.0015515899285674095, -0.08489815890789032, -0.11142400652170181, 7.881611855980808e-25, -1.071006411195297e-22, 6.989551775863774e-21, 0.12088149040937424, -0.11402608454227448, -0.07796076685190201, -0.09277232736349106, 0.047035474330186844, -0.009802141226828098, -0.04095958545804024, -0.03162408992648125, -0.004474273417145014, -9.526153143323446e-25], [0.010831049643456936, -0.07405601441860199, -0.030762119218707085, 0.021812722086906433, -0.07920030504465103, 0.016615038737654686, 0.09647504985332489, 0.14099931716918945, 0.12819799780845642, 0.0508590042591095, 0.05689353495836258, -0.07237844914197922, 0.06951510906219482, -0.02427997998893261, -0.07768307626247406, 0.17412491142749786, 0.08599241822957993, 0.027201397344470024, 0.10776061564683914, -0.14703702926635742, -0.041929323226213455, -0.04640526324510574, 0.07147615402936935, 0.041396092623472214, 0.09156761318445206, 0.08763282746076584, -0.13955555856227875, -8.134777199761042e-23, -1.41646523077946e-23, 1.2322967119478772e-19, -0.020030036568641663, -0.05784066021442413, -0.11775414645671844, -0.056813597679138184, 0.06998199224472046, 0.0053263017907738686, -0.11367645859718323, 0.05552474036812782, -0.11137755215167999, -2.5929549805823556e-26], [-0.09491461515426636, 0.009540960192680359, 0.021570459008216858, -0.0013592599425464869, 0.33667588233947754, 0.0007156996871344745, 0.006723638158291578, 0.0792238637804985, 0.05248624458909035, -0.10933368653059006, 0.011482779867947102, -0.00810213852673769, -0.02915266901254654, -0.032652053982019424, -0.06962502747774124, -0.05626445263624191, -0.09386900067329407, 0.038618557155132294, 0.016140911728143692, -0.046459030359983444, -0.08482713997364044, 0.05443082004785538, 0.053725458681583405, -0.02246042713522911, 0.016086561605334282, 0.06207232549786568, 0.09776220470666885, 8.310336064293534e-25, 2.2277076976034024e-23, -8.464123598464938e-22, 0.02880767546594143, -0.007288769353181124, -0.052813973277807236, 0.05026795342564583, -0.16443750262260437, 0.04595161974430084, -0.06707864999771118, 0.05171168968081474, -0.15073396265506744, -2.61986690879811e-18], [0.03440745919942856, 0.0641050860285759, -0.07453110069036484, 0.09009765833616257, -0.13983194530010223, 0.01570882834494114, 0.0017101406119763851, 0.10423257201910019, -0.018484823405742645, 0.09407217800617218, 0.017262674868106842, -0.04552650451660156, 0.17720183730125427, 0.04366491734981537, -0.05136790871620178, 0.010716766119003296, -0.1196630448102951, -0.09769315272569656, 0.12632322311401367, 0.015849517658352852, -0.11497248709201813, -0.1332547962665558, -0.12740279734134674, 0.05333603918552399, -0.08666567504405975, -0.08884315937757492, 0.01599831134080887, -1.1530756185788373e-24, 2.6186116622185607e-18, 2.1475568658350056e-24, -0.0680641308426857, -0.0051986463367938995, -0.019224708899855614, -0.012184965424239635, 0.1630616933107376, -0.00512327067553997, -0.03405335918068886, 0.07566355168819427, 0.10226867347955704, -2.2754176107207166e-24], [0.03863240033388138, -0.024097928777337074, 0.12099631875753403, 0.012594655156135559, -0.09890962392091751, 0.0066065858118236065, 0.03448484092950821, 0.02568938583135605, -0.019094957038760185, -0.07931815087795258, 0.027724018320441246, 0.0955544114112854, -0.007853670045733452, -0.038640476763248444, 0.10321266204118729, 0.05518684536218643, -0.014362962916493416, -0.025208359584212303, -0.03609379380941391, -0.08712015300989151, 0.03009865991771221, -0.23391586542129517, -0.2164272964000702, 0.03336711972951889, 0.13686011731624603, 0.02532980963587761, -0.11795482039451599, 3.3304912246638656e-23, 8.657893503620015e-18, -1.0289737608520401e-14, -0.2154291868209839, 0.078802689909935, -0.06552552431821823, -0.12035874277353287, -0.014604983851313591, 0.03697511926293373, 0.13491596281528473, 0.09263672679662704, -0.08302901685237885, -1.0308113959514858e-20], [0.07764388620853424, 0.09056302160024643, -0.20684581995010376, 0.16200333833694458, 0.0049041518941521645, 0.0178512055426836, -0.06167113780975342, 0.1950964629650116, 0.0030124392360448837, -0.1136513203382492, 0.01372250635176897, 0.11336003988981247, 0.09839357435703278, 0.0856960192322731, 0.008336390368640423, -0.09566066414117813, -0.14274869859218597, -0.07233604788780212, -0.11959681659936905, 0.18838028609752655, -0.07451409846544266, -0.021977709606289864, -0.0027680525090545416, -0.10048007220029831, 0.14293693006038666, 0.04948170483112335, 0.06663388013839722, -2.7806191227814517e-24, -4.0423520480149786e-24, -4.273734072720518e-27, -0.02122928947210312, -0.0782255083322525, 0.10763505101203918, -0.10126819461584091, -0.02291947416961193, 0.035373326390981674, 0.20298320055007935, -0.008525865152478218, -0.036907412111759186, -1.2385787976334488e-25], [-0.003170886542648077, 0.10860763490200043, -0.05601206421852112, -0.0068166558630764484, 0.07181897014379501, -0.005386540200561285, -0.030413294211030006, 0.11916029453277588, 0.008364208973944187, -0.031929247081279755, 0.052534375339746475, 0.00023372565919999033, -0.02813720703125, -0.013184086419641972, -0.09926968812942505, -0.021713722497224808, -0.007314873393625021, 0.124344602227211, -0.024981185793876648, 0.07580196857452393, 0.10351260006427765, -0.05738488584756851, -0.05510510504245758, -0.016193782910704613, -0.04727945104241371, -0.1250423938035965, 0.09072457998991013, -8.228652500714297e-20, -7.012760948008451e-25, 2.246186335167872e-21, 0.08489429950714111, -0.00208845897577703, 0.015718592330813408, 0.06429611891508102, -0.029293403029441833, 0.020637139678001404, -0.12174496799707413, -0.10956231504678726, -0.020710941404104233, -3.3886404323020276e-15], [0.08300980925559998, -0.05546362325549126, 0.1424138844013214, -0.04516002535820007, 0.18777614831924438, 0.015046929009258747, 0.07801546901464462, -0.04164784774184227, -0.06835319101810455, 0.13487912714481354, 0.11963122338056564, -0.08783198148012161, -0.051367729902267456, -0.16964401304721832, -0.18419918417930603, 0.13198508322238922, -0.007319428026676178, 0.07933545112609863, -0.05782254785299301, -0.08689461648464203, 0.17556600272655487, -0.003317279741168022, -0.08698295056819916, -0.1008664220571518, 0.03164932131767273, -0.05458785966038704, -0.034564949572086334, -1.2120083269187456e-16, -2.830320147427013e-15, -2.2845209866808765e-23, 0.14472630620002747, 0.07801517099142075, 0.1316101998090744, 0.027928616851568222, 0.06746169179677963, 0.019154425710439682, -0.1706424057483673, 0.0063470471650362015, 0.08860629051923752, -1.9290547233439033e-19], [-0.12279046326875687, -0.00954180583357811, 0.13197948038578033, -0.023776870220899582, 0.23537825047969818, -0.05025283992290497, 0.10714324563741684, 0.23792923986911774, -0.09276436269283295, -0.027944574132561684, -0.21223366260528564, 0.04521084949374199, -0.19876572489738464, -0.266221284866333, -0.1407822072505951, 0.09946928173303604, -0.042821187525987625, -0.021165693178772926, -0.10589119046926498, 0.18124298751354218, -0.09675828367471695, 0.1252427101135254, 0.20723111927509308, -0.0701981782913208, 0.10509611666202545, -0.07019346207380295, 0.04440753906965256, -3.855192589440759e-23, -4.173747678616985e-25, 2.452111992235365e-18, -0.0171556044369936, -0.09532555192708969, -0.0010062973015010357, -0.008532614447176456, -0.10260595381259918, -0.04194698482751846, -0.2982693910598755, 0.07272649556398392, -0.023863522335886955, -2.5008031388375024e-23], [-0.03571523353457451, 0.06009657680988312, 0.10175275802612305, 0.02581949532032013, -0.2888263165950775, -0.011432373896241188, 0.01524698082357645, -0.15584896504878998, 0.12595877051353455, -0.041071560233831406, 0.04667563736438751, -0.028458109125494957, 0.12027478218078613, -0.03261186555027962, -0.15096454322338104, -0.058976612985134125, -0.07208240032196045, 0.0003027692437171936, -0.028139762580394745, -0.14427772164344788, -0.039576057344675064, -0.2368117719888687, -0.06050488352775574, -0.015503079630434513, -0.11118452250957489, -0.037245817482471466, -0.03399885818362236, -4.2646715893375324e-24, -2.91201544363675e-25, -1.0897005809834873e-15, -0.04437510296702385, 0.06397713720798492, 0.09416943788528442, -0.0891394093632698, 0.04033917561173439, -0.035186395049095154, -0.10814063251018524, 0.10698460787534714, -0.006948027294129133, 1.9062202152272436e-23], [0.13005009293556213, 0.010562771931290627, 0.05144846811890602, -0.12668658792972565, -0.0007884642109274864, 0.0018399738473817706, 0.16002611815929413, -0.06756473332643509, 0.10990441590547562, -0.15944552421569824, 0.12767907977104187, 0.04479431360960007, -0.10822993516921997, -0.19319608807563782, 0.12612196803092957, 0.0242798812687397, 0.19152286648750305, -0.04382604360580444, 0.004810520447790623, -0.09674910455942154, 0.15148131549358368, 0.10367938131093979, 0.12686242163181305, -0.004830062855035067, -0.10526026040315628, 0.02176055870950222, 0.07917796075344086, 1.2158533173277451e-25, -6.773914385094752e-17, -3.812470486054976e-24, -0.0760900229215622, 0.04530028626322746, 0.0389605313539505, 0.05100700259208679, -0.16001717746257782, -0.05355031415820122, -0.20415239036083221, 0.13262510299682617, -0.0995100811123848, 4.1208629562905567e-23], [-0.09710195660591125, -0.10331559181213379, -0.03330129384994507, 0.04523602873086929, -0.13223814964294434, 0.021709447726607323, -0.055339839309453964, -0.0074575054459273815, 0.0838451087474823, -0.08789365738630295, 0.0393318310379982, 0.029564382508397102, -0.04211289435625076, 0.11555372178554535, 0.16660067439079285, -0.0729568600654602, -0.11419695615768433, -0.0957341194152832, 0.08671044558286667, 0.17825855314731598, 0.11895301192998886, -0.024217627942562103, -0.10209862142801285, 0.10112883150577545, -0.08122759312391281, 0.1586552858352661, -0.08549220860004425, 7.848131613087096e-25, 1.0975544047780247e-23, 3.0864798513356587e-15, -0.02612491138279438, 0.07091616839170456, 0.12793269753456116, 0.14521710574626923, 0.09528682380914688, 0.09625715762376785, 0.12953881919384003, -0.0761645957827568, -0.11960729211568832, -5.1292639303206666e-24], [-0.08334394544363022, 0.057249344885349274, 0.12106813490390778, -0.006224283017218113, -0.20551639795303345, 0.03454636409878731, -0.10715202242136002, -0.10645278543233871, -0.007937679998576641, -0.07212302088737488, 0.08830265700817108, -0.07036558538675308, 0.10738950967788696, -0.011929904110729694, 0.07953839749097824, -0.022033628076314926, 0.09902238100767136, 0.12700766324996948, -0.14698393642902374, -0.16001498699188232, -0.08004699647426605, -0.00936139840632677, -0.09394761174917221, -0.08967528492212296, 0.03294748812913895, -0.1291036307811737, -0.014608627185225487, 1.4262149204792676e-23, 8.446260372789091e-26, -5.570880807951782e-23, -0.05676891282200813, -0.010853789746761322, 0.049581777304410934, 0.03179078921675682, 0.10657483339309692, -0.014426233246922493, 0.12608866393566132, 0.0556192584335804, 0.07120474427938461, -7.741441054998259e-23], [0.030304335057735443, -0.02342250570654869, -0.17657367885112762, 0.11162864416837692, 0.025767382234334946, 0.02113962359726429, 0.09599252790212631, 0.15346486866474152, 0.13123756647109985, -0.05878438800573349, -0.10781531780958176, 0.08029701560735703, -0.05166297405958176, 0.04891952499747276, 0.13956673443317413, -0.14121711254119873, -0.07512965053319931, 0.003367125289514661, -0.14028525352478027, 0.09467120468616486, -0.1643345057964325, 0.09422580897808075, 0.0769716426730156, -0.17380672693252563, 0.16815683245658875, 0.04284287244081497, -0.12310923635959625, -7.138719137884473e-22, -1.3120507138958885e-26, 3.9862115784035674e-24, -0.18135030567646027, -0.1270439624786377, 0.05429892614483833, -0.03914501890540123, 0.07616375386714935, 0.06406183540821075, -0.03387659415602684, 0.012961412779986858, -0.05013180151581764, 2.1899175624578227e-25], [0.08470197767019272, -0.0006512795807793736, -0.004058988764882088, -0.07849602401256561, 0.01645437628030777, 0.012125413864850998, 0.003772810800001025, 0.11626856029033661, -0.06658557057380676, -0.031426895409822464, -0.03258082643151283, 0.053741104900836945, 0.11578478664159775, 0.014976732432842255, -0.12971283495426178, 0.018696606159210205, 0.15575191378593445, 0.057922136038541794, -0.10887818783521652, -0.09317843616008759, -0.06624270230531693, 0.1456313133239746, 0.07973400503396988, 0.18382297456264496, 0.07142192870378494, 0.006155298091471195, 0.17450226843357086, 3.9855597426375833e-23, 1.4464636142008488e-25, 1.305670032185531e-23, -0.05715023726224899, 0.05081396549940109, -0.05517670139670372, -0.015872430056333542, 0.01941211149096489, -0.011826666072010994, 0.10300316661596298, 0.02872142195701599, -0.07522786408662796, -7.390979322940534e-25], [-0.02986099012196064, -0.07341155409812927, 0.06915082037448883, 0.06981290131807327, -0.17060808837413788, 0.014603432267904282, -0.005947282537817955, 0.054465390741825104, -0.09313853830099106, -0.09692893177270889, -0.15133048593997955, -0.07032432407140732, 0.06445586681365967, -0.010410509072244167, -0.018559683114290237, -0.14418929815292358, 0.015623604878783226, -0.046411920338869095, -0.011287453584372997, -0.11129123717546463, -0.10421672463417053, -0.09462925046682358, 0.032070282846689224, -0.0440455861389637, -0.09486240148544312, -0.11213244497776031, -0.06339532136917114, -3.251981479106153e-19, -3.594161957308825e-25, -2.4907516309553573e-23, -0.12851858139038086, 0.01752430759370327, 0.06797655671834946, -0.002885407069697976, 0.15882451832294464, -0.008716928772628307, 0.059989430010318756, 0.03975469991564751, 0.08545897156000137, 2.510638536091095e-18], [0.028481271117925644, 0.010564194992184639, -0.07586958259344101, -0.0066209412179887295, -0.22878843545913696, -0.013851705938577652, -0.17220230400562286, 0.10334955155849457, 0.07205108553171158, 0.08227045834064484, 0.04213409870862961, -0.051681362092494965, -0.013464800082147121, 0.07852979749441147, -0.02062174305319786, 0.07630904018878937, -0.10175441205501556, 0.010955743491649628, -0.047820594161748886, -0.1089855507016182, -0.01424663607031107, -0.11302566528320312, 0.08822030574083328, 0.03266049921512604, 0.12735332548618317, 0.0007621078402735293, -0.0746622383594513, 1.9242030785619005e-26, 3.146262759061472e-25, -2.1876387701001495e-23, -0.010407921858131886, -0.07861916720867157, 0.028203651309013367, -0.05220254138112068, -0.10196395218372345, -0.021181795746088028, 0.08207438141107559, -0.0782025083899498, -0.056425198912620544, -3.20711946783131e-20], [-0.11589308083057404, -0.1606881320476532, -0.09261149913072586, 0.0045175375416874886, -0.08654546737670898, 0.005210096016526222, 0.10865386575460434, -0.21246573328971863, 0.1627277135848999, 0.16085349023342133, 0.005970682483166456, 