{"model": "grendel_policy", "species": "grendel", "input_dim": 40, "output_dim": 19, "actions": ["talk", "call_meeting", "set_personal_goal", "set_medium_term_goal", "set_group_goal", "follow_agent", "gather", "till", "plan_build", "build", "farm", "help", "deposit_items", "idle", "explore", "plant", "set_priorities", "pick", "wander"], "weights": {"net.0.weight": [[-0.01402773056179285, 0.010644678957760334, 0.08226201683282852, 0.032749470323324203, -0.07341384887695312, 0.08874262869358063, -0.13811810314655304, 0.15637388825416565, -0.14347174763679504, 0.0004108223074581474, 0.028398750349879265, 0.06578248739242554, -0.026564449071884155, -0.03605381399393082, -0.07200529426336288, -0.004312360193580389, 0.0808279812335968, -0.057362765073776245, -0.08183639496564865, -0.030611367896199226, 0.04985063150525093, -0.024987366050481796, -0.1118244081735611, -0.05627188831567764, 0.005360450595617294, 0.013956932350993156, 0.09652245044708252, 0.02232370898127556, 0.00019566513947211206, -7.126721811800962e-06, -0.12169063091278076, -0.00025142275262624025, -0.04931492358446121, -0.13258594274520874, 0.02090262807905674, 0.050906334072351456, 0.04106176272034645, 0.08422337472438812, -0.011118043214082718, -0.007594095543026924], [0.08255407959222794, 0.07082980871200562, -0.15155690908432007, -0.12377545982599258, 0.13817858695983887, 0.024856695905327797, -0.13431034982204437, 0.12267284095287323, -0.0982893630862236, 0.07991792261600494, 0.13338357210159302, 0.10067296773195267, 0.06965475529432297, 0.08594455569982529, 0.07794306427240372, -0.13646236062049866, 0.10050724446773529, -0.11917069554328918, 0.07904688268899918, -0.10536794364452362, -0.10818658024072647, -0.0006418234552256763, -0.04324927181005478, -0.014736996032297611, -0.09971379488706589, 0.08805451542139053, -0.04975016415119171, -0.024799294769763947, 2.250689794891514e-05, 0.0008457438088953495, -0.12487158924341202, 0.017732838168740273, 0.044137243181467056, -0.02723328210413456, 0.1344221830368042, 0.02587454952299595, 0.17948080599308014, 0.09893263131380081, 0.09254362434148788, -1.2396752026688773e-05], [-0.059704266488552094, -0.12840549647808075, -0.04926634207367897, 0.006662726402282715, -0.07961077988147736, -0.017781326547265053, 0.06013284623622894, 0.0987377017736435, -0.047058992087841034, -0.07245498150587082, -0.11444580554962158, 0.056789372116327286, -0.02099030837416649, -0.037054482847452164, -0.026727303862571716, -0.08278873562812805, -0.09789495915174484, -0.13394862413406372, 0.04023444652557373, -0.14443926513195038, -0.12622317671775818, -0.018130728974938393, 0.08762159943580627, 0.04834781959652901, 0.038328252732753754, -0.0024225283414125443, -0.13269644975662231, 7.40731093173963e-06, 0.0026713877450674772, 0.0037959625478833914, -0.04942154511809349, -0.0027448516339063644, 0.1271880716085434, 0.02392876334488392, 0.10997641831636429, -0.036250293254852295, -0.09341572225093842, -0.07187885046005249, 0.14689168334007263, 0.006202607415616512], [0.07947037369012833, -0.03778906911611557, 0.11529546976089478, -0.015896735712885857, -0.13353756070137024, -0.1447378545999527, -0.1307126134634018, -0.08740673214197159, 0.03871280327439308, 0.08208311349153519, -0.07620327174663544, -0.12391496449708939, -0.11678344011306763, 0.007187968119978905, 0.02964841201901436, -0.04410787671804428, -0.08386638015508652, 0.1463422030210495, -0.019652986899018288, 0.05411757156252861, 0.1019219309091568, -0.04274705797433853, 0.10646118223667145, 0.07910213619470596, 0.13534773886203766, 0.01003327127546072, -0.0864609107375145, 0.009271341376006603, -0.023404765874147415, 0.043107643723487854, -0.0053788963705301285, 0.04521152749657631, 0.07720598578453064, 0.007552026305347681, -0.1428648829460144, -0.0769505500793457, 0.1389552801847458, 0.13642631471157074, 0.022080043330788612, -5.030855754739605e-05], [-0.07449469715356827, 0.031339433044195175, 0.057689715176820755, -0.0042142365127801895, 0.09484053403139114, -0.07164675742387772, 0.09207280725240707, -0.17790864408016205, -0.13544586300849915, -0.01506238617002964, -0.01436348631978035, 0.11916577070951462, -0.12745800614356995, 0.0553351491689682, -0.1225477084517479, -0.07304862141609192, -0.1732058972120285, 0.09425176680088043, -0.08288364857435226, -0.07422749698162079, 0.042318105697631836, -0.024557186290621758, -0.02990805171430111, -0.05738804116845131, -0.11308331042528152, 0.02744964137673378, 0.05600307509303093, 0.0066264900378882885, 1.6392014003940858e-05, 0.05401133745908737, -0.11900445818901062, -0.0016947321128100157, -0.13574309647083282, -0.14469991624355316, 0.10187853127717972, -0.1465797871351242, 0.009192513301968575, 0.13194529712200165, 0.1345408856868744, -0.005095147993415594], [0.019849948585033417, -0.03780178725719452, -0.10606041550636292, -0.03840826079249382, 0.033971890807151794, 0.009335680864751339, -0.1362682282924652, 0.01921200565993786, -0.026840532198548317, -0.1162521243095398, -0.04644351080060005, -0.009744256734848022, -0.014025343582034111, 0.12404866516590118, -0.12908509373664856, 0.02660362794995308, 0.17722709476947784, 0.09016025066375732, 0.16654729843139648, 0.022333331406116486, 0.04223281145095825, 0.07746483385562897, 0.04870065301656723, -0.061356864869594574, 0.13560253381729126, 0.10889902710914612, 0.009867645800113678, -0.005794154480099678, -1.4943054338800721e-05, 0.01816128008067608, 0.11225129663944244, -0.02317636087536812, -0.10564735531806946, 0.050208501517772675, 0.053290799260139465, 0.05217749625444412, -0.05733438581228256, 0.018946051597595215, -0.07596831023693085, 0.04297483712434769], [0.14401835203170776, -0.01951025426387787, -0.14648477733135223, -0.031114283949136734, 0.04198675975203514, -0.017932094633579254, 0.14124742150306702, -0.03790361434221268, -0.030736103653907776, 0.037092145532369614, 0.14507992565631866, 0.010741141624748707, -0.08903664350509644, 0.048436153680086136, 0.1964205652475357, 0.056149717420339584, 0.11994775384664536, -0.04191651940345764, -0.11994529515504837, 0.026514306664466858, -0.12108835577964783, -0.09571856260299683, 0.09565548598766327, -0.022424286231398582, -0.06510013341903687, 0.1568990796804428, -0.05799693986773491, -0.03823014721274376, 0.0003904199693351984, -0.0187515988945961, -0.06295763701200485, 0.03014443628489971, 0.04945175349712372, 0.15743933618068695, 0.08297429233789444, 0.0608818456530571, 0.0740099549293518, -0.027512697502970695, 0.05362478271126747, -0.026619238778948784], [0.0548405647277832, -0.04160640388727188, -0.028719773516058922, -0.02807576395571232, -0.0380510576069355, -0.054332390427589417, 0.10831084847450256, -0.04919171705842018, 0.15767048299312592, 0.1922753006219864, -0.06879989057779312, -0.09798060357570648, -0.0002774123568087816, -0.09566894918680191, -0.11743659526109695, -0.04518027976155281, -0.10473267734050751, -0.12872299551963806, 0.04344477131962776, -0.03122866526246071, 0.009176285937428474, 0.20479348301887512, -0.03319060057401657, -0.1280316263437271, 0.13012784719467163, -0.10489130020141602, 0.14505943655967712, -0.0010266677709296346, -0.0108190244063735, 2.50337652687449e-05, -0.02791784703731537, -0.00019690534099936485, -0.03997507691383362, 0.007172247860580683, 0.07940094918012619, -0.04716590419411659, -0.17384929955005646, 0.04154941067099571, -0.05003062263131142, -8.792951848590747e-05], [0.08428582549095154, -0.10337356477975845, -0.06615713238716125, 0.08398313820362091, 0.05821291729807854, -0.06710334122180939, -0.09910920262336731, 0.15018460154533386, 0.031058216467499733, 0.12694205343723297, -0.07454884052276611, 0.028710808604955673, 0.016831934452056885, -0.103823721408844, 0.15628917515277863, 0.030598334968090057, -0.03578208386898041, -0.003483512904495001, -0.07492820173501968, -0.07937614619731903, -0.032828424125909805, 0.060636334121227264, -0.07827011495828629, 0.06924392282962799, -0.04645569249987602, -0.08310673385858536, 0.06773097068071365, -7.108634599717334e-05, 3.194954388163751e-06, 0.05457271263003349, -0.09871726483106613, -0.021282929927110672, -0.010335174389183521, 0.033531397581100464, 0.13139963150024414, -0.05683337152004242, -0.07750961184501648, 0.03430978208780289, -0.14027588069438934, -1.740864354360383e-05], [-0.06869159638881683, 0.07148994505405426, 0.06925753504037857, -0.04633656516671181, 0.14559152722358704, 0.05704667046666145, 0.09156516194343567, 0.08623708039522171, 0.13135194778442383, -0.14946475625038147, -0.13845135271549225, 0.08187137544155121, 0.0426827147603035, 0.04809634014964104, -0.13753485679626465, 0.03425098955631256, 0.10911379009485245, 0.018925148993730545, -0.1481529027223587, 0.06963559240102768, 0.07524747401475906, 0.004277145490050316, 0.05039815977215767, 0.1172434389591217, 0.07185967266559601, 0.13307805359363556, 0.08676227927207947, -0.04760362207889557, -0.0001418251049472019, -0.01722582057118416, 0.04404819756746292, -0.0012701760279014707, -0.11905505508184433, 0.034326937049627304, 0.08792977780103683, 0.07852049171924591, -0.04785974696278572, -0.06888275593519211, 0.16190721094608307, -0.010115817189216614], [-0.004972035065293312, -0.1076512336730957, -0.029255123808979988, 0.060753557831048965, 0.004370099864900112, -0.05260689929127693, 0.053826071321964264, -0.08367288112640381, -0.13551311194896698, -0.07660476118326187, -0.023137271404266357, -0.012994620017707348, 0.011368946172297001, 0.03918081521987915, -0.0601520761847496, 0.1287871152162552, -0.14735345542430878, -0.035155780613422394, -0.03362720459699631, -0.08550024777650833, -0.01335989311337471, -0.059905391186475754, -0.17499107122421265, -0.11421752721071243, 0.033295888453722, 0.09517624974250793, -0.03824440762400627, 2.209973899880424e-06, -0.011358818039298058, -0.039432015269994736, 0.06554429233074188, -0.04622982442378998, -0.00534496083855629, -0.1884859800338745, -0.09577105194330215, -0.07779360562562943, 0.14324232935905457, 0.08704409748315811, -0.04215259104967117, 0.012293011881411076], [0.0804724395275116, 0.07872648537158966, -0.022240163758397102, -0.08268339186906815, -0.06380072236061096, 0.028236908838152885, -0.14907637238502502, 0.16569478809833527, 0.12187053263187408, -0.12844419479370117, -0.11629845201969147, -0.1176261231303215, -0.10806687921285629, 0.09753668308258057, 0.018620159476995468, 0.06389570981264114, 0.008953006938099861, 0.05077603459358215, -0.10023616999387741, 0.027636850252747536, 0.0940687283873558, 0.12648360431194305, 0.04221993312239647, 0.1104872077703476, 0.14900656044483185, -0.07546287029981613, -0.08760453760623932, 0.01179132703691721, 2.2376954802894033e-05, 1.4966509297664743e-05, -0.06705431640148163, -0.047650616616010666, 0.14017656445503235, 0.1591489017009735, 0.019445111975073814, -0.06186443194746971, 0.03500714153051376, -0.03167552873492241, -0.1637958586215973, 4.342067040852271e-05], [0.13209259510040283, -0.1565541923046112, 0.02724168822169304, -0.02961030602455139, 0.10972442477941513, 0.05159992352128029, -0.06157553568482399, -0.04340951144695282, 0.020619196817278862, 0.06458337604999542, 0.10433633625507355, -0.08312945067882538, 0.13962702453136444, -0.042532406747341156, 0.008234601467847824, 0.07513478398323059, 0.02830567955970764, -0.0018382868729531765, 0.04381239414215088, 0.03600757196545601, 0.008082471787929535, 0.004552430473268032, -0.15728014707565308, -0.009790620766580105, 0.0660654604434967, 0.016424378380179405, -0.08322825282812119, 0.002919550519436598, -8.068091847235337e-05, 0.001520124962553382, -0.15212103724479675, 0.0009732455364428461, -0.0027252531144768, -0.11383561789989471, -0.07576479762792587, -0.10139567404985428, 0.1361093819141388, 0.07777751237154007, 0.10192147642374039, -2.282159221067559e-05], [0.06155713275074959, 0.06350590288639069, 0.011954117566347122, 0.06897996366024017, -0.09611841291189194, 0.04307150840759277, 0.005935129709541798, -0.03825443610548973, -0.07873374223709106, 0.1101272776722908, 0.11979535967111588, -0.03359504044055939, -0.11822227388620377, 0.15460965037345886, 0.09814481437206268, -0.08364712446928024, -0.05998550355434418, -0.05637168884277344, -0.052881866693496704, 0.044877443462610245, -0.1251579225063324, 0.009821095503866673, -0.1615656167268753, 0.045231036841869354, 0.011927048675715923, -0.08718257397413254, -0.1648859977722168, 2.7763670004787855e-05, -0.014174263924360275, 0.0003858678974211216, 0.014581132680177689, -0.004750254563987255, -0.029544731602072716, -0.024262331426143646, 0.029823442921042442, -0.07748772203922272, -0.08356929570436478, -0.11370297521352768, 0.11558786779642105, -9.35325151658617e-05], [-0.0372893251478672, 0.12563757598400116, 0.10973626375198364, -0.0449339784681797, -0.09352966398000717, 0.06451493501663208, 0.14990518987178802, -0.07796746492385864, 0.14001859724521637, -0.05612371489405632, 0.07191925495862961, 0.05836094170808792, 0.16062788665294647, 0.0050490438006818295, 0.1439412385225296, 0.11518702656030655, 0.08926677703857422, 0.032173190265893936, -0.12726466357707977, 0.012830603867769241, -0.11651363223791122, 0.05058085173368454, 0.023292962461709976, 0.1593182235956192, 0.17367389798164368, -0.0730886310338974, -0.1284085065126419, 3.3945827453862876e-05, -0.0028960308991372585, -0.0011646203929558396, 0.004288903437554836, 0.04609012231230736, -0.09628964960575104, -0.08627640455961227, -0.13806582987308502, 0.013848393224179745, -0.11621873825788498, -0.11002316325902939, 0.02166416496038437, -0.02486981637775898], [-0.0005786793772131205, -0.15355989336967468, 0.03663352504372597, -0.0497480183839798, -0.06145695224404335, -0.11099343746900558, -0.0663909986615181, 0.1372186541557312, -0.0567563958466053, 0.08486510813236237, -0.047629956156015396, 0.07032681256532669, -0.11582235246896744, -0.033414654433727264, -0.13600631058216095, 0.056164756417274475, -0.03792713209986687, -0.035038597881793976, -0.019386107102036476, 0.04664475470781326, 0.1324104368686676, -0.11600539088249207, -0.06881209462881088, -0.0003281822719145566, -0.07725773006677628, 0.07689157873392105, 0.08350342512130737, 7.66117955208756e-06, -0.01343482919037342, 0.00114395038690418, 0.10297591239213943, -0.0072870380245149136, -0.0213407464325428, -0.02204066887497902, 0.11306142807006836, 0.016861718147993088, 0.09128448367118835, -0.05061689019203186, 0.0924559161067009, -0.030986977741122246], [0.04973241314291954, 0.09998025745153427, 0.06235773488879204, -0.025475868955254555, -0.15112176537513733, 0.03686165809631348, 0.05231836065649986, -0.12166495621204376, 0.09131553024053574, 0.15184488892555237, 0.05527237802743912, -0.08976048976182938, 0.0878993570804596, 0.052077118307352066, -0.06909090280532837, 0.06122250854969025, 0.1494077742099762, 0.06690157204866409, -0.02046062983572483, 0.01954982429742813, -0.1415279060602188, 0.0432320274412632, -0.10107170045375824, -0.04314892366528511, 0.06610431522130966, -0.12303000688552856, 0.08398588746786118, 0.0022184408735483885, -5.314391455613077e-05, 6.920281521161087e-06, 0.11001533269882202, -0.00040915730642154813, -0.04566784203052521, -0.11806145310401917, 0.13946384191513062, 0.056202057749032974, 0.13411808013916016, -0.05679895356297493, -0.15974877774715424, -0.03933975473046303], [-0.00700020557269454, 0.05407051742076874, 0.08934729546308517, 0.02914949506521225, 0.09605687856674194, 0.07677190005779266, 0.046192269772291183, 0.1076943427324295, 0.078923799097538, 0.12497974932193756, -0.13088534772396088, -0.1297004669904709, -0.18324415385723114, 0.05481523275375366, 0.0573938824236393, -0.07834787666797638, -0.10833105444908142, 0.015236965380609035, -0.0020457094069570303, -0.10972165316343307, 0.021188536658883095, -0.07731874287128448, 0.04898123815655708, -0.03308353200554848, 0.048869937658309937, 0.102043017745018, 0.05631345883011818, 0.040288183838129044, -2.6782472559716552e-05, 0.0477890707552433, 0.14133088290691376, -0.0003868613566737622, 0.026835739612579346, -0.09504714608192444, -0.12322957068681717, 0.12819702923297882, 0.0364343523979187, 0.12281572073698044, -0.014054141007363796, -1.7990871128859e-05], [-0.13295964896678925, 0.11754494160413742, 0.05353439971804619, 0.02377317287027836, -0.08612802624702454, 0.020075498148798943, -0.069259874522686, -0.1577218472957611, 0.04788563773036003, 0.12105032801628113, -0.015165681019425392, 0.09601917117834091, -0.03606872260570526, -0.16005505621433258, 0.060256242752075195, -0.07044724375009537, -0.010853213258087635, -0.14200809597969055, -0.085054911673069, 0.029941894114017487, 0.07123257964849472, 0.04919182509183884, 0.09603755921125412, -0.17531831562519073, 0.1122443675994873, 0.09660151600837708, 0.11422144621610641, 0.02117585763335228, -0.0020957684610038996, -0.004403294995427132, -0.003347154473885894, -0.014727749861776829, -0.07887494564056396, 0.14005029201507568, 0.000627156114205718, 0.13933807611465454, -0.06009918823838234, 0.030099688097834587, -0.032306522130966187, 0.01962132751941681], [0.12140187621116638, 0.0014082073466852307, 0.1301378756761551, 0.0021994307171553373, -0.004738857038319111, 0.005826148670166731, 0.07020534574985504, -0.07921236753463745, -0.03364663943648338, -0.17993558943271637, 0.07221513241529465, 0.003304392099380493, -0.02148650772869587, 0.06655039638280869, -0.08040417730808258, 0.14124104380607605, 0.10988015681505203, 0.0998886302113533, -0.13018514215946198, -0.10905200988054276, -0.09699366986751556, -0.12509596347808838, -0.17353101074695587, -0.05537230893969536, 0.054525382816791534, 0.026361655443906784, -0.14826786518096924, 1.4264415995057789e-06, 0.0003105265786871314, 0.00541708106175065, 0.10790054500102997, -0.03412971645593643, 0.03504897654056549, -0.10517298430204391, -0.11767388135194778, 0.06509625911712646, 0.004402647726237774, 0.0631929561495781, 0.10793476551771164, 0.016238734126091003], [-0.0512419268488884, 0.09162256866693497, 0.0893111601471901, 0.10703259706497192, 0.024141760542988777, 0.10618390142917633, 0.04022148996591568, 0.11582423746585846, -0.10303843766450882, -0.02326253615319729, 0.12351177632808685, 0.11007420718669891, -0.018456000834703445, 0.1225021481513977, -0.003075022716075182, -0.0769682377576828, 0.09064562618732452, 0.14079062640666962, -0.00255599245429039, -0.12033560127019882, -0.1405801773071289, 0.1368456333875656, 0.14315561950206757, 0.020061330869793892, 0.1599576473236084, 0.14973707497119904, -0.09044764935970306, 0.049516063183546066, -0.04776720702648163, 3.148805626551621e-05, 0.10811630636453629, 0.0027369968593120575, 0.06864886730909348, 0.11466830223798752, -0.1344255656003952, -0.1177491769194603, -0.10576239973306656, 0.011339791119098663, 0.03704013675451279, -0.00893694069236517], [-0.06501695513725281, 0.10868504643440247, 0.03544377535581589, -0.03842227905988693, -0.039915021508932114, 0.03159497678279877, -0.0458521693944931, -0.03012627176940441, -0.07232354581356049, -0.07623559981584549, -0.14512813091278076, -0.12883487343788147, -0.010928862728178501, -0.017240865156054497, 0.07137740403413773, -0.008424554951488972, 0.07803608477115631, -0.1510050892829895, 0.10283186286687851, 0.1408410519361496, -0.07503742724657059, -0.0077074188739061356, 0.1267128586769104, 0.12732630968093872, 0.12719708681106567, -0.044945623725652695, 0.020673764869570732, -2.1453239241964184e-05, -0.00011492267367430031, 0.006764277350157499, 0.017399229109287262, -0.0002709290711209178, -0.14899443089962006, -0.11874867975711823, 0.043004635721445084, 0.02120608277618885, 0.010567089542746544, -0.11126900464296341, 0.054901860654354095, 0.017757931724190712], [-0.05112427845597267, 0.13567864894866943, -0.02670375630259514, 0.04143642261624336, -0.12101605534553528, 0.04175732284784317, 0.04901489242911339, 0.1379406452178955, -0.0010360083542764187, 0.09985151886940002, 0.14318017661571503, 0.044720638543367386, 0.10359995067119598, 0.03570686653256416, -0.032880738377571106, -0.1084519773721695, -0.15455442667007446, 0.08431973308324814, -0.06077035889029503, 0.11876348406076431, -0.042157258838415146, -0.13067011535167694, -0.007025580853223801, 0.10625467449426651, -0.10126151144504547, 0.09765611588954926, 0.09446453303098679, 0.016896940767765045, -0.00026907582650892437, -0.007106248289346695, 0.006301528308540583, 3.669186480692588e-05, 0.02889224886894226, 0.11099182814359665, 0.005931620951741934, -0.07253902405500412, -0.027637755498290062, -0.03347011283040047, -0.13091832399368286, -8.143734703480732e-06], [-0.09113185852766037, -0.06655792891979218, 0.07898131012916565, -0.05329287424683571, -0.10421022027730942, -0.005308027844876051, 0.13633279502391815, -0.009704576805233955, 0.03192199394106865, -0.024899890646338463, -0.12323864549398422, 0.09268955886363983, -0.016286082565784454, 0.08468759804964066, 0.00360374734736979, 0.08382159471511841, -0.00576905719935894, -0.0359579436480999, 0.07866958528757095, 0.03024020977318287, -0.08336453139781952, -0.07040677219629288, 0.139645516872406, 0.03539678454399109, -0.14937694370746613, 0.14834053814411163, 0.15141819417476654, 0.04274369403719902, 0.028006436303257942, 0.012237857095897198, 0.15183302760124207, -1.796232390915975e-05, -0.08871354162693024, 0.0008721982594579458, 0.11947856098413467, -0.04942206293344498, 0.08124037832021713, 0.05098402872681618, -0.09718959033489227, -0.007335294503718615], [0.0664781704545021, 0.03702254965901375, -0.0950939729809761, -0.032365962862968445, 0.06277354061603546, -0.013823069632053375, 0.01103526446968317, -0.10383405536413193, -0.11229155212640762, 0.07498049736022949, -0.028456436470150948, -0.12541340291500092, -0.0025354232639074326, -0.12085382640361786, 0.1748674064874649, -0.027493657544255257, 0.06608457863330841, 0.01930241659283638, -0.1305171549320221, -0.000447723432444036, -0.13798126578330994, -0.11977436393499374, 0.026839103549718857, 0.1078827902674675, 0.11221809685230255, 0.09665589034557343, -0.01836930587887764, 0.021306773647665977, 0.04546336457133293, -0.00030608446104452014, 0.10272247344255447, -0.00017223191389348358, 0.11731736361980438, 0.035323113203048706, -0.10799983143806458, -0.09052137285470963, 0.009634921327233315, 0.04434991627931595, -0.06520946323871613, 0.0064058564603328705], [-0.15788812935352325, -0.13296180963516235, -0.068324014544487, -0.0727662518620491, -0.04470876604318619, -0.08203794807195663, -0.05157198756933212, 0.032771430909633636, 0.03532857447862625, 0.06963764876127243, 0.13689200580120087, -0.07690013945102692, 0.022338010370731354, 0.009568004868924618, -0.10520582646131516, -0.013962182216346264, -0.023649776354432106, 0.024799296632409096, -0.039607975631952286, -0.015447518788278103, -0.16881069540977478, -0.09773623198270798, -0.05724474415183067, 0.0004246299504302442, 0.12192811071872711, -0.16969020664691925, 0.11232036352157593, -2.469462197041139e-05, 1.3044425486441469e-06, 6.458820280386135e-06, 0.05442028492689133, -0.01873561553657055, -0.007419522851705551, -0.08568742871284485, -0.18454933166503906, -0.03975255414843559, -0.08553364872932434, 0.07275325059890747, -0.020807789638638496, -0.00011248965165577829], [0.1144859716296196, -0.039101067930459976, -0.07601683586835861, 0.07764686644077301, 0.0962800607085228, 0.05766087397933006, -0.13889600336551666, -0.0640772134065628, -0.03304998576641083, -0.024312680587172508, 0.13583461940288544, 0.13565842807292938, 0.15905019640922546, 0.07374966144561768, 0.02639792487025261, -0.05432438850402832, -0.10787544399499893, -0.01674458384513855, 0.16072973608970642, -0.1565466970205307, -0.08024421334266663, 0.043107643723487854, -0.028885621577501297, -0.011004455387592316, 0.10187681019306183, 0.004373803269118071, -0.04310569539666176, 2.4451512217638083e-05, -0.0024846820160746574, 7.85712109063752e-06, 0.020450662821531296, 0.0025170184671878815, -0.05586891993880272, 0.012883361428976059, 0.0277579203248024, 0.018158400431275368, 0.17878201603889465, 0.014955785125494003, 0.1438538134098053, 0.0009508353541605175], [0.10484477877616882, 0.09401418268680573, -0.11292923986911774, -0.057493045926094055, 0.15900814533233643, -0.03216082975268364, 0.14017997682094574, 0.1549849510192871, 0.16839420795440674, 0.04127119481563568, 0.05618971213698387, -0.08261848986148834, -0.014574683271348476, -0.03934390842914581, -0.07589159905910492, 0.15247149765491486, -0.11750393360853195, 0.10697223246097565, -0.01725037395954132, -0.12241042405366898, 0.08272924274206161, -0.028140470385551453, -0.039157215505838394, 0.055407751351594925, 0.13902541995048523, -0.004062310792505741, 0.19475339353084564, 0.001043823198415339, -7.283127342816442e-05, -5.577973206527531e-05, 0.06830599159002304, -0.03260786086320877, 0.05730529502034187, -0.07599494606256485, 0.04131637141108513, 0.06286787986755371, -0.07113900035619736, 0.07449860870838165, -0.08747813105583191, -0.014345104806125164], [0.01060024369508028, 0.03277496621012688, 0.0674763098359108, -0.06561138480901718, 0.019671188667416573, 0.046670593321323395, -0.13031113147735596, 0.04031848907470703, -0.1968456208705902, -0.14696288108825684, -0.02492421492934227, 0.09810110181570053, -0.029345549643039703, -0.09720935672521591, 0.13507962226867676, -0.034800879657268524, 0.08957876265048981, 0.020690912380814552, -0.09438559412956238, -0.08155859261751175, 0.038617223501205444, -0.17930610477924347, 0.08862261474132538, 0.12006255239248276, 0.12286840379238129, 0.09353432804346085, -0.16023622453212738, 2.6527306545176543e-05, 4.814369276573416e-06, -0.0015674801543354988, 0.06278274953365326, -0.0013543792301788926, -0.10608617961406708, 0.09188888221979141, -0.0529937669634819, -0.1380760818719864, 0.11949770897626877, 0.08913309127092361, -0.08220367878675461, -4.739891301142052e-05], [0.0197604987770319, 0.08483263105154037, 0.04249386861920357, -0.08086079359054565, 0.14354869723320007, 0.10708200931549072, -0.0559961311519146, -0.14018157124519348, 0.13180270791053772, 0.05680868402123451, 0.14837822318077087, -0.03414366766810417, -0.10733367502689362, -0.06863880902528763, 0.06264007091522217, -0.07797829806804657, 0.09440220147371292, 0.04038131237030029, -0.024727076292037964, 0.10670565813779831, -0.019214751198887825, -0.027941593900322914, 0.038759198039770126, 0.002299456624314189, 0.16524247825145721, -0.055495087057352066, -0.05359984189271927, -0.03883315250277519, 0.044675204902887344, -0.0001592543558217585, -0.11559690535068512, 0.0006893215468153358, 0.15378913283348083, 0.020027829334139824, -0.0044318921864032745, 0.07326924055814743, 0.029327061027288437, -0.015504956245422363, 0.15856656432151794, 8.717306627659127e-06], [-0.03961256518959999, 0.08375462889671326, -0.0438808836042881, 0.0105174221098423, -0.14132659137248993, 0.13747268915176392, -0.03223816677927971, -0.10657814145088196, -0.02604656107723713, 0.030828800052404404, 0.07782257348299026, 0.15219233930110931, 0.08901658654212952, -0.06955516338348389, 0.059513356536626816, 0.01711403578519821, 0.1498088538646698, 5.478733510244638e-05, 0.06639541685581207, 0.10198019444942474, -0.0995095819234848, 0.0016529082786291838, -0.1255096197128296, 0.10798224061727524, -0.15660208463668823, 0.10350579768419266, 0.14534586668014526, -2.1839214241481386e-05, 0.00968997087329626, -0.02887795679271221, 0.01745828427374363, -0.022957105189561844, 0.005043522454798222, 0.08756326138973236, -0.07084952294826508, 0.042565878480672836, 0.07137105613946915, -0.008282062597572803, -0.024831542745232582, -5.656170287693385e-06], [-0.07521453499794006, 0.05993901193141937, 0.011198904365301132, -0.0188788790255785, -0.09704513102769852, -0.015146803110837936, -0.08163342624902725, -0.13736118376255035, 0.09055779874324799, -0.16368559002876282, 0.043772097676992416, -0.025196194648742676, 0.09362374991178513, 0.06798683851957321, 0.10933472961187363, 0.17232900857925415, -0.04577898234128952, -0.009674282744526863, 0.03492128476500511, -0.10935290902853012, 0.10400104522705078, 0.003563951002433896, -0.12332121282815933, -0.004583651199936867, -0.025837847962975502, 0.0396924689412117, 0.01608233153820038, 0.017713425680994987, 0.00014152360381558537, 0.000165080331498757, -0.13064858317375183, 0.005247965920716524, 0.02305206097662449, 0.1054040864109993, -0.1269279420375824, -0.05184848979115486, 0.15428891777992249, 0.062257200479507446, 0.023678554221987724, -0.03800754249095917], [-0.09462050348520279, 0.1341531127691269, -0.1133110448718071, -0.02069622091948986, 0.043470095843076706, 0.08617348223924637, 0.050650760531425476, 0.061880603432655334, -0.13602153956890106, -0.010480208322405815, 0.0005299382610246539, -0.08514478802680969, 0.12641751766204834, -0.05830603092908859, -0.05255856737494469, -0.014358196407556534, -0.06954416632652283, 0.06741322576999664, 0.11170138418674469, -0.14009925723075867, 0.13062161207199097, -0.09331841766834259, -0.06239666789770126, 0.034012313932180405, 0.1284734010696411, -0.14310535788536072, -0.07306520640850067, -0.0038333123084157705, -0.02294434793293476, 0.03940742462873459, -0.06920381635427475, 0.008484390564262867, 0.05746517330408096, -0.13240885734558105, -0.08607639372348785, -0.038188911974430084, 0.10956692695617676, -0.07474485039710999, -0.11160868406295776, -7.635012298123911e-05], [-0.1223537027835846, 0.15459540486335754, 0.029126698151230812, 0.020065665245056152, 0.0627354085445404, -0.10641632974147797, 0.06496134400367737, -0.039067137986421585, 0.062353070825338364, 0.05189647153019905, 0.06421394646167755, -0.04252585396170616, 0.031191393733024597, 0.09435193240642548, 0.03408915922045708, 0.03116229735314846, 0.0638284906744957, 0.02057982236146927, 0.13123819231987, -0.040315259248018265, 0.012130592949688435, 0.07176563143730164, -0.1298162043094635, -0.03749720752239227, -0.06321181356906891, -0.025034446269273758, 0.16743279993534088, -0.004060589242726564, -0.01927400752902031, 0.053601741790771484, 0.02461923472583294, 0.0001205136431963183, -0.04449858143925667, 0.03139572590589523, 0.08939072489738464, -0.056646786630153656, -0.08494877815246582, -0.06966067850589752, 0.14809240400791168, -0.036598410457372665], [-0.0748598724603653, 0.08415775746107101, -0.0902487114071846, 0.03857050836086273, 0.05710895359516144, 0.04531252384185791, -0.10022545605897903, -0.08656661212444305, 0.011485479772090912, 0.09243328124284744, -0.1355745792388916, -0.0683245062828064, -0.029216177761554718, -0.09938865154981613, -0.006100581493228674, 0.08570307493209839, -0.10135038942098618, -0.09789857268333435, 0.12332625687122345, -0.12123717367649078, -0.09752345830202103, -0.07613430172204971, 0.11841753870248795, -0.11997539550065994, -0.1417134553194046, -0.005990465637296438, 0.05037334933876991, 4.6147739340085536e-05, -0.025804627686738968, 2.4310354547196766e-06, 0.17190715670585632, -0.002081621903926134, 0.1235320046544075, 0.05530080571770668, 0.15830932557582855, 0.0356191024184227, -0.02084389142692089, -0.1067061498761177, 0.05641947314143181, 0.005440938286483288], [-0.05589547008275986, -0.1466023474931717, 0.025589311495423317, -0.002152957022190094, -0.10713951289653778, -0.12810426950454712, -0.1268623173236847, -0.07672534137964249, -0.062057238072156906, 0.09257669001817703, 0.06230694800615311, -0.05608478933572769, -0.1371961236000061, -0.17623858153820038, 0.06557050347328186, 0.02380422316491604, -0.0968484878540039, -0.046384863555431366, -0.12185674160718918, -0.08314869552850723, -0.07774282991886139, 0.13527975976467133, -0.01097628753632307, -0.15306739509105682, -0.08561953902244568, 0.06558399647474289, 0.10771344602108002, -0.0002044009743258357, 7.5537359407462645e-06, 0.022355178371071815, 0.03036145493388176, -0.01873249188065529, -0.1251160353422165, -0.012304495088756084, 0.04542369768023491, -0.13442987203598022, -0.010179468430578709, 0.08861509710550308, -0.010747061111032963, -0.020266996696591377], [-0.08796456456184387, -0.06484706699848175, -0.01813327707350254, -0.0033298854250460863, 0.03547703102231026, 0.007890919223427773, -0.00952205155044794, -0.11610747873783112, 0.04416153207421303, 0.0249598678201437, 0.12236298620700836, 0.08753924071788788, -0.0340360663831234, -0.05785473436117172, 0.11613651365041733, 0.033560119569301605, 0.09827327728271484, -0.11866310238838196, -0.02875361032783985, 0.07849961519241333, 0.05932389199733734, 0.09470834583044052, 0.024361498653888702, 0.0022001792676746845, 0.06684190034866333, -0.07507148385047913, -0.1814461499452591, 3.497466241242364e-05, -1.453955155739095e-05, 3.0628257263742853e-06, 0.031945861876010895, -0.023195166140794754, 0.11455754935741425, 0.10132869333028793, -0.028192199766635895, -0.05504600703716278, 0.06106272712349892, -0.06402929127216339, 0.11939803510904312, 0.02674471028149128], [0.08251271396875381, -0.1244419738650322, 0.12786145508289337, 0.020986096933484077, 0.1352490484714508, 0.05324997380375862, 0.07438250631093979, -0.10439728200435638, -0.031996749341487885, -0.10767032206058502, 0.10018645226955414, 0.023646187037229538, 0.12099294364452362, -0.0819859430193901, -0.1199551448225975, -0.11046166718006134, -0.09275971353054047, -0.03458775207400322, 0.08981408923864365, -0.05767152085900307, 0.0531320758163929, -0.0396839864552021, 0.015014547854661942, -0.074850894510746, -0.06009814143180847, 0.13158053159713745, 0.09496091306209564, 0.00011302543134661391, -0.01384176779538393, -0.034793101251125336, -0.02919137291610241, -0.0017151802312582731, 0.12483018636703491, -0.07210186123847961, -0.10147905349731445, -0.0782303512096405, 0.02547736093401909, -0.1332651823759079, 0.06609456986188889, -0.038014523684978485], [-0.07593365013599396, 0.02716168388724327, -0.11573950946331024, -0.007082115393131971, -0.097615085542202, 0.020956063643097878, 0.009375573135912418, 0.05297939106822014, 0.13773104548454285, 0.0502733439207077, -0.030989941209554672, 0.07717706263065338, 0.030819717794656754, 0.0629420056939125, -0.09758250415325165, -0.03439799323678017, 0.12009119242429733, 0.07378232479095459, 0.10565358400344849, -0.022144796326756477, -0.07774052768945694, -0.004702289588749409, -0.10427200049161911, 0.06956405192613602, 0.03706371411681175, 0.07710102945566177, -0.029052378609776497, 0.020287713035941124, -3.0929106287658215e-05, -0.007899072952568531, 0.15991491079330444, 0.005156666971743107, -0.0931684672832489, 0.0728587806224823, -0.025110840797424316, -0.06562715768814087, -0.06585972011089325, 0.06979093700647354, -0.11755692213773727, 0.00015703326789662242], [-0.0863182470202446, 0.002138628624379635, 0.08925096690654755, -0.07370579987764359, 0.13148492574691772, -0.06919500976800919, 0.08542250841856003, 0.03794601559638977, 0.17276617884635925, 0.011186987161636353, -0.08566087484359741, -0.1391889452934265, -0.097870834171772, 0.11098917573690414, 0.03082793578505516, -0.07647811621427536, 0.025376448407769203, -0.0037854553665965796, -0.09342777729034424, -0.14025859534740448, -0.08750834316015244, 0.1281847357749939, 0.13713133335113525, 0.10377378016710281, -0.1395660936832428, 0.1444460153579712, 0.07112742960453033, 3.262994869146496e-05, -2.185993071179837e-05, 0.013807795010507107, 0.037171244621276855, -0.012111303396522999, 0.06693041324615479, -0.006975569762289524, -0.07339087128639221, 0.04344805330038071, -0.05139651894569397, -0.026474881917238235, -0.04250603914260864, 0.006127284374088049], [-0.1535375565290451, -0.09990657866001129, 0.056797608733177185, 0.09399097412824631, -0.0687919408082962, 0.04593169689178467, 0.11292309314012527, -0.11814647167921066, 0.1124550998210907, 0.0040128412656486034, -0.16337797045707703, 0.0495603010058403, -0.11851691454648972, -0.1291305124759674, 0.14169049263000488, 0.045397043228149414, -0.10378847271203995, 0.11885587126016617, -0.02966884896159172, 0.10447448492050171, 0.014786791987717152, -0.07229074090719223, -0.15409353375434875, -0.16699835658073425, -0.14168018102645874, 0.11395372450351715, -0.06186612322926521, -1.7343112631351687e-05, -0.018058806657791138, 0.050621647387742996, 0.12446407973766327, 0.016383672133088112, -0.050003763288259506, 0.04194333031773567, 0.16096219420433044, 0.09869220852851868, 0.1056571900844574, 0.09299387782812119, -0.08165984600782394, 0.010967095382511616], [0.1255096048116684, -0.052310340106487274, -0.08484331518411636, 0.020591335371136665, -0.06062597781419754, -0.042127083986997604, -0.09510350972414017, -0.051541171967983246, 0.04082704335451126, -0.1438564509153366, 0.14343814551830292, 0.12948673963546753, 0.13446493446826935, 0.026063919067382812, 0.05347059294581413, -0.11091919243335724, 0.0904865637421608, -0.061656076461076736, -0.11696260422468185, 0.04097035527229309, -0.02862141653895378, 0.017549114301800728, -0.17256909608840942, -0.0771842896938324, 0.03026186302304268, -0.11780232936143875, -0.15446117520332336, -1.9011469703400508e-05, 0.0061759790405631065, -0.005582012236118317, 0.020171144977211952, -0.0008365879766643047, -0.10309413820505142, -0.11299178004264832, 0.016040556132793427, 0.05558192357420921, 0.014048086479306221, -0.13327686488628387, 0.09187938272953033, -0.025014717131853104], [0.0043825916945934296, -0.08166688680648804, -0.13282588124275208, -0.03268823027610779, -0.14533375203609467, 0.0478062741458416, -0.15909460186958313, -0.15895944833755493, -0.13681334257125854, 0.043493956327438354, 0.16734179854393005, 0.08205819129943848, 0.0773296132683754, 0.1853422373533249, 0.09553499519824982, 0.05967596545815468, -0.05305969715118408, 0.1028452217578888, 0.01486263982951641, -0.09403738379478455, -0.18126311898231506, 0.10954201966524124, -0.19104401767253876, 0.19186659157276154, -0.0094563327729702, -0.12522688508033752, 0.056936390697956085, -0.03579207882285118, 1.372747192363022e-06, -0.035713374614715576, 0.11594342440366745, 0.0006380412960425019, -0.02918103151023388, 0.052069198340177536, -0.13048815727233887, 0.027583688497543335, -0.057950347661972046, 0.02016833983361721, 0.14442740380764008, -4.463600635062903e-05], [-0.15115129947662354, 0.08153727650642395, 0.0006505692726932466, -0.03621622174978256, -0.12878704071044922, 0.11306114494800568, 0.0547260046005249, -0.05338180437684059, -0.13569897413253784, -0.09303120523691177, 0.03503308445215225, -0.1453162580728531, -0.1759670525789261, -0.048120010644197464, 0.10264943540096283, -0.03689183294773102, 0.01787548139691353, -0.1722726672887802, 0.010856478475034237, 0.10936536639928818, 0.12362507730722427, 0.15358799695968628, 0.09328529983758926, -0.07871650159358978, -0.0641019269824028, 0.03637322038412094, 0.01715693064033985, 2.2458465537056327e-05, -3.919156006304547e-05, -0.033398762345314026, -0.1107880100607872, -0.00025287835160270333, -0.09634552150964737, 0.13277006149291992, 0.13966308534145355, -0.015544579364359379, 0.08119971305131912, 0.0705377534031868, -0.06900189071893692, -0.05182522535324097], [0.08943555504083633, 0.011647979728877544, 0.008361817337572575, -0.11842422187328339, -0.13624848425388336, -0.032455623149871826, -0.10807543992996216, 0.13650691509246826, -0.10603039711713791, 0.14577098190784454, -0.22322557866573334, -0.08609233051538467, -0.09322141110897064, -0.15063495934009552, -0.09683927893638611, -0.1998782902956009, 0.0371515154838562, -0.04916582629084587, -0.13411958515644073, 0.09186871349811554, 0.1730833500623703, 0.0857168585062027, 0.1586468517780304, -0.061326541006565094, -0.14408327639102936, -0.05896591395139694, 0.11252354085445404, -4.14819223806262e-05, -2.585420588729903e-05, -0.00016258348478004336, -0.07230743765830994, -0.005557007621973753, -0.024530509486794472, -0.0006176583701744676, -0.144682839512825, 0.023740537464618683, -0.21450375020503998, -0.007964488118886948, 0.07354225218296051, -0.012144123204052448], [-0.009278864599764347, 0.12634314596652985, -0.08347587287425995, -0.06465592235326767, -0.1077045351266861, -0.05032901093363762, 0.049557626247406006, -0.04177580773830414, -0.09736274182796478, -0.042833101004362106, -0.14525167644023895, -0.15495255589485168, -0.0010817355941981077, -0.08711598813533783, -0.16682817041873932, -0.09807915985584259, 0.06358020007610321, -0.08715413510799408, 0.0693143755197525, 0.02695617824792862, 0.01576605625450611, 0.0005773922894150019, 0.10787978023290634, -0.12142227590084076, -0.0762016773223877, -0.03368145227432251, -0.06682918220758438, -0.002428401028737426, -0.005723099689930677, 3.119643224636093e-05, 0.1925913393497467, -0.0017966828308999538, 0.044013720005750656, -0.052693549543619156, -0.0584418959915638, -0.05246276035904884, -0.08893492072820663, 0.019076058641076088, 0.07608882337808609, 0.018518764525651932], [0.11832412332296371, -0.15068170428276062, -0.02034938894212246, 0.010561017319560051, 0.09909612685441971, 0.013450692407786846, 0.04505461826920509, -0.07547646760940552, 0.03861050680279732, -0.06222827360033989, -0.004166617523878813, 0.010583712719380856, 0.09555509686470032, -0.0909428820014, -0.0099466722458601, -0.013778984546661377, 0.05891098827123642, -0.13585112988948822, -0.0576789528131485, -0.026680225506424904, 0.05722248926758766, 0.09707055240869522, 0.11824458092451096, 0.09785516560077667, -0.008483207784593105, -0.0875205397605896, 0.12914690375328064, 0.013895859941840172, -0.041600003838539124, 0.00015241780783981085, 0.125813290476799, -0.001567475381307304, 0.021947842091321945, 0.06318870931863785, -0.08860482275485992, 0.008598863147199154, -0.004463677294552326, -0.06877432763576508, 0.08754073828458786, -0.002810148987919092], [-0.06912687420845032, -0.02817482315003872, 0.15968190133571625, 0.0333407036960125, 0.044736046344041824, 0.07659323513507843, 0.002091950736939907, 0.007543489802628756, -0.09911978244781494, -0.030984720215201378, -0.016356782987713814, -0.014834522269666195, -0.2009676843881607, 0.026683075353503227, -0.04535512626171112, 0.07555682957172394, 0.037607572972774506, -0.05211470648646355, -0.06785158067941666, 0.1556650996208191, 0.18560108542442322, 0.08893697708845139, 0.1375819742679596, -0.05023670941591263, 0.011192424222826958, 0.03895728662610054, -0.015427992679178715, 0.01720070280134678, -8.129049092531204e-05, 0.010609610006213188, -0.07102465629577637, 0.001504451152868569, 0.04550997540354729, -0.08227723836898804, 0.1135530024766922, -0.0832182914018631, -0.02644452452659607, -0.022340664640069008, 0.11369600892066956, -0.03947680816054344], [0.025627678260207176, -0.03836526721715927, -0.01620996557176113, -0.13503482937812805, -0.08882785588502884, -0.004920524079352617, 0.10937823355197906, 0.07027304917573929, -0.09422209113836288, 0.035588037222623825, -0.029790695756673813, -0.10643606632947922, -0.11325907707214355, -0.053519029170274734, 0.10704237222671509, -0.18613433837890625, -0.03405853733420372, 0.10545741766691208, -0.06870977580547333, 0.04966089501976967, -0.006445096805691719, 0.004520947113633156, 0.04080524295568466, -0.06569648534059525, 0.015001611784100533, 0.1348695158958435, -0.07152950018644333, 0.002268455224111676, -0.025157347321510315, 1.8113241821993142e-06, 0.11626753956079483, -9.548833622829989e-05, 0.14298449456691742, 0.07262266427278519, 0.014459751546382904, 0.10390122979879379, 0.15173667669296265, 0.03618602454662323, 0.010369363240897655, 3.0388060622499324e-05], [-0.04305556043982506, -0.05315276235342026, -0.09789448976516724, 0.0869835689663887, 0.12789814174175262, 0.04920684173703194, -0.03383525460958481, 0.127298504114151, 0.07533114403486252, -0.09537366777658463, 0.1522204428911209, 0.1068086251616478, -0.020367246121168137, 0.013165908865630627, -0.09888561069965363, 0.03951023519039154, -0.10159585624933243, -0.017334366217255592, 0.11172140389680862, -0.027664292603731155, -0.14091311395168304, 0.02428443543612957, 0.030641775578260422, 0.16447043418884277, -0.08917692303657532, -0.12241275608539581, -0.013082552701234818, 0.01821926422417164, 1.1242884284001775e-05, 0.050792016088962555, -0.09351830929517746, -0.009161371737718582, 0.0487775057554245, 0.11676686257123947, -0.07264413684606552, 0.0118684908375144, 0.03366650268435478, -0.12339223921298981, 0.04522639885544777, 0.025832394137978554], [0.023662395775318146, 0.054353661835193634, -0.11173898726701736, 0.018772698938846588, 0.14714644849300385, -0.016475141048431396, 0.11298549175262451, -0.0807737186551094, 0.05028277635574341, 0.15132026374340057, 0.01774539053440094, 0.035149358212947845, 0.16950368881225586, 0.14183028042316437, 0.03788032755255699, 0.08768016844987869, 0.03158949688076973, 0.09911751002073288, 0.03937699273228645, -0.17166666686534882, -0.06170980632305145, 0.055805012583732605, 0.07481203228235245, 0.08072732388973236, 0.09885948151350021, -0.09783070534467697, 0.04589511826634407, -2.3808037440176122e-05, 0.026915358379483223, -0.032869596034288406, 0.09762478619813919, -0.016613418236374855, 0.15754544734954834, -0.04296956583857536, -0.10322653502225876, 0.05164048820734024, 0.07836712151765823, 0.03821927309036255, 0.12214815616607666, -0.004171253181993961], [0.002226737095043063, 0.1359550803899765, 0.1371126025915146, -0.07460413128137589, -0.08407170325517654, 0.11708518862724304, -0.054765552282333374, 0.057258978486061096, 0.0797140896320343, 0.1603272557258606, -0.11330538988113403, -0.13542583584785461, -0.03712718188762665, 0.1331448256969452, -0.03291315585374832, -0.0010267355246469378, 0.048996176570653915, 0.1336555927991867, 0.028031427413225174, -0.0666172057390213, -0.08272599428892136, 0.06881771236658096, -0.04209740459918976, 0.06804914027452469, -0.009387591853737831, 0.1490989625453949, 0.17152941226959229, -4.596692815539427e-05, -0.008832622319459915, -0.0001584218698553741, 0.06531224399805069, 0.009625338949263096, -0.05173110216856003, 0.01362012792378664, -0.004946657922118902, 0.0706683024764061, 0.027418209239840508, 0.052765071392059326, 0.06608621031045914, -0.05404426530003548], [-0.11145028471946716, 0.09674032032489777, -0.08350957930088043, -0.10538989305496216, 0.12466133385896683, -0.10070674866437912, 0.029109708964824677, -0.02671976201236248, -0.11253833025693893, -0.04512951150536537, -0.06946378201246262, -0.0895819440484047, 0.066574327647686, 0.07305540144443512, 0.1287030428647995, -0.16017299890518188, -0.028563400730490685, -0.044362131506204605, 0.05804964900016785, -0.01140609011054039, -0.13928338885307312, 0.14158207178115845, 0.11906719952821732, 0.07719821482896805, -0.06227373704314232, 0.07698670774698257, 0.1282471865415573, 2.2947047909838147e-05, 0.04253099486231804, 0.0016047527315095067, -0.07748199254274368, 0.020908329635858536, -0.05436038225889206, -0.08595005422830582, 0.06483538448810577, -0.008605747483670712, 0.04692322388291359, 0.10737631469964981, 0.12307741492986679, -0.014625264331698418], [0.08606526255607605, 0.1470816284418106, 0.10107212513685226, -0.05718383938074112, 0.11979979276657104, -0.07222281396389008, 0.034265000373125076, -0.02432130090892315, 0.0018425488378852606, 0.016002479940652847, -0.054477669298648834, -0.09379606693983078, -0.11986164003610611, 0.01179642602801323, 0.1294640451669693, 0.1244317814707756, -0.019838085398077965, 0.07610060274600983, -0.10479935258626938, 0.10567168891429901, -0.0329514741897583, -0.11661961674690247, -0.07183225452899933, 0.02240748703479767, -0.05425390601158142, -0.01956542767584324, 0.01674438826739788, -1.205878788823611e-06, 4.965918378729839e-06, 0.045612845569849014, 0.02511214092373848, -0.0039004175923764706, -0.03484456241130829, 0.034956350922584534, -0.027733106166124344, 0.1320681869983673, 0.07487884163856506, -0.013030235655605793, 0.020081162452697754, 1.0624870810715947e-05], [0.08773242682218552, 0.07110555469989777, -0.018636178225278854, -0.08976537734270096, -0.10937777161598206, 0.11120527982711792, 0.06049593538045883, 0.16720612347126007, -0.1152346134185791, 0.02895568124949932, -0.08307693153619766, 0.08983563631772995, 0.11343282461166382, 0.0760326161980629, -0.0002730000705923885, -0.0023534856736660004, 0.12393859028816223, 0.08271056413650513, 0.08565198630094528, 0.13843229413032532, 0.03563208878040314, 0.166016086935997, 0.09462906420230865, -0.034091975539922714, -0.07006953656673431, 0.0984777882695198, 0.05621445178985596, -1.8085196643369272e-05, -0.010797528550028801, -0.0172447357326746, -0.06717999279499054, 0.053518231958150864, -0.07042687386274338, 0.11005999147891998, -0.16713543236255646, -0.10279081016778946, 0.010438300669193268, 0.09517133980989456, -0.14507044851779938, 0.04174397885799408], [0.09479958564043045, 0.011500800028443336, 0.121156245470047, 0.0764080211520195, 0.08827805519104004, -0.04735487699508667, -0.029703376814723015, 0.09244417399168015, -0.1847425103187561, 0.09814538061618805, -0.11889730393886566, 0.09955324232578278, -0.11692303419113159, 0.003976150415837765, -0.08755107969045639, 0.1000424399971962, 0.08575233072042465, 0.12764500081539154, 0.03251826763153076, 0.07294123619794846, -0.1387505978345871, -0.16879278421401978, -0.1719995141029358, 0.09399737417697906, 0.10494162887334824, -0.1683470606803894, -0.18786543607711792, 4.006918243248947e-05, -0.053028859198093414, 0.0032630960922688246, -0.1194557249546051, -0.0010916735045611858, -0.040620654821395874, 0.043726518750190735, -0.10393517464399338, -0.09423615783452988, -0.06747975945472717, 0.14597858488559723, -0.10660393536090851, 0.04242320358753204], [-0.10214584320783615, 0.06333811581134796, 0.05506063997745514, -0.10797478258609772, 0.13608606159687042, 0.007367454003542662, 0.03295310214161873, -0.0405532531440258, 0.041684340685606, 0.009535779245197773, -0.11685044318437576, -0.10927608609199524, -0.04125243052840233, -0.088467538356781, 0.0966801568865776, -0.1229611337184906, -0.1423693150281906, 0.04586884751915932, -0.032180871814489365, 0.10726162046194077, -0.09158387035131454, 0.07237854599952698, -0.11659993976354599, -0.07346342504024506, 0.1330566555261612, -0.01688007265329361, 0.06333576887845993, -1.565239654155448e-05, -3.6520508729154244e-05, -2.4801927793305367e-05, -0.08718620985746384, -0.0015890734503045678, 0.08191657066345215, -0.1383216381072998, 0.02163492701947689, -0.10557929426431656, -0.0516023188829422, 0.06313995271921158, 0.07042307406663895, 0.044109806418418884], [0.009827259927988052, 0.0890691801905632, 0.002592792036011815, 0.05082927644252777, -0.1249861940741539, -0.03059595823287964, -0.13653340935707092, -0.11406275629997253, -0.05378199741244316, 0.08541519194841385, 0.005365034099668264, 0.02523055300116539, 0.16996066272258759, -0.09322218596935272, 0.01860649138689041, -0.11666227132081985, 0.023779578506946564, 0.03095906414091587, -0.07352948933839798, -0.11260095238685608, 0.009226127527654171, -0.04927804321050644, -0.028383364900946617, 0.11844450235366821, -0.09665151685476303, 0.03401614725589752, -0.09406740963459015, 7.552457100246102e-05, 0.03151021525263786, 0.03478782996535301, -0.146500825881958, 0.0394890196621418, 0.11529780924320221, -0.16215947270393372, 0.04431033879518509, 0.011295231059193611, 0.10755939036607742, 0.1368722915649414, -0.14127859473228455, -0.0003591385611798614], [0.06716406345367432, 0.059882182627916336, -0.07864217460155487, 0.03913913294672966, -0.05478207767009735, 0.0023942673578858376, -0.010321201756596565, -0.014677359722554684, -0.07874763011932373, -0.1393115222454071, 0.09286430478096008, 0.08458496630191803, 0.07317192107439041, 0.029727473855018616, -0.0020657405257225037, -0.025930842384696007, 0.0779634639620781, 0.08809127658605576, 0.05819453299045563, -0.13177786767482758, -0.05468038097023964, -0.018609752878546715, 0.08668074756860733, -0.09463471919298172, 0.0600803904235363, 0.030103696510195732, 0.04034608229994774, -8.086343586910516e-05, 0.00019226358563173562, 0.01964033767580986, -0.14452065527439117, -0.022245533764362335, 0.08167185634374619, -0.055089496076107025, 0.07162143290042877, 0.022227367386221886, 0.010228189639747143, 0.018765345215797424, -0.04509726166725159, 8.651039024698548e-06], [0.03937418386340141, -0.14498178660869598, 0.1257873922586441, 0.009282032959163189, -0.02963206171989441, 0.0722041055560112, -0.1296384483575821, 0.09005142003297806, 0.01483839750289917, -0.11404237896203995, 0.1769046038389206, 0.13074539601802826, 0.06449798494577408, -0.12350491434335709, -0.05559230595827103, 0.12522657215595245, 0.04884149134159088, 0.02418021485209465, -0.09623078256845474, 0.02985628880560398, -0.19112597405910492, 0.031175531446933746, -0.06770974397659302, 0.17131565511226654, 0.028509844094514847, -0.13122718036174774, -0.04189476743340492, -0.0450005829334259, 0.02771093137562275, -3.639777332864469e-06, 0.08884996920824051, 0.005190637428313494, -0.01589515618979931, -0.1266738772392273, 0.046386733651161194, -0.07927682995796204, 0.17404113709926605, 0.10990355163812637, 0.11605546623468399, 0.00021504527830984443], [0.1126161515712738, 0.014761405996978283, 0.022536426782608032, -0.09456554800271988, -0.08571751415729523, -0.01285271905362606, -0.012265514582395554, 0.03277208283543587, -0.10494471341371536, -0.03911205753684044, -0.06291316449642181, -0.002074672607704997, 0.06756981462240219, -0.07506315410137177, 0.10828433930873871, -0.08052195608615875, -0.03086187317967415, -0.005692383274435997, -0.03362245485186577, 0.15537022054195404, -0.09808371216058731, 0.09594053775072098, -0.06328783929347992, -0.056573014706373215, 0.08090531080961227, 0.1520582139492035, 0.07112350314855576, 0.001457853359170258, -0.01447125431150198, -7.629858737345785e-05, 0.06578586250543594, -0.003458187682554126, -0.11963137239217758, -0.015713026747107506, 0.04877699539065361, -0.06329362094402313, 0.14957958459854126, -0.0998392254114151, 0.12605100870132446, 0.0033877387177199125], [0.055273350328207016, -0.031248854473233223, 0.015578036196529865, -0.06633671373128891, 0.01908625103533268, -0.07064368575811386, 0.042269881814718246, 0.07867970317602158, -0.05110318586230278, 0.07135502249002457, 0.05493824556469917, -0.052359361201524734, -0.04433786869049072, -0.001051040948368609, 0.047076091170310974, -0.06660094112157822, 0.12905415892601013, -0.013650625944137573, 0.11745116859674454, 0.005563114769756794, -0.10790727287530899, -0.0415530651807785, 0.06972847878932953, -0.1431272029876709, 0.009271103888750076, -0.11609113961458206, -0.15891292691230774, -0.02385551482439041, 0.05078122764825821, -3.149547046632506e-05, -0.053858477622270584, -0.004273115657269955, 0.04543615132570267, -0.12278781831264496, 0.057157475501298904, -0.10588908195495605, 0.1434624195098877, 0.06942322850227356, -0.13952302932739258, -1.0146707609237637e-05], [0.06581171602010727, 0.08372172713279724, 0.10872718691825867, -0.02285374514758587, -0.07891237735748291, -0.07770439982414246, -0.10636498779058456, -0.1277822107076645, -0.0040166983380913734, 0.14011576771736145, -0.09405916184186935, 0.10471326857805252, 0.0569346584379673, -0.1435292363166809, -0.11992287635803223, 0.06337136775255203, 0.10291428118944168, -0.11944112926721573, -0.1514255851507187, 0.021906886249780655, 0.1845572292804718, 0.17100366950035095, -0.04245638847351074, -0.2129111886024475, -0.1764431893825531, -0.12131216377019882, 0.11982661485671997, -0.017196763306856155, 0.005305297672748566, -0.0272537674754858, 0.1120728850364685, 0.0033745430409908295, -0.10735345631837845, -0.07626313716173172, -0.1279165893793106, 0.01785353757441044, -0.03903971239924431, 0.1492501199245453, -0.089845672249794, 0.004573262296617031], [-0.03201732411980629, 0.1772826462984085, 0.028227973729372025, -0.020199010148644447, 0.050453029572963715, 0.07515472918748856, -0.08023220300674438, -0.03320787474513054, -0.013855463825166225, -0.08995648473501205, 0.0915709063410759, 0.041816938668489456, 0.19653137028217316, 0.12200328707695007, -0.008243972435593605, 0.049944404512643814, 0.009194174781441689, -0.06473740935325623, 0.13319964706897736, 0.013330911286175251, -0.06558791548013687, 0.0994756892323494, -0.0449894517660141, 0.11928066611289978, 0.05195536091923714, -0.10402455925941467, 0.06015254184603691, -7.856173033360392e-05, 0.010112874209880829, 0.015599283389747143, 0.02460150420665741, -0.00032156947418116033, -0.04779361933469772, 0.15062479674816132, -0.11119664460420609, 0.12740807235240936, -0.013672804459929466, 0.10652247071266174, -0.09486941993236542, -0.05353279039263725], [-0.1633426398038864, 0.12755312025547028, 0.05127166956663132, 0.077480249106884, 0.007178526371717453, 0.007668863516300917, -0.04944802448153496, -0.126638263463974, 0.1221599131822586, 0.041885435581207275, -0.1679489016532898, -0.08628108352422714, -0.034890662878751755, 0.07921463251113892, 0.056208740919828415, 0.06533242762088776, -0.078224778175354, 0.053291115909814835, -0.030834941193461418, -0.03192777559161186, -0.033248722553253174, 0.14814290404319763, -0.06572239100933075, -0.03783085197210312, 0.046581946313381195, -0.08211644738912582, 0.02140762098133564, 5.132365186000243e-05, 0.026039276272058487, 0.00017400395881850272, 0.003173391567543149, 0.010108678601682186, 0.10346324741840363, 0.04999936372041702, -0.0530366487801075, 0.03340151533484459, -0.013344860635697842, -0.025101780891418457, 0.030771329998970032, 0.01580638997256756], [0.09242723137140274, 0.07185257226228714, -0.04973921552300453, 0.007668949197977781, -0.16978740692138672, -0.08865763992071152, -0.0700368732213974, -0.03947653993964195, -0.15106149017810822, -0.029322804883122444, 0.03721388801932335, -0.03713211789727211, -0.17133350670337677, 0.07063179463148117, 0.08879882097244263, -0.07780347764492035, -0.003336370224133134, -0.13918963074684143, 0.13108009099960327, 0.010800600983202457, -0.0559815987944603, 0.07371162623167038, -0.10362129658460617, -0.02790801040828228, -0.060073915868997574, -0.052877482026815414, 0.1241888478398323, -0.010767866857349873, -7.685883929298143e-07, -0.006396156270056963, -0.11047379672527313, 0.007877998054027557, 0.05629638954997063, -0.04966331645846367, -0.06801524758338928, 0.027203723788261414, -0.13368305563926697, -0.0030894987285137177, 0.13088858127593994, 0.029916511848568916], [-0.08972953259944916, -0.14328905940055847, -0.09207767248153687, -0.004320867825299501, -0.13497041165828705, -0.06198865547776222, -0.04566856846213341, -0.1314716786146164, 0.16535885632038116, 0.04526977241039276, -0.000508929428178817, -0.059760503470897675, -0.20405109226703644, -0.14125335216522217, -0.06313211470842361, 0.10047492384910583, -0.15804646909236908, 0.02523430436849594, -0.0953294113278389, 0.032254658639431, -0.03969051316380501, 0.11732620745897293, -0.05355009064078331, 0.028379082679748535, -0.017446789890527725, -0.032237980514764786, -0.018383650109171867, -0.0009940753225237131, -0.005980363581329584, -0.013373455964028835, 0.025653187185525894, -0.031597502529621124, 0.1582445204257965, -0.10380979627370834, -0.12304852157831192, -0.11442313343286514, -0.0725991353392601, 0.10386776179075241, -0.004593599122017622, -0.00229546963237226], [0.004991072695702314, 0.13874207437038422, 0.01616671308875084, 0.04577677324414253, -0.03974245488643646, 0.057113051414489746, -0.08177579194307327, -0.059018321335315704, -0.0013278708793222904, 0.09532611072063446, -0.1272345930337906, 0.018078695982694626, 0.13319849967956543, 0.049479201436042786, 0.07584594935178757, 0.08927018940448761, 0.08879846334457397, 0.037155505269765854, 0.16178107261657715, 0.11495961993932724, -0.05267517268657684, 0.09357023239135742, 0.13286371529102325, 0.14654356241226196, -0.020705105736851692, 0.06466980278491974, 0.17222991585731506, -0.02202042192220688, -0.013073891401290894, -0.0388246513903141, 0.0008555709500797093, 0.00697275809943676, -0.06456007808446884, 0.09021297842264175, 0.054494891315698624, 0.03483116254210472, 0.011225055903196335, -0.10390116274356842, 0.03846815973520279, 6.129141638666624e-08], [-0.05155644193291664, 0.05489279702305794, 0.0396750383079052, -0.0035535581409931183, 0.11522786319255829, -0.027514323592185974, 0.048106346279382706, -0.13067474961280823, 0.00647198548540473, -0.17926673591136932, 0.08175593614578247, 0.09321817755699158, -0.012850692495703697, 0.1763610690832138, -0.11760774254798889, -0.13430894911289215, 0.00874998513609171, 0.11927276849746704, -0.0838148295879364, -0.03602094203233719, -0.0866198018193245, -0.011034749448299408, -0.1019061803817749, 0.1745382845401764, -0.028975028544664383, 0.08396865427494049, 0.0651305615901947, 0.006452718749642372, -0.04368768259882927, -0.04426928609609604, 0.017452960833907127, -0.0031634168699383736, 0.07238300144672394, -0.14861351251602173, -0.13735923171043396, -0.02433079108595848, 0.15513132512569427, -0.011982528492808342, 0.15064452588558197, -0.04798285290598869], [0.010068254545331001, -0.01640264503657818, 0.005549862049520016, 0.037394389510154724, -0.1537175476551056, -0.0023113591596484184, 0.017378294840455055, -0.02839081548154354, -0.02732248418033123, -0.16580815613269806, -0.05401408299803734, -0.041458748281002045, 0.1826769858598709, -0.0583619624376297, -0.0445961095392704, 0.12237992137670517, 0.0972912535071373, 0.13416974246501923, -0.012016690336167812, 0.08732523769140244, -0.08034060895442963, -0.04629233479499817, 0.10865828394889832, 0.18566179275512695, 0.040184859186410904, 0.0014832285232841969, -0.2185104489326477, -7.0469113779836334e-06, 0.0522310845553875, 7.247640951391077e-06, -0.020860327407717705, 0.020767631009221077, -0.05937772989273071, -0.17447854578495026, -0.08016235381364822, 0.10551723837852478, 0.14337937533855438, 0.022950703278183937, 0.013560228981077671, -0.03441718965768814], [-0.009051581844687462, -0.06467819958925247, -0.059873778373003006, -0.050777122378349304, -0.12309332937002182, 0.10486848652362823, 0.12771238386631012, -0.09226084500551224, -0.07568321377038956, 0.12405189126729965, 0.08670181035995483, -0.15069004893302917, -0.06694833934307098, -0.08069005608558655, -0.025790540501475334, 0.06472711265087128, 0.1347224861383438, -0.09059654176235199, 0.10280560702085495, -0.12713344395160675, -0.014913889579474926, -0.00857856310904026, -0.029319098219275475, -0.0970708578824997, -0.1154928207397461, 0.15013925731182098, 0.1364622265100479, 0.007409685757011175, 0.024679698050022125, -0.016209060326218605, 0.055823683738708496, -0.05458509549498558, 0.042162250727415085, -0.10114496201276779, -0.01942913420498371, 0.06991428881883621, -0.08502541482448578, 0.10727053880691528, -0.0535912811756134, 0.0009519382729195058], [0.08683690428733826, -0.01851074956357479, 0.0880415141582489, -0.034649550914764404, -0.00571837043389678, 0.13068751990795135, 0.004035853780806065, 0.1617586761713028, -0.06741885095834732, 0.0016608219593763351, -0.11497529596090317, 0.0577835850417614, 0.04468827694654465, 0.14157553017139435, 0.1200864166021347, 0.08248055726289749, -0.10802970826625824, 0.027481084689497948, -0.04827943444252014, -0.13381196558475494, -0.07749398052692413, 0.16869603097438812, 0.058845795691013336, 0.007005913183093071, 0.003705032169818878, 0.030144857242703438, -0.10408774018287659, -3.9803897379897535e-05, 6.739017408108339e-06, 2.5225112949556205e-06, 0.05354717746376991, 0.030644642189145088, 0.007131450343877077, 0.13845916092395782, 0.09885048866271973, 0.0615646094083786, -0.09339765459299088, -0.06259029358625412, 0.18973572552204132, -0.03372863680124283], [-0.015711823478341103, -0.03764389082789421, 6.524450873257592e-05, -0.06710503995418549, 0.03541048616170883, 0.04784252494573593, 0.12077319622039795, 0.039909157902002335, -0.11680630594491959, 0.03932034969329834, -0.057229407131671906, -0.06478375196456909, -0.012384642846882343, -0.020940320566296577, 0.057709451764822006, 0.08874059468507767, -0.06234438717365265, -0.13249905407428741, 0.04034490883350372, 0.12166933715343475, -0.0018576419679448009, 0.1115107610821724, -0.046226583421230316, -0.04657695069909096, -0.10396057367324829, -0.07927101850509644, 0.05285567790269852, -0.03837631642818451, -0.0029281757306307554, 0.009458034299314022, 0.0016739125130698085, 0.03288215398788452, 0.027897633612155914, 0.030589643865823746, -0.041888341307640076, 0.10701831430196762, -0.08755285292863846, 0.14917030930519104, -0.1413349062204361, -7.983240357134491e-05], [-0.12164607644081116, 0.11384104192256927, 0.1309952735900879, -0.08123700320720673, 0.050360746681690216, -0.06147502735257149, 0.13018551468849182, 0.14263960719108582, 0.13335657119750977, 0.0748797059059143, 0.09110984951257706, -0.051577966660261154, -0.03705865517258644, 0.00413550715893507, -0.09432100504636765, -0.08641747385263443, -0.05781923979520798, 0.009787147864699364, -0.025505274534225464, 0.0972847267985344, -0.03167404979467392, 0.060166262090206146, 0.1485898345708847, -0.02358982339501381, 0.0975346639752388, 0.15644949674606323, 0.09233132004737854, -0.000212454964639619, -0.014969787560403347, -1.7219223082065582e-05, -0.05872281268239021, -0.053530003875494, -0.10566946864128113, -0.10984250158071518, 0.06265942007303238, 0.02995123341679573, -0.1496475636959076, 0.008223389275372028, 0.02307446114718914, 0.005927409511059523], [0.05410027876496315, -0.09485059231519699, -0.07283305376768112, 0.12021061033010483, 0.05093562975525856, 0.059993255883455276, 0.0972198098897934, -0.15753158926963806, 0.0634036734700203, 0.1083717867732048, -0.026086675003170967, 0.1210901290178299, 0.05657946318387985, 0.01938633620738983, 0.07599874585866928, 0.042886048555374146, -0.14395174384117126, 0.02408602647483349, -0.029153235256671906, -0.0884910300374031, -0.04593246430158615, -0.021203115582466125, 0.11091592162847519, 0.11658777296543121, 0.05818864703178406, -0.12850496172904968, 0.06734995543956757, -0.007335244212299585, 8.811166480882093e-06, 0.024645494297146797, 0.017123043537139893, -0.00139435229357332, 0.046065427362918854, -0.153933584690094, 0.06646592170000076, 0.014857301488518715, 0.08575638383626938, 0.060304831713438034, 0.11322306841611862, -0.014862061478197575], [-0.1099938228726387, 0.004598505329340696, 0.07350798696279526, 0.03155215457081795, 0.0336327999830246, 0.05989440530538559, 0.09255556017160416, -0.08738196641206741, -0.15658976137638092, -0.1889597773551941, -0.021316787227988243, 0.04629402607679367, 0.11486753076314926, -0.017475925385951996, 0.0460885651409626, -0.14854666590690613, 0.10744088888168335, 0.034995436668395996, -0.12198418378829956, -0.08518163859844208, -0.09874340891838074, -0.13061538338661194, 0.11063463985919952, 0.051160313189029694, -0.08712483197450638, -0.12556180357933044, -0.04051486775279045, -0.0519094280898571, 0.0035557872615754604, -4.896692917100154e-05, -0.05400778725743294, -0.0023302051704376936, -0.0415339358150959, -0.058654192835092545, 0.08571183681488037, 0.030293604359030724, -0.08409710973501205, 0.0031575309112668037, 0.09351245313882828, -0.010475129820406437], [-0.07304618507623672, 0.13162748515605927, -0.1112104281783104, -0.06437375396490097, -0.04950505867600441, -0.027059003710746765, -0.0514846108853817, 0.10629450529813766, 0.0743115097284317, -0.13973724842071533, 0.07632742822170258, 0.13560624420642853, -0.01799207553267479, 0.0699370875954628, 0.15600425004959106, 0.09878163784742355, -0.029393834993243217, 0.06308045238256454, 0.08883281797170639, 0.01362342108041048, -0.10968396067619324, -0.07080812007188797, 0.13757941126823425, -0.029053373262286186, 0.039227213710546494, 0.010513669811189175, -0.11667229235172272, -0.053024712949991226, -0.023500341922044754, 0.0515725240111351, 0.09467004984617233, -0.03895571455359459, -0.0716245174407959, -0.06799279153347015, -0.09496739506721497, -0.014423015527427197, 0.022518640384078026, -0.11565014719963074, 0.15199865400791168, 0.0025892152916640043], [-0.12942706048488617, 0.0694705918431282, 0.04203684255480766, 0.07128971815109253, 0.05556689575314522, -0.024616684764623642, -0.120966836810112, 0.047485917806625366, 0.14215877652168274, 0.10209609568119049, -0.11427737772464752, -0.03408777713775635, 0.017431871965527534, -0.10027163475751877, -0.05279390886425972, 0.15303964912891388, 0.04677150398492813, -0.02713101916015148, -0.021405303850769997, -0.13269610702991486, 0.016754040494561195, -0.08850844204425812, 0.053240884095430374, 0.10466718673706055, -0.04234550893306732, -0.052661869674921036, -0.09248564392328262, 0.02422359026968479, -6.768232196918689e-07, 0.0005253622075542808, -0.1233333870768547, 0.04704552888870239, 0.12471167743206024, -0.02790834754705429, -0.12747173011302948, -0.05667901784181595, -0.09079921990633011, 0.10206025093793869, -0.029008690267801285, 0.050927259027957916], [0.07584065943956375, 0.06349758803844452, -0.005974548868834972, -0.047827642410993576, -0.05090254172682762, 0.1174100860953331, 0.15117302536964417, -0.0626315176486969, -0.0019985721446573734, 0.1442529857158661, 0.0863305851817131, 0.08137842267751694, 0.054107438772916794, 0.06322762370109558, 0.004243557341396809, -0.12772376835346222, 0.11266239732503891, -0.05589946731925011, -0.12003856152296066, -0.07205335795879364, -0.12029382586479187, 0.18272002041339874, -0.02604016661643982, -0.09498190134763718, 0.16706204414367676, 0.13798005878925323, -0.018342407420277596, -0.025542542338371277, 0.0021429001353681087, -3.88639273296576e-06, -0.017785856500267982, 0.04723010212182999, -0.0763382613658905, 0.08144254982471466, 0.016548864543437958, 0.0017824650276452303, -0.09769192337989807, -0.047940824180841446, 0.05495066940784454, -6.832934741396457e-05], [-0.13898387551307678, 0.07363017648458481, -0.04715267941355705, 0.056026287376880646, -0.04709294065833092, 0.08343109488487244, -0.0072014606557786465, -0.005654959939420223, -0.13785627484321594, 0.13885781168937683, 0.13204313814640045, -0.05351691320538521, 0.15403425693511963, 0.1326795220375061, -0.08909127116203308, 0.1598426252603531, -0.0012862880248576403, 0.05407435819506645, -0.07797085493803024, -0.11917116492986679, 0.12926888465881348, 0.09465522319078445, 0.022563574835658073, -0.0606246143579483, 0.012246244587004185, 0.15138274431228638, 0.03346063941717148, 2.1890184143558145e-05, 8.888691809261218e-06, -8.19869546830887e-06, 0.04304748401045799, -0.02836047112941742, -0.13843166828155518, 0.041516244411468506, -0.10120569169521332, 0.10969843715429306, 0.14375850558280945, -0.07631585747003555, -0.14547131955623627, 0.024444827809929848], [-0.06167662888765335, -0.15633903443813324, 0.02409757673740387, -0.016235271468758583, 0.07337967306375504, 0.10971322655677795, -0.0692228376865387, 0.05410439521074295, 0.04338327795267105, 0.010403589345514774, -0.05107324942946434, 0.004375406540930271, -0.016721094027161598, -0.14539006352424622, 0.06754054129123688, -0.035771094262599945, 0.07350701093673706, 0.1464948207139969, 0.10160961747169495, 0.017552079632878304, -0.05038044601678848, 0.05427881330251694, 0.05025903508067131, -0.04180918261408806, -0.10446666926145554, -0.04990142956376076, 0.11564197391271591, -0.0008437389624305069, -0.010252452455461025, 0.03210355341434479, -0.026515107601881027, -0.04360846430063248, -0.06508565694093704, 0.12441317737102509, 0.09748350083827972, -0.10372591018676758, 0.15284253656864166, 0.07272493839263916, -0.12559644877910614, 0.023233328014612198], [0.09234684705734253, 0.02660076506435871, 0.005643167998641729, -0.13590160012245178, 0.08046790212392807, -0.026294222101569176, -0.10165126621723175, -0.013120378367602825, 0.01853187195956707, -0.08508853614330292, -0.1630679816007614, 0.07753071188926697, -0.04915310814976692, 0.019163750112056732, 0.13253766298294067, -0.09960290044546127, 0.060256682336330414, -0.017880339175462723, 0.05864452198147774, 0.15235982835292816, 0.1522047072649002, -0.14248879253864288, 0.10676221549510956, 0.06519558280706406, -0.013708410784602165, 0.000907992769498378, 0.08642198145389557, -0.04184723272919655, 0.03076925501227379, -0.036336299031972885, 0.13727347552776337, -4.0317216189578176e-05, 0.1261690855026245, -0.07340408861637115, 0.08074426651000977, 0.012613332830369473, 0.027905728667974472, -0.014644281938672066, 0.11727417260408401, 4.818328307010233e-06], [0.1307850182056427, 0.018864072859287262, 0.10433179140090942, 0.03387223556637764, -0.09633070975542068, -0.12325962632894516, 0.13173989951610565, 0.0008325056405737996, -0.13429208099842072, 0.09770137071609497, 0.07788044214248657, 0.01839521899819374, -0.07413110136985779, 0.00633833184838295, 0.06258893013000488, -0.07296924293041229, 0.013301726430654526, -0.08845680207014084, -0.05214305594563484, 0.05734311789274216, -0.05810565501451492, -0.06397294253110886, -0.026621969416737556, -0.0874955877661705, 0.12329652160406113, -0.11772652715444565, -0.12813721597194672, -0.008703422732651234, -0.0040029254741966724, 0.018813664093613625, 0.12910757958889008, -0.051028452813625336, -0.1099463477730751, -0.08648756891489029, -0.05032723397016525, -0.12172088772058487, 0.08087257295846939, 0.009811246767640114, -0.11353691667318344, -0.011010617017745972], [0.011979510076344013, -0.09324602037668228, 0.06294205784797668, 0.10885045677423477, 0.00793720968067646, 0.1084180623292923, 0.038840051740407944, -0.012086075730621815, -0.145997554063797, 0.1017875000834465, 0.12890392541885376, -0.11339645087718964, 0.02397056110203266, 0.0942850187420845, 0.12251365184783936, 0.0748363509774208, -0.09061715751886368, 0.05527463182806969, 0.13611212372779846, 0.0501796118915081, -0.051932938396930695, 0.14867974817752838, -0.09067463874816895, 0.0897257998585701, 0.03380421921610832, 0.14536510407924652, 0.10404330492019653, 0.03439989313483238, -1.6417779988842085e-06, -0.0018228553235530853, 0.005315256770700216, 0.043334897607564926, -0.002871972043067217, -0.1505281627178192, -0.0732840970158577, 0.11191033571958542, 0.1517815887928009, -0.08569831401109695, 0.008018065243959427, -0.012729723937809467], [-0.023430893197655678, 0.15329545736312866, 0.013371081091463566, -0.056947048753499985, -0.00985071063041687, 0.12610580027103424, 0.12641027569770813, 0.12188110500574112, -0.009449752047657967, -0.03226064518094063, 0.030910754576325417, -0.0018268313724547625, -0.04353085532784462, 0.10463695228099823, -0.04824608191847801, 0.14937196671962738, 0.08774891495704651, -0.051897935569286346, -0.09375012665987015, -0.13565857708454132, -0.08604840189218521, 0.021860187873244286, -0.011581921949982643, 0.03716060519218445, 0.13223080337047577, 0.030532514676451683, 0.057474032044410706, 0.0384950153529644, 0.03764251619577408, -0.0008510746411047876, 0.04260887950658798, 0.04755191132426262, -0.16920943558216095, 0.052517108619213104, 0.05109596252441406, -0.023439224809408188, 0.10702329128980637, 0.07469870895147324, 0.11168725788593292, 5.75902231503278e-05], [0.012591497041285038, 0.02617230825126171, -0.042417410761117935, -0.06657348573207855, -0.036291249096393585, -0.05546724051237106, -0.14540952444076538, 0.10195152461528778, -0.1395171731710434, 0.15717604756355286, 0.021568235009908676, -0.0009607842657715082, -0.033127546310424805, -0.1139877513051033, -0.00014504214050248265, -0.10062357038259506, -0.12215794622898102, 0.08440044522285461, -0.017674075439572334, -0.017561480402946472, 0.1682496815919876, -0.04550052434206009, -0.07816499471664429, 0.1670369654893875, -0.06971843540668488, -0.04304017871618271, -0.007099613081663847, 0.004666677676141262, -0.03945241495966911, 1.0679461411200464e-05, 0.1000450849533081, -0.001834730850532651, 0.07484102249145508, -0.04825768619775772, 0.02747606486082077, -0.044021546840667725, 0.012390155345201492, -0.12419899553060532, -0.0026031238958239555, -2.2136153347673826e-05], [0.027141304686665535, -0.06680244207382202, -0.023805495351552963, 0.00519748916849494, -0.13490162789821625, -0.00916391983628273, -0.10400142520666122, -0.15407566726207733, -0.18838226795196533, 0.045116882771253586, -0.02796982228755951, 0.05204913020133972, -0.03841724246740341, -0.062152642756700516, 0.1643741875886917, -0.007684033364057541, 0.12315402179956436, 0.11588793992996216, 0.09967231005430222, -0.09764327108860016, -0.10456205904483795, -0.11618927866220474, -0.07568347454071045, -0.030248340219259262, -0.09171631932258606, -0.17374253273010254, 0.02830769494175911, 0.006526544224470854, -0.054204560816287994, -0.026672272011637688, 0.09745977073907852, -0.022167174145579338, -0.08784329891204834, 0.026188164949417114, -0.09087583422660828, 0.00470911618322134, -0.05046489089727402, 0.03492341935634613, 0.0095682917162776, -0.013637758791446686], [0.0916663110256195, -0.013732471503317356, -0.11913113296031952, 0.0038759103044867516, -0.06833653151988983, 0.009577305987477303, -0.17636601626873016, 0.022512273862957954, 0.08128390461206436, -0.0063733868300914764, -0.018831586465239525, 0.003374512307345867, -0.05318132042884827, -0.027752237394452095, 0.04636019095778465, -0.10155440121889114, 0.0011977886315435171, 0.07386688888072968, 0.09957441687583923, -0.13438847661018372, 0.055905476212501526, 0.11375118792057037, -0.08184531331062317, 0.1908312737941742, 0.09495347738265991, 0.08041394501924515, -0.024565456435084343, 5.988603334117215e-06, 3.932214895030484e-06, 3.1370134820463136e-05, -0.15865319967269897, 0.0019576051272451878, -0.11698153614997864, 0.08424517512321472, -0.05831493064761162, 0.010857360437512398, 0.048411689698696136, 0.09884902834892273, 0.07288851588964462, -0.021742181852459908], [-0.1090267226099968, 0.04339192062616348, 0.11352501064538956, 0.03251160308718681, -0.01922907866537571, -0.03776412829756737, 0.05782169848680496, -0.08611676841974258, 0.03236836940050125, -0.063247449696064, -0.1016143336892128, 0.0004007777024526149, -0.11032047122716904, 0.038523055613040924, 0.1649070680141449, 0.07475467771291733, 0.11730682849884033, -0.10367780923843384, -0.10449647903442383, 0.061370525509119034, -0.007280742283910513, -0.05037723854184151, 0.13527686893939972, 0.10763619095087051, 0.024342259392142296, -0.13700194656848907, -0.16217175126075745, 1.4251509128371254e-07, -0.0008017586660571396, -0.04844699800014496, 0.11452330648899078, 0.019546961411833763, 0.07629422843456268, -0.04337356612086296, 0.12434416264295578, 0.0906926691532135, -0.04195205867290497, 0.009559938684105873, 0.12613199651241302, 1.5485702533624135e-05], [-0.03562552481889725, -0.01763765886425972, -0.06326934695243835, -0.01622135378420353, 0.09576769173145294, -0.06730525940656662, 0.05675971508026123, -0.09895463287830353, 0.05595233663916588, 0.005337798036634922, 0.09928183257579803, 0.03870238736271858, -0.12736159563064575, -0.029780922457575798, 0.1553366780281067, 0.0046320692636072636, -0.1159670278429985, -0.0720764547586441, 0.10775206238031387, 0.13945110142230988, 0.06308663636445999, -0.053460367023944855, -0.06751909106969833, -0.042974796146154404, -0.04547058790922165, 0.041780855506658554, -0.005597908981144428, 0.0013019145699217916, 1.5288482245523483e-05, -5.591493845713558e-07, -0.07865356653928757, 0.022017600014805794, 0.14734487235546112, -0.025037745013833046, 0.12637870013713837, 0.02593579888343811, -0.13592810928821564, 0.0855909064412117, -0.04474189132452011, 0.04095795750617981], [-0.15069352090358734, -0.01949984021484852, 0.003119500819593668, -0.04918265342712402, -0.1119670569896698, 0.10722000896930695, 0.02029074728488922, 0.02294827066361904, 0.05503223091363907, -0.08940384536981583, 0.07719218730926514, -0.1269310712814331, 0.1168164536356926, 0.12057017534971237, 0.13348588347434998, 0.14745455980300903, 0.08627244830131531, 0.09335444867610931, 0.1336357742547989, -0.11892787367105484, -0.04688475653529167, 0.05990268290042877, -0.0973113551735878, -0.05643461272120476, 0.12657667696475983, 0.0818554013967514, 0.007414837833493948, -2.155309175577713e-06, 0.016538003459572792, -0.00011075356451328844, -0.09705321490764618, -0.003283108351752162, 0.015214499086141586, 0.05455609783530235, -0.011509696952998638, -0.05534588173031807, 0.02862044796347618, -0.012143509462475777, -0.13355490565299988, 0.010410823859274387], [0.05392243340611458, 0.07407443970441818, 0.08324313163757324, -0.06335590779781342, 0.08843877166509628, -0.018977699801325798, 0.10787826776504517, -0.10863807052373886, 0.12113341689109802, -0.1018618792295456, 0.10432234406471252, -0.15669675171375275, 0.032917123287916183, -0.10221824795007706, 0.028419898822903633, 0.007360106334090233, -0.1810339242219925, 0.07514003664255142, 0.07017262279987335, 0.07513666898012161, 0.016368679702281952, -0.004769247956573963, -0.1475825160741806, 0.027533365413546562, -0.04929148405790329, -0.07987875491380692, 0.059640608727931976, 0.029346823692321777, 0.03661978989839554, -0.03001314215362072, 0.022803043946623802, -0.00011473443009890616, 0.10962941497564316, 0.01261903252452612, -0.035880692303180695, -0.131262868642807, 0.002279327716678381, 0.03602038323879242, 0.061473023146390915, 0.003459818195551634], [0.02611401118338108, -0.11516980826854706, -0.009144474752247334, 0.0833776444196701, 0.1315879225730896, 0.062189336866140366, 0.11792100220918655, -0.10651220381259918, 0.14503899216651917, -0.006971949711441994, -0.1986376941204071, 0.050048187375068665, -0.20455019176006317, -0.15076623857021332, -0.12151086330413818, -0.14651130139827728, -0.03416906297206879, -0.14421860873699188, -0.005069912411272526, -0.08752523362636566, 0.17255756258964539, 0.1324438899755478, -0.024097030982375145, 0.03603672236204147, -0.1515187919139862, -0.024371162056922913, 0.10759345442056656, 8.099091064650565e-05, -0.032143644988536835, -0.007889624685049057, -0.07668017596006393, -0.008496008813381195, 0.00250784819945693, 0.14985615015029907, 0.09001420438289642, -0.1775289922952652, -0.20750971138477325, 0.1338457465171814, -0.02123660407960415, -0.007663161959499121], [-0.049428634345531464, -0.15490157902240753, 0.00598892429843545, 0.09133637696504593, 0.04057494178414345, 0.01004435122013092, -0.003218389116227627, -0.1138811931014061, -0.07311005145311356, -0.11969951540231705, -0.12380073964595795, 0.049684010446071625, -0.062137216329574585, -0.06298096477985382, -0.17459580302238464, -0.08397407084703445, 0.005178379826247692, -0.10322798788547516, 0.0011196465929970145, 0.03972383216023445, -0.08159854263067245, 0.12855164706707, 0.1425010710954666, -0.0439198762178421, -0.07815615087747574, -0.0007368222577497363, 0.13591310381889343, -0.02441021241247654, 0.008131582289934158, -0.012126133777201176, 0.10827714949846268, 0.044648367911577225, -0.11830342561006546, -0.008170769549906254, -0.004570873454213142, 0.032251205295324326, 0.08358656615018845, 0.07417800277471542, -0.04604819789528847, -0.022437848150730133], [0.009696736931800842, 0.17115600407123566, 0.09524193406105042, 0.017901750281453133, -0.06545796990394592, 0.0020074660424143076, -0.021954607218503952, 0.030167799443006516, -0.011542038060724735, -0.11874004453420639, -0.07607027143239975, 0.06166987121105194, 0.09390426427125931, -0.06358771026134491, 0.03335542231798172, -0.007899759337306023, -0.06536567211151123, -0.09791435301303864, 0.10523263365030289, -0.12744122743606567, -0.09461245685815811, 0.1382206678390503, -0.12023259699344635, -0.11200401186943054, 0.15402840077877045, 0.03796982020139694, 0.08528728038072586, 0.00044420166523195803, -0.0025777530390769243, 0.03167673572897911, -0.1881670206785202, -0.00847972184419632, -0.029747774824500084, -0.031931888312101364, 0.111522376537323, -0.08188493549823761, 0.15057110786437988, 0.0026815549936145544, 0.0026273876428604126, -0.00795290619134903], [0.04954264312982559, 0.015798861160874367, -0.006888045929372311, -0.09128459542989731, 0.09366297721862793, 0.036107130348682404, 0.09858421981334686, 0.11617361754179001, -0.10414762794971466, 0.11458279192447662, 0.015987366437911987, -0.050280869007110596, 0.09562022238969803, -0.00266840448603034, 0.027985630556941032, 0.09537678956985474, -0.0955231636762619, -0.10821416974067688, 0.1074238121509552, 0.044041071087121964, -0.13680890202522278, -0.11720996350049973, 0.18102174997329712, 0.01678752712905407, -0.04760885238647461, 0.13206952810287476, 0.13904975354671478, -5.028428495279513e-05, 2.1309151634341106e-06, 0.030686328187584877, 0.06232204660773277, 0.0009269624133594334, 0.11873813718557358, -0.025015486404299736, -0.05945650860667229, -0.11162320524454117, 0.13380473852157593, 0.010460425168275833, 0.006779305636882782, -9.902831834551762e-07], [0.10137078911066055, 0.042561691254377365, -0.08246158808469772, -0.005283103324472904, -0.11067800223827362, -0.0850071832537651, -0.1404528021812439, -0.059485774487257004, -0.10268168151378632, 0.06794209778308868, 0.11822418123483658, 0.13146010041236877, 0.11592988669872284, 0.07558152824640274, 0.015150588005781174, 0.14971597492694855, 0.022113529965281487, 0.14793545007705688, 0.05911228433251381, 0.07739041745662689, -0.07001868635416031, 0.06375566869974136, 0.011117266491055489, 0.18428170680999756, -0.07313008606433868, 0.12754550576210022, 0.058869894593954086, 7.098486094037071e-05, -0.0016850201645866036, 0.001215123338624835, 0.09015685319900513, 0.003633044194430113, 0.013792460784316063, -0.017145149409770966, 0.09570048004388809, 0.1288226693868637, 0.013208878226578236, 0.11786535382270813, 0.14813335239887238, -0.0035580042749643326], [0.1790928840637207, -0.003528669709339738, 0.06849608570337296, 0.10205274820327759, -0.06839646399021149, -0.014665456488728523, 0.08416582643985748, 0.1765085905790329, 0.117311492562294, -0.11338672041893005, -0.027743784710764885, 0.02239982597529888, -0.19543153047561646, -0.09103608876466751, -0.12349486351013184, 0.006215472240000963, -0.0825841948390007, -0.014603927731513977, 0.11193186044692993, -0.13761122524738312, 0.1088724210858345, 0.18277671933174133, -0.04935048893094063, -0.10362666845321655, -0.07985734194517136, 0.16807174682617188, 0.21175283193588257, 0.005719204433262348, 1.2079619409632869e-05, -0.046470385044813156, 0.0867898017168045, -0.049925729632377625, 0.0966820940375328, 0.14528639614582062, 0.14290423691272736, -0.11728593707084656, -0.1711748093366623, 0.02914903126657009, -0.05597025156021118, 0.04915832355618477], [0.09599891304969788, 0.14700491726398468, 0.0056534199975430965, -0.02123446762561798, -0.05729587376117706, -0.029287220910191536, 0.14894042909145355, 0.1379462033510208, 0.004482022952288389, 0.021917268633842468, 0.019842306151986122, -0.1757621467113495, -0.02383054606616497, -0.1945163458585739, -0.02621004357933998, -0.07531373202800751, -0.13707786798477173, -0.1563594490289688, 0.044356200844049454, 0.03810272365808487, 0.13850368559360504, -0.025111598894000053, -0.08124208450317383, 0.023576950654387474, 0.04714446887373924, 0.16949628293514252, 0.16841769218444824, 0.0012433005031198263, 0.04068361595273018, 0.0001900584902614355, 0.08127444237470627, -0.003780144499614835, -0.0035807734820991755, -0.029413005337119102, 0.11090462654829025, -0.012083425186574459, -0.16963838040828705, 0.04506770893931389, 0.0040352921932935715, 0.005995497107505798], [-0.0874682366847992, -0.01794905960559845, -0.08467760682106018, 0.04869920015335083, 0.08110329508781433, -0.03908967971801758, -0.07944679260253906, 0.1165628656744957, -0.04040494188666344, -0.16088534891605377, -0.055321864783763885, 0.014170489273965359, -0.11814907938241959, 0.01122394297271967, 0.01324466336518526, 0.04441886395215988, 0.09826654195785522, -0.09790709614753723, 0.004551359917968512, -0.11319898813962936, 0.016193106770515442, 0.06281939148902893, -0.1694645881652832, 0.017119567841291428, 0.014555525965988636, 0.13047778606414795, -0.1910686045885086, 0.04281369969248772, 4.623794666258618e-05, 1.0877372005779762e-05, -0.10941534489393234, 0.00023348095419351012, -0.034952010959386826, 0.08989011496305466, -0.04401656985282898, 0.06207810342311859, -0.051179803907871246, 0.12825334072113037, -0.15866945683956146, 0.043692611157894135], [-0.011096571572124958, 0.11481843143701553, -0.004858137108385563, 0.015378773212432861, -0.05623340979218483, 0.01880139671266079, -0.07944541424512863, -0.09857639670372009, -0.09845569729804993, -0.0732487365603447, -0.10582094639539719, -0.004043311811983585, 0.04193851724267006, -0.08408038318157196, 0.027040893211960793, 0.008197648450732231, 0.13965938985347748, 0.0913635641336441, -0.027565283700823784, -0.14173611998558044, -0.11934299767017365, 0.03811604902148247, -0.13797113299369812, 0.03276605159044266, -0.057345084846019745, 0.10768822580575943, 0.14596016705036163, 1.8236487449030392e-06, 0.0351526215672493, 0.006534991320222616, -0.05863991007208824, -0.021887999027967453, 0.024192648008465767, 0.07603492587804794, 0.10163365304470062, 0.00713097071275115, 0.0609951950609684, -0.11145752668380737, 0.01288160402327776, 0.025288758799433708], [0.0519091859459877, -0.09977834671735764, 0.1436680108308792, -0.06691175699234009, 0.014446013607084751, -0.02492080070078373, 0.11207851767539978, 0.04540329426527023, -0.07608326524496078, 0.12162533402442932, -0.16916047036647797, 0.0836855098605156, -0.008066308684647083, -0.030178463086485863, -0.1794106811285019, 0.04821384325623512, -0.11274585872888565, -0.16433674097061157, 0.10526101291179657, -0.14519958198070526, 0.07359697669744492, 0.0490686409175396, 0.07848772406578064, -0.14875757694244385, -0.1650809943675995, 0.0538184829056263, 0.031841304153203964, 1.0267494872095995e-06, 0.0002186020719818771, 0.021971330046653748, 0.08599991351366043, -0.003392854006960988, -0.019901497289538383, 0.09058576077222824, -0.07092795521020889, -0.15280607342720032, -0.03416803851723671, 0.028555022552609444, 0.11884429305791855, -0.05158967524766922], [-0.1499558836221695, -0.09935466200113297, -0.08486231416463852, -0.0715726986527443, -0.09573919326066971, 0.001626269076950848, -0.10741640627384186, 0.10077764093875885, 0.021286794915795326, 0.16305050253868103, -0.04264836385846138, -0.08704434335231781, -0.13120022416114807, 0.07998406141996384, 0.1393202245235443, -0.1741773784160614, 0.04513835161924362, 0.08962199836969376, 0.12420161813497543, 0.021421225741505623, 0.02854706160724163, 0.1033410057425499, 0.1490473449230194, 0.14630527794361115, 0.10082633048295975, 0.09180732816457748, 0.02610405720770359, 0.03432733565568924, -0.00011136090324725956, -0.006150443572551012, 0.045140109956264496, -0.039203934371471405, 0.12236040830612183, 0.0575181245803833, 0.1414453387260437, 0.03253642097115517, 0.19156768918037415, 0.0677453875541687, -0.034247223287820816, 0.033636871725320816], [-0.025095142424106598, 0.09867532551288605, -0.014145483262836933, -0.01397725846618414, -0.12609726190567017, 0.004710982087999582, -0.1756361722946167, -0.021927285939455032, 0.004171811975538731, -0.12102818489074707, -0.12388911843299866, -0.08666466176509857, -0.08741096407175064, -0.12518291175365448, -0.01725367270410061, -0.1822052150964737, -0.0785847157239914, 0.09320013225078583, 0.056096401065588, -0.08578454703092575, -0.07226080447435379, -0.12318994849920273, 0.038053106516599655, -0.17071664333343506, 0.10387858748435974, -0.030874837189912796, 0.05703340098261833, 0.003456658683717251, -2.5073427423194516e-06, 0.05398300290107727, -0.1871984750032425, -0.0004108538560103625, -0.05210384353995323, -0.10180951654911041, 0.009738466702401638, -0.011035981588065624, 0.17091721296310425, 0.07035654038190842, -0.019901642575860023, -0.008606729097664356], [-0.06016559153795242, -0.016328822821378708, 0.003931913524866104, -0.08582789450883865, -0.06132930517196655, 0.13898047804832458, 0.13527034223079681, -0.02738231234252453, 0.010970952920615673, 0.05424630641937256, -0.03419545292854309, -0.09613965451717377, 0.1270930916070938, -0.0051587712951004505, 0.18017816543579102, 0.01819145865738392, 0.07055738568305969, 0.06225891038775444, -0.058020126074552536, -0.008821822702884674, -0.11666058003902435, 0.12964996695518494, -0.012289219535887241, 0.16814662516117096, -0.04663363844156265, -0.06725732237100601, 0.09990126639604568, 0.020929615944623947, -0.00045415727072395384, 0.0021715699695050716, -0.16294212639331818, -0.04831428825855255, 0.03319612890481949, 0.11236243695020676, -0.11612478643655777, 0.16038885712623596, 0.15834777057170868, 0.04975525662302971, -0.09840239584445953, 0.0026133956853300333], [-0.129959374666214, 0.11494341492652893, -0.04597930610179901, 0.013594554737210274, 0.02880353294312954, 0.0208559762686491, 0.14132067561149597, 0.0339336059987545, -0.016792429611086845, 0.058768704533576965, -0.08733151853084564, 0.11322306096553802, -0.16688592731952667, 0.09561334550380707, 0.13480621576309204, 0.06730879098176956, -0.06730397790670395, -0.09194411337375641, 0.08531973510980606, 0.13173602521419525, 0.03365183621644974, -0.02807372622191906, -0.08134018629789352, -0.17421922087669373, 0.09279671311378479, -0.039195716381073, -0.15946176648139954, 7.001603080425411e-05, -0.00013876889715902507, -0.01267976313829422, -0.16535675525665283, 3.1659019441576675e-05, 0.08375304192304611, 0.06698393821716309, 0.09499016404151917, -0.1008433997631073, 0.1456597000360489, 0.046193696558475494, 0.11400382965803146, -0.010141037404537201], [-0.07368230819702148, 0.021757464855909348, -0.07670550048351288, -0.039155468344688416, 0.04882851615548134, -0.09364718198776245, 0.07760114967823029, 0.052685726433992386, -0.02105587162077427, 0.140200674533844, -0.13201048970222473, 0.023247700184583664, -0.1521873027086258, -0.005777355283498764, 0.1675460934638977, 0.09652184695005417, 0.13157837092876434, -0.04915972054004669, 0.09862491488456726, 0.03848572447896004, 0.00973376166075468, 0.0065677585080266, 0.036291349679231644, 0.10769960284233093, -0.00221077399328351, 0.05995628982782364, 0.060440219938755035, -7.329447726078797e-06, -6.349392788251862e-05, -0.05133288353681564, -0.051637325435876846, 0.012484273873269558, -0.10450530797243118, -0.11582572013139725, -0.0586964413523674, -0.025805627927184105, 0.09088479727506638, -0.03411697968840599, -0.1179334968328476, 0.004935677163302898], [-0.1330004185438156, 0.0373440720140934, 0.04580872505903244, -0.0057593840174376965, -0.1787104457616806, 0.05349145457148552, -0.03797726333141327, -0.05710960179567337, -0.12485339492559433, -0.1439744234085083, 0.19652962684631348, -0.01556605938822031, 0.07149766385555267, 0.09851747751235962, 0.09409474581480026, -2.0459439838305116e-05, 0.14528188109397888, 0.02226700820028782, -0.06013258174061775, -0.08689889311790466, 0.05823865905404091, -0.12032177299261093, -0.13003754615783691, 0.10495062917470932, 0.19563187658786774, 0.0511317253112793, 0.0027747764252126217, -0.046757426112890244, -0.043595749884843826, 0.00021217073663137853, -0.1559835523366928, -6.846374162705615e-05, -0.08561266213655472, -0.094871386885643, -0.14978358149528503, 0.07236167788505554, -0.07680441439151764, 0.052242711186409, -0.06491153687238693, -1.0201254553976469e-05], [-0.16146840155124664, -0.009404044598340988, 0.1247258260846138, 0.13837930560112, 0.11258139461278915, 0.037652794271707535, 0.11013342440128326, -0.17804424464702606, 0.10129386186599731, -0.013614569790661335, 0.14745447039604187, 0.0660984218120575, 0.01754564419388771, -0.07298841327428818, 0.019933948293328285, 0.1153297871351242, 0.024801352992653847, 0.1301320344209671, 0.07772522419691086, -0.17108669877052307, -0.11850062757730484, 0.0027182037010788918, 0.08525539189577103, 0.10820672661066055, 0.15471796691417694, -0.1772674322128296, -0.0063142916187644005, 0.003295313334092498, -0.029375556856393814, -0.001978539861738682, -0.17923320829868317, 0.003056434914469719, -0.031196415424346924, -0.1332108974456787, -0.12018027156591415, 0.05806764215230942, 0.11818164587020874, 0.09191125631332397, 0.1364327371120453, -0.020035285502672195], [0.02089008130133152, -0.018368199467658997, -0.14833559095859528, 0.03990248963236809, 0.0674235075712204, 0.04073967784643173, 0.08821392059326172, -0.03366933390498161, -0.050415899604558945, -0.14662212133407593, -0.010298441164195538, 0.0654880553483963, 0.01576194353401661, -0.09003429859876633, 0.09084603935480118, 0.054573286324739456, -0.043287117034196854, 0.08497889339923859, -0.04132390767335892, 0.13898856937885284, 0.09697961807250977, -0.07211804389953613, -0.006301348563283682, -0.11634750664234161, 0.03626842051744461, 0.024943320080637932, 0.032953739166259766, -0.03759657219052315, -0.00018413337238598615, -0.003967826720327139, -0.1594361662864685, -4.06954059144482e-05, 0.027040814980864525, -0.13182879984378815, -0.13003520667552948, 0.042884498834609985, 0.05366296321153641, 0.004370891023427248, -0.10219219326972961, 0.0012097270227968693], [-0.08409301191568375, -0.14767932891845703, -0.04322617128491402, -0.06971505284309387, -0.1597234606742859, 0.07159459590911865, -0.07598070800304413, -0.15289917588233948, -0.04598202928900719, 0.03825924172997475, 0.10912653058767319, -0.022769158706068993, -0.07388906925916672, -0.07751859724521637, 0.008457159623503685, 0.1659071147441864, -0.014781978912651539, 0.16936278343200684, -0.06548594683408737, 0.03954878821969032, -0.09580191224813461, 0.08034876734018326, -0.10314686596393585, 0.14608444273471832, 0.07850002497434616, 0.06429228186607361, -0.14469027519226074, 0.020599156618118286, -0.021763397380709648, 0.0004631495685316622, -0.027465173974633217, -0.00010344201291445643, 0.1083492711186409, 0.02037513442337513, 0.043869804590940475, 0.00915140938013792, 0.12467022985219955, 0.14988945424556732, -0.15567506849765778, -0.00020486705761868507], [0.03459007292985916, -0.04107893630862236, -0.06158527359366417, -0.00100638996809721, -0.03538132458925247, -0.010362489148974419, 0.045589517802000046, 0.02774711139500141, 0.15100844204425812, -0.010135795921087265, -0.13982611894607544, 0.024735726416110992, -0.1441400945186615, -0.08753810077905655, -0.16322311758995056, -0.007076464593410492, -0.16898132860660553, 0.07745014876127243, 0.03797939047217369, -0.16453030705451965, -0.09718643873929977, 0.07008568197488785, 0.10655393451452255, -0.12112914770841599, 0.0788227766752243, 0.0009328615851700306, -0.056825049221515656, 0.04814775660634041, -5.046566457167501e-06, -0.028227947652339935, 0.09796982258558273, -0.0026837163604795933, -0.0497310496866703, -0.11170023679733276, 0.07542118430137634, 0.03129607066512108, -0.014205047860741615, -0.04718446731567383, 0.13239973783493042, -0.00021153161651454866], [-0.0698910653591156, 0.03395639359951019, -0.022360626608133316, -0.05846508592367172, -0.08469625562429428, 0.04217143356800079, -0.03330317512154579, 0.014269542880356312, -0.05567432567477226, -0.10237058252096176, 0.09043071419000626, 0.1108829602599144, -0.12815150618553162, -0.15145006775856018, -0.03636743873357773, -0.1381213515996933, -0.1337817758321762, -0.11800739169120789, 0.05736496299505234, -0.08417519181966782, 0.07872851938009262, 0.061802323907613754, -0.1176377534866333, -0.026775365695357323, 0.048680078238248825, 0.07848303765058517, 0.10404554754495621, -0.00017081426631193608, -0.04769567772746086, 0.0063881236128509045, 0.12071338295936584, 2.949125928353169e-06, 0.02433774434030056, 0.16712000966072083, 0.07078012824058533, -0.07624836266040802, -0.119442418217659, 0.1187586784362793, -0.1456453502178192, -0.03598563000559807], [-0.028048284351825714, 0.014780678786337376, 0.031047789379954338, -0.028035063296556473, -0.02079072967171669, 0.09625318646430969, 0.08771350979804993, 0.06706710904836655, -0.08046923577785492, 0.03719621151685715, 0.004145230632275343, -0.14906880259513855, -0.05586821213364601, -0.1689518690109253, -0.014153304509818554, -0.004999411292374134, 0.019718162715435028, 0.009481770917773247, 0.06880157440900803, -0.0001918720081448555, 0.06363949924707413, -0.10422079265117645, 0.015097949653863907, -0.05025387182831764, 0.05762353166937828, -0.07581261545419693, 0.06077244132757187, 0.0006707655265927315, -0.03387453779578209, 0.00015756915672682226, -0.01680753380060196, -0.000941681326366961, 0.025049829855561256, -0.02230176143348217, 0.1503467559814453, 0.01731729879975319, -0.012252137064933777, -0.13213849067687988, 0.04391416907310486, -0.03664509952068329], [0.1275816112756729, -0.12484005838632584, -0.04277820885181427, -0.06959015876054764, 0.02125111222267151, -0.017171911895275116, 0.026734519749879837, -0.08670028299093246, -0.14142587780952454, 0.08428226411342621, 