{"model": "norn_policy", "species": "norn", "input_dim": 40, "output_dim": 19, "actions": ["talk", "call_meeting", "set_personal_goal", "set_medium_term_goal", "set_group_goal", "follow_agent", "gather", "till", "plan_build", "build", "farm", "help", "deposit_items", "idle", "explore", "plant", "set_priorities", "pick", "wander"], "weights": {"net.0.weight": [[0.04300405830144882, 0.03889882192015648, 0.1444815993309021, 0.06123301014304161, 0.13470594584941864, 0.10146122425794601, -0.02540764957666397, -0.12942259013652802, -0.19330905377864838, 0.171805739402771, -0.04986144229769707, -0.16408638656139374, -0.026731405407190323, -0.13595257699489594, 0.19912824034690857, -0.06479727476835251, 0.05039362981915474, 0.0067720478400588036, -0.10780585557222366, -0.022106051445007324, -0.23323583602905273, 0.05484076216816902, 0.11477454006671906, -0.19843868911266327, -0.14840218424797058, 0.08310037106275558, -0.11405337601900101, 1.0494628056439144e-33, 1.0460477190482872e-33, 1.0234611461102138e-33, 0.11920443922281265, -0.0947902575135231, 0.04215731844305992, 0.05429532378911972, 0.12783019244670868, 0.004478436429053545, 0.03757600113749504, 0.03524334356188774, -0.047699421644210815, 9.838136502023974e-34], [-0.040258780121803284, 0.049498818814754486, -0.02537665143609047, -0.05320112407207489, -0.4779469966888428, -0.04020874947309494, 0.11761841177940369, 0.2365453690290451, 0.037713807076215744, 0.04486265033483505, 0.20213600993156433, 0.2476680427789688, 0.0734444409608841, 0.16748663783073425, 0.13708533346652985, -0.0980994775891304, 0.009655265137553215, -0.09329858422279358, -0.047286294400691986, -0.1368039846420288, 0.20337752997875214, -0.16211949288845062, -0.007441540248692036, -0.011410650797188282, 0.2909950613975525, -0.11457259207963943, -0.2516246438026428, -1.1417654689708613e-33, -1.0217473120809134e-33, -1.0167784607257891e-33, -0.11772602051496506, 0.05277319625020027, -0.11264672875404358, -0.008038210682570934, -0.040431082248687744, 0.2264791876077652, 0.1749364286661148, 0.057601600885391235, 0.061631958931684494, 1.0464304893962737e-33], [0.04985281825065613, 0.10532692074775696, 0.2283254861831665, 0.06721511483192444, 0.11688387393951416, -0.196121484041214, -0.15978066623210907, 0.18925413489341736, -0.24033603072166443, 0.021662017330527306, 0.1312801092863083, -0.09584474563598633, 0.03902328386902809, -0.04025857895612717, -0.07724151015281677, 0.0866251140832901, 0.05680204927921295, -0.06528621166944504, -0.019477827474474907, 0.018407512456178665, -0.29356664419174194, 0.10643459111452103, -0.07692154496908188, 0.12566174566745758, 0.09398598968982697, 0.1902700513601303, 0.15903374552726746, 9.661052869847404e-34, -1.1647915665935467e-33, 1.060911294101458e-33, 0.048435527831315994, 0.027235647663474083, 0.11053363233804703, 0.058282267302274704, 0.03432703763246536, 0.04378902167081833, 0.03853462263941765, 0.015491347759962082, -0.036826182156801224, 1.0043428325200432e-33], [0.16126024723052979, -0.10188494622707367, 0.07196557521820068, 0.032749347388744354, -0.3598993420600891, -0.3080921769142151, -0.04364553838968277, -0.004159870091825724, 0.19586630165576935, -0.1447153240442276, 0.0047836909070611, 0.1503160446882248, -0.1718907505273819, 0.07175300270318985, 0.027278363704681396, 0.06710677593946457, 0.06405840069055557, -0.07610178738832474, 0.04761824011802673, -0.052730903029441833, 0.09049181640148163, 0.051451753824949265, -0.07553363591432571, 0.08732259273529053, 0.05330369621515274, 0.10908343642950058, 0.15865002572536469, -1.0362316065349518e-33, -9.479359095763703e-34, -1.002983667176905e-33, -0.12213703244924545, 0.050517383962869644, -0.015338522382080555, -0.03164346143603325, 0.19541454315185547, 0.10602451860904694, 0.025383327156305313, -0.0810016319155693, 0.025911882519721985, -9.64708193581689e-34], [0.10427596420049667, 0.24622246623039246, 0.005932829342782497, 0.18796181678771973, 0.3507641553878784, -0.023465251550078392, -0.08547470718622208, -0.0075231147930026054, -0.13701000809669495, -0.033233314752578735, 0.19089893996715546, -0.04665473848581314, 0.005991421174257994, 0.04685831442475319, 0.0457843653857708, 0.10781247168779373, 0.20484519004821777, -0.026301221922039986, -0.03140641376376152, -0.19775061309337616, 0.08203328400850296, -0.08450949937105179, -0.06432973593473434, 0.006806093268096447, -0.19639509916305542, 0.019377488642930984, -0.06646361202001572, -1.0648246800992385e-33, 9.910675523729248e-34, -1.1513495131854054e-33, 0.12135579437017441, 0.18917886912822723, 0.03982052952051163, 0.04904717952013016, 0.16519449651241302, -0.05892400071024895, -0.0008523998549208045, 0.013559908606112003, 0.024161094799637794, -1.0789559589060456e-33], [0.029201557859778404, -0.02760564163327217, -0.15388290584087372, -0.01573111303150654, 0.24743658304214478, -0.14305104315280914, -0.022966671735048294, -0.020214635878801346, 0.11412114650011063, 0.1211080327630043, -0.1754928082227707, -0.049071263521909714, 0.11293425410985947, -0.02874068357050419, -0.1817559003829956, 0.08084112405776978, 0.1386970728635788, 0.03381782025098801, -0.05155493691563606, -0.041696611791849136, 0.02659250795841217, -0.11719467490911484, -0.13924291729927063, -0.01655583828687668, -0.01233374048024416, -0.05495941638946533, 0.036756452172994614, 1.0646586415221849e-33, -9.725907097234178e-34, 1.0369463622015494e-33, 0.027503203600645065, 0.12868347764015198, -0.02593441680073738, 0.05439025163650513, 0.18030188977718353, -0.028289763256907463, 0.14782007038593292, 0.057996537536382675, 0.06697056442499161, 1.088474524411829e-33], [0.036819979548454285, 0.10311563313007355, 0.13457128405570984, -0.008561728522181511, -0.03011840395629406, 0.06372198462486267, 0.04929950460791588, 0.015530462376773357, 0.14295995235443115, -0.07434692978858948, 0.06145631894469261, 0.24841386079788208, 0.07281337678432465, 0.024405620992183685, 0.20079858601093292, 0.13490663468837738, -0.09253743290901184, -0.08788465708494186, 0.23485015332698822, -0.007139034569263458, -0.1830601841211319, -0.23155179619789124, -0.2729579508304596, 0.1440347284078598, -0.05728750675916672, -0.1306033581495285, -0.49796855449676514, -1.0975261064196491e-33, 1.0245893451805148e-33, 9.800611599938857e-34, -0.11045105755329132, 0.018334951251745224, -0.08730870485305786, -0.04308544471859932, 0.028049882501363754, -0.10891663283109665, 0.251583456993103, 0.13526979088783264, -0.17497123777866364, -9.537297191934819e-34], [0.14753925800323486, 0.057753585278987885, -0.010447273030877113, 0.061336517333984375, 0.10872301459312439, 0.09208410233259201, 0.08579893410205841, -0.023111632093787193, -0.13492684066295624, 0.0749814361333847, 0.08330719918012619, 0.013797501102089882, 0.04363033547997475, 0.027957942336797714, 0.06029842421412468, -0.04594076797366142, -0.021403877064585686, -0.01988813653588295, 0.07989504933357239, 0.10653331875801086, 0.0329732783138752, -0.023681918159127235, -0.04874860495328903, 0.13952237367630005, -0.05071254074573517, 0.07607905566692352, 0.06503324955701828, 1.0410768473122474e-33, 1.0591743175271258e-33, 9.871410338991937e-34, 0.02520112320780754, 0.016913045197725296, 0.052367787808179855, 0.02990506775677204, 0.10040594637393951, -0.04177074879407883, -0.04943942651152611, 0.025948522612452507, 0.01983598805963993, -1.0278590561857239e-33], [-0.16571544110774994, 0.0034221396781504154, -0.04965294152498245, 0.15523675084114075, 0.2693188190460205, 0.046258267015218735, 0.03287074714899063, -0.039145760238170624, 0.020378703251481056, -0.042466238141059875, 0.12216005474328995, 0.026773134246468544, 0.11614608019590378, 0.025611288845539093, -0.09557595103979111, 0.14603684842586517, 0.13953737914562225, 0.15601159632205963, -0.055520545691251755, -0.023162363097071648, 0.2594135105609894, -0.12505950033664703, -0.07655417919158936, -0.014746247790753841, -0.22965332865715027, -0.09856235235929489, 0.09632432460784912, -1.0600325202387222e-33, 9.94576770352114e-34, -9.949546734188041e-34, -0.01992170140147209, 0.18307709693908691, -0.09282103925943375, -0.06703270971775055, -0.07314802706241608, -0.18743090331554413, 0.08443004637956619, 0.059780288487672806, 0.06851238757371902, -9.850491131322109e-34], [0.21135348081588745, -0.13384369015693665, -0.10041496157646179, -0.13872727751731873, -0.20564082264900208, 0.19669362902641296, 0.1877424567937851, -0.009566409513354301, -0.15056659281253815, 0.038017719984054565, -0.09456827491521835, 0.28253141045570374, 0.11747822910547256, -0.08670090138912201, -0.01801367849111557, -0.16986098885536194, -0.049528464674949646, -0.11185575276613235, -0.029327135533094406, 0.22534798085689545, 0.22361241281032562, -0.07856925576925278, 0.056584883481264114, 0.23463699221611023, 0.0655866488814354, -0.01663357950747013, -0.03354525938630104, 1.1184115186268918e-33, 1.1122303468869859e-33, 9.557338452261377e-34, 0.11706732213497162, 0.01794184185564518, -0.06403996795415878, -0.05708125978708267, 0.004970211070030928, -0.017015142366290092, 0.10945424437522888, -0.05448199436068535, 0.03004533424973488, 1.019329558973562e-33], [0.07896700501441956, -0.0870533436536789, 0.26790526509284973, -0.11953318864107132, 0.2111911028623581, -0.1929820328950882, -0.20684167742729187, -0.06904001533985138, -0.06308148056268692, 0.020106887444853783, -0.019610509276390076, -0.09849262237548828, 0.06656300276517868, -0.1090695858001709, -0.07460006326436996, 0.11696799844503403, -0.08568515628576279, 0.009843474254012108, -0.07902396470308304, 0.08570721000432968, -0.3394762873649597, 0.17458947002887726, 0.08712558448314667, 0.0028408656362444162, 0.1383545845746994, 0.16977828741073608, 0.06917227804660797, -1.0587232215699977e-33, 9.642997092947782e-34, -1.016617381265528e-33, 0.15132804214954376, -0.058153603225946426, 0.06230070814490318, 0.0950973853468895, -0.024137364700436592, 0.0019845108035951853, 0.08488347381353378, 0.03323127701878548, 0.07838906347751617, -1.021302369102028e-33], [-0.0011336319148540497, 0.0643315315246582, -0.09896961599588394, -0.027897249907255173, -0.1978568285703659, -0.1014060527086258, 0.02275107428431511, -0.10424952954053879, -0.052983444184064865, 0.016632765531539917, -0.110762819647789, -0.03549345210194588, 0.07963598519563675, -0.05552731826901436, 0.030637256801128387, 0.05091216042637825, 0.13136139512062073, 0.017847172915935516, -0.09771809726953506, 0.010746702551841736, 0.0945020318031311, 0.1803950071334839, 0.07622316479682922, 0.000858741404954344, -0.015035634860396385, 0.018288226798176765, -0.06772655993700027, 1.0689608590106983e-33, -1.0089995350237265e-33, 1.0622401537308642e-33, 0.15454649925231934, -0.11243598908185959, 0.0404481515288353, 0.06612605601549149, -0.07558434456586838, 0.018075913190841675, -0.06610215455293655, 0.026546278968453407, -0.0030162169132381678, -9.527208144326902e-34], [-0.06368808448314667, -0.13186557590961456, -0.08379553258419037, 0.08008407056331635, -0.31206411123275757, 0.2552275061607361, 0.019657401368021965, -0.046277958899736404, -0.04242374375462532, -0.02776928059756756, 0.20942272245883942, 0.1441555619239807, -0.06107436865568161, 0.011439413763582706, 0.11289936304092407, 0.06816171109676361, -0.04533161222934723, -0.008103707805275917, 0.05092060565948486, -0.12248393148183823, -0.014380530454218388, -0.126778244972229, -0.08197195827960968, 0.12651373445987701, -0.14169852435588837, -0.011041175574064255, 0.005338116083294153, 1.112070002110694e-33, 1.0496254463076102e-33, 1.0959265157475692e-33, 0.10664548724889755, 0.1278485655784607, -0.08322317153215408, -0.012867829762399197, 0.20410647988319397, -0.06342513859272003, 0.19724789261817932, 0.01607232168316841, 0.02413468062877655, -9.88333976994286e-34], [0.22282512485980988, -0.1560988873243332, 0.5388746857643127, -0.10914639383554459, 0.6563062071800232, -0.40498724579811096, 0.06976283341646194, -0.14998897910118103, -0.0460740402340889, -0.06842020153999329, 0.08954408019781113, -0.1005837544798851, -0.02580859512090683, 0.00034147247788496315, 0.008447105064988136, 0.15550148487091064, -0.015207934193313122, 0.15824300050735474, 0.03408432379364967, -0.05871279537677765, -0.4257446527481079, 0.12076521664857864, 0.06891307234764099, -0.001513965893536806, -0.03767358884215355, 0.03449535369873047, 0.14755117893218994, 9.650664438522012e-34, 1.0907281674875461e-33, 1.0128749929615937e-33, 0.061399444937705994, 0.07788132131099701, 0.023067869246006012, -0.05010773614048958, -0.28163981437683105, 0.08686835318803787, -0.0793929472565651, 0.0077442144975066185, -0.1691511869430542, -9.90045790642671e-34], [0.03387151658535004, -0.02812165766954422, 0.07920565456151962, -0.02153012529015541, 0.25800156593322754, 0.11459057778120041, 0.07489045709371567, 0.21373675763607025, -0.07699979841709137, 0.04919133335351944, -0.03440709784626961, 0.008201193064451218, -0.06251312792301178, 0.05295390635728836, -0.07560235261917114, 0.1467858850955963, -0.025444643571972847, -0.07549712061882019, 0.0549788773059845, -0.05009985342621803, -0.10340685397386551, 0.060655828565359116, -0.009892702102661133, -0.07745758444070816, 0.002392716007307172, -0.011975417844951153, 0.09782447665929794, 1.0610518024105798e-33, 9.759538174282196e-34, -1.126344268785019e-33, -0.06482197344303131, -0.10317987203598022, 0.1174333468079567, 0.016799980774521828, -0.033470071852207184, -0.019949691370129585, 0.005515817552804947, 0.03579257056117058, 0.03502114117145538, -1.0340591460378383e-33], [0.16391266882419586, 0.08395326137542725, -0.1894892454147339, -0.029629018157720566, 0.06238678842782974, -0.2135610580444336, -0.0069316718727350235, 0.14485806226730347, -0.09513188153505325, 0.06611382961273193, -0.039610639214515686, 0.08113069832324982, -0.023754248395562172, -0.015988431870937347, 0.05474526435136795, 0.03313888609409332, -0.1769488900899887, 0.0033278947230428457, 0.2501899302005768, 0.08569259941577911, 0.11226311326026917, -0.014032605104148388, 0.05937322974205017, -0.007890155538916588, -0.052284397184848785, 0.1393430233001709, -0.16065220534801483, 1.0561679907248978e-33, 1.1372747132087355e-33, 1.0117317328699229e-33, -0.04625199735164642, 0.09393646568059921, -0.05475733056664467, 0.06827790290117264, -0.08331658691167831, 0.020365986973047256, -0.09899692237377167, 0.12790264189243317, -0.12151358276605606, 1.0585314690540198e-33], [-0.047705404460430145, -0.10057275742292404, 0.2545102536678314, -0.10938803851604462, 0.5076767802238464, 0.16157326102256775, 0.09658488631248474, -0.19575004279613495, 0.11692380905151367, -0.12684735655784607, -0.012193205766379833, -0.06948784738779068, 0.2021600753068924, 0.08547686040401459, -0.1280553638935089, 0.06959167867898941, 0.03322967514395714, 0.012502655386924744, -0.2237047404050827, 0.18176589906215668, 0.005944989155977964, 0.12154361605644226, 0.035503510385751724, 0.14473000168800354, 0.1941099315881729, 0.09086809307336807, -0.1129453033208847, -9.843997443388777e-34, 1.0824113612844861e-33, -1.0566888816591059e-33, 0.09698619693517685, 0.09522964060306549, 0.04034651443362236, 0.04238261282444, -0.07313847541809082, -0.027069389820098877, -0.03797026723623276, 0.019675040617585182, 0.027081908658146858, 1.0184651114482268e-33], [-0.0496283695101738, 0.04695212468504906, 0.08098922669887543, 0.1188909187912941, -0.21616628766059875, -0.13132168352603912, 0.08700576424598694, -0.025778677314519882, -0.11290936917066574, -0.017244167625904083, -0.05554945766925812, -0.009654019959270954, -0.09407443553209305, -0.08027146011590958, -0.0039198617450892925, -0.08138174563646317, 0.12652505934238434, -0.03386970981955528, -0.059364814311265945, -0.09385915100574493, 0.20278345048427582, 0.03216248005628586, 0.13610602915287018, 0.016650283709168434, -0.03971297666430473, 0.07869862020015717, -0.1368752121925354, -9.442733263185973e-34, 9.48558278733833e-34, 1.0233687596010789e-33, 0.06748639047145844, -0.053268712013959885, -0.07515598088502884, -0.021430689841508865, -0.03204138204455376, -0.00041036331094801426, -0.153183713555336, -0.06312781572341919, 0.04635327681899071, 1.059109297995846e-33], [0.10402226448059082, -0.20126302540302277, -0.12182343006134033, -0.04826328903436661, 0.09857431799173355, 0.07441333681344986, 0.22001364827156067, -0.08400269597768784, -0.11177245527505875, 0.13755764067173004, 0.06566669046878815, 0.08788534253835678, 0.1961522102355957, 0.05111614987254143, -0.2069118171930313, 0.11579656600952148, 0.005625028163194656, -0.1490977704524994, -0.005748829338699579, 0.05811287835240364, 0.13310590386390686, 0.07394000142812729, 0.17723995447158813, 0.09934817254543304, -0.028204353526234627, -0.07309568673372269, 0.03443991765379906, 9.989186607749676e-34, -1.0432403997662335e-33, 1.0438305346645448e-33, -0.0732329785823822, 0.026494871824979782, -0.05925754830241203, -0.07388339191675186, -0.10129296779632568, -0.10989949852228165, -0.042994312942028046, -0.004505747929215431, 0.13808253407478333, 1.0279053412757875e-33], [-0.3141801059246063, 0.20866115391254425, 0.08505940437316895, -0.027332691475749016, 0.049129508435726166, -0.0358867272734642, 0.016321366652846336, 0.10185554623603821, 0.1627652645111084, -0.07760980725288391, 0.1222839280962944, -0.10491478443145752, 0.05109449476003647, -0.06576499342918396, 0.1763809323310852, -0.09016337245702744, 0.11591949313879013, 0.10325121134519577, -0.23904168605804443, 0.04391703009605408, -0.019803641363978386, 0.10171221196651459, 0.0901646688580513, 0.13967612385749817, -0.13397347927093506, -0.10281506180763245, -0.12297920882701874, -9.740582409520225e-34, 1.0674254613504328e-33, -1.0492929099760221e-33, 0.07979897409677505, 0.012523481622338295, -0.04460741952061653, 0.027362413704395294, -0.004022124223411083, 0.046515848487615585, 0.0024244370870292187, 0.035456620156764984, -0.020206013694405556, 1.0244327656595654e-33], [0.04959399625658989, -0.08102366328239441, 0.06806658953428268, 0.024944117292761803, -0.12418115139007568, 0.03612636774778366, 0.08397594839334488, 0.03747672215104103, 0.09034762531518936, -0.03224499151110649, -0.01584082841873169, 0.028449805453419685, 0.024512704461812973, 0.06780394166707993, 0.036462895572185516, 0.053298648446798325, 0.030297234654426575, -0.06398794054985046, 0.09214580059051514, -0.03421494737267494, 0.14937572181224823, 0.013599785044789314, -0.013509518466889858, -0.026236630976200104, -0.06861266493797302, -0.015904506668448448, 0.09681104868650436, 1.0613116968647069e-33, 1.0613403495395082e-33, -9.674760236003946e-34, 0.006562455557286739, -0.011770378798246384, 0.07642656564712524, -0.017294900491833687, 0.09382506459951401, -0.015232628211379051, 0.039902832359075546, 0.016873791813850403, 0.020213209092617035, -1.0488138041925658e-33], [-0.14118270576000214, -0.3026083707809448, 0.08694087713956833, 0.02723444066941738, -0.21541602909564972, -0.20817378163337708, -0.057406067848205566, 0.18966184556484222, 0.2194046974182129, -0.1011539101600647, 0.05221638083457947, 0.09483250975608826, -0.05396803095936775, 0.1092606708407402, 0.12942136824131012, -0.08324649184942245, -0.09250126034021378, 0.04423878714442253, 0.06619740277528763, -0.3552655875682831, 0.125480517745018, 0.01580454409122467, 0.14387637376785278, -0.14133189618587494, 0.3217366933822632, -0.01789802312850952, 0.06925376504659653, 1.0630506938199546e-33, 9.691355828514657e-34, -1.0798518141710668e-33, -0.06630224734544754, -0.07013996690511703, -0.009671105071902275, 0.07970134168863297, 0.10339222103357315, 0.294209748506546, 0.12149661034345627, -0.12609365582466125, 0.0018592679407447577, 1.0115545821978341e-33], [0.024606121703982353, 0.13604024052619934, -0.1224275678396225, 0.0013004157226532698, 0.10011905431747437, -0.24873332679271698, 0.05568906292319298, 0.16102778911590576, -0.07315017282962799, 0.13266557455062866, 0.10733192414045334, 0.10639902204275131, -0.04617304727435112, 0.05465587228536606, 0.04464612528681755, 0.01727520301938057, -0.12209257483482361, -0.1771363914012909, 0.14780160784721375, -0.06043262779712677, -0.14822998642921448, 0.0886663943529129, -0.054611533880233765, 0.11586904525756836, 0.06875733286142349, -0.06239316239953041, -0.18379631638526917, 1.0343616521621828e-33, 1.151206249811399e-33, -1.055807169060493e-33, 0.13058967888355255, 0.28229984641075134, -0.0014684258494526148, -0.04798474535346031, -0.08362872153520584, 0.0036534990649670362, -0.03886425495147705, 0.07962347567081451, -0.047477103769779205, 1.0515722669906634e-33], [-0.004102646838873625, -0.014358757995069027, 0.04818342626094818, 0.04616294428706169, -0.004917331971228123, -0.11489380896091461, -0.11023534834384918, 0.09133967012166977, 0.11369964480400085, 0.07180815190076828, -0.029282836243510246, 0.06496347486972809, 0.07750500738620758, 0.04315683990716934, 0.07099926471710205, -0.08750724792480469, -0.07331474125385284, 0.0882992222905159, 0.015078755095601082, -0.2807193100452423, 0.2030438333749771, 0.05468570441007614, -0.094623863697052, 0.011475992389023304, 0.20529620349407196, -0.08549469709396362, 0.012986887246370316, 1.0702919226920122e-33, 9.968508009079782e-34, -1.0251098687727383e-33, -0.18809399008750916, -0.16062909364700317, 0.104305699467659, -0.014691573567688465, 0.08981329947710037, 0.12539033591747284, -0.014029715210199356, -0.033072542399168015, -0.08041349053382874, -1.070093558020311e-33], [-0.001219395431689918, 0.06315073370933533, -0.07824314385652542, -0.001671772450208664, -0.16377727687358856, -0.06530755758285522, 0.07898809760808945, -0.00038161585689522326, 0.004072885029017925, -0.15300297737121582, -0.0515291802585125, 0.13367193937301636, -0.11182603240013123, -0.07446881383657455, 0.09157196432352066, 0.036684032529592514, 0.06327305734157562, -0.018768593668937683, 0.09845107793807983, -0.005321868229657412, 0.0930415466427803, 0.06338191032409668, 0.021687529981136322, 0.016284219920635223, -0.2551082968711853, 0.12341874092817307, -0.09018318355083466, 1.1487332117353604e-33, 9.73930038599386e-34, 1.1272665726729338e-33, 0.08605433255434036, -0.14182457327842712, -0.11703155189752579, -0.00126654130872339, 0.05964385345578194, -0.059596847742795944, -0.04331009089946747, 0.03044959530234337, 0.06077949330210686, 1.1640340155857395e-33], [-0.11505250632762909, -0.01647551730275154, -0.14797568321228027, -0.09612055122852325, 0.12693335115909576, 0.04353637620806694, -0.03306664526462555, 0.12007160484790802, 0.08384514600038528, 0.06309255212545395, -0.02515539526939392, -0.019828522577881813, 0.15449443459510803, 0.10813771188259125, 0.14515776932239532, 0.006109658628702164, 0.1540236473083496, 0.13623708486557007, -0.15432682633399963, -0.08667197078466415, 0.07898880541324615, -0.006450306624174118, 0.09022070467472076, -0.03274517506361008, -0.17720748484134674, 0.10050667077302933, -0.15259715914726257, -9.842053285935112e-34, 1.0707369575063938e-33, 9.5840901322922e-34, -0.06625553220510483, 0.0505075566470623, 0.031581100076436996, -0.03165445849299431, -0.1768551915884018, -0.043242163956165314, 0.10749644041061401, 0.0810353010892868, -0.0690535381436348, 1.0326867563832533e-33], [0.22238390147686005, -0.053198494017124176, -0.058634769171476364, -0.08687223494052887, -0.2616000771522522, 0.15070189535617828, 0.23001530766487122, -0.10583025217056274, 0.002372145187109709, 0.02898341603577137, -0.0797792598605156, 0.035933222621679306, -0.1050848439335823, -0.047285985201597214, 0.022751018404960632, 0.07726819813251495, -0.0014659487642347813, 0.051516640931367874, -0.06826257705688477, -0.20258578658103943, -0.12862877547740936, 0.19045990705490112, 0.2044743001461029, -0.05620761588215828, -0.07622826099395752, 0.08783040940761566, 0.17049697041511536, 1.008903291423753e-33, -1.0697298894555253e-33, -1.1629471424887096e-33, -0.11536281555891037, 0.15146397054195404, -0.004134545102715492, -0.0468057319521904, -0.055917441844940186, -0.10243871808052063, -0.1490824967622757, 0.004709571599960327, 0.03532187268137932, -1.1676943947916047e-33], [-0.15820208191871643, 0.033384814858436584, 0.2138441801071167, 0.06828626245260239, 0.45364925265312195, 0.12740737199783325, 0.005394814070314169, -0.05789322406053543, -0.13397766649723053, -0.0797422006726265, 0.052283626049757004, -0.09274615347385406, 0.14962798357009888, -0.03640330955386162, -0.09513234347105026, 0.03658748045563698, 0.14414198696613312, 0.03534642979502678, 0.03835945948958397, 0.0983133539557457, -0.14781853556632996, 0.09627693891525269, -0.10885398834943771, 0.04720320180058479, -0.2047124207019806, 0.044573452323675156, 0.0485752709209919, -1.020878089109778e-33, -1.0517502441822176e-33, 9.932386353375959e-34, 0.024127831682562828, 0.01710670068860054, 0.028831487521529198, -0.07051627337932587, 0.0020256610587239265, -0.12734976410865784, 0.06081702932715416, 0.038080696016550064, 0.03349163755774498, -1.1544728384097387e-33], [-0.09830894321203232, -0.09426292777061462, 0.012980000115931034, 0.04561547935009003, -0.003382244613021612, -0.218189999461174, 0.13581939041614532, 0.012838687747716904, 0.16483528912067413, -0.14371861517429352, -0.015374931506812572, 0.04254590719938278, -0.05313510820269585, -0.022596662864089012, 0.002531432779505849, -0.09695813804864883, 0.08580239117145538, -0.08037877827882767, 0.01960950531065464, -0.10288289189338684, 0.04085182026028633, -0.0036838087253272533, 0.079768605530262, 0.007004924584180117, 0.04509667679667473, -0.13664957880973816, 0.11593308299779892, -1.1656343409417886e-33, -1.0559525446509111e-33, -9.779910960749884e-34, -0.057817474007606506, 0.17224378883838654, 0.07835936546325684, 0.0368453674018383, 0.057230714708566666, 0.034549955278635025, 0.09208482503890991, -0.01135767437517643, -0.006601617205888033, -1.0217426284706094e-33], [0.218714639544487, 0.16077062487602234, 0.05783495306968689, 0.21817421913146973, 0.2134597897529602, -0.045295991003513336, 0.1508082151412964, 0.12793195247650146, -0.12117677181959152, 0.05850699543952942, 0.13374222815036774, 0.03842109814286232, -0.06598949432373047, 0.07273663580417633, -0.09492398053407669, 0.011318312026560307, 0.15798331797122955, -0.01417396031320095, 0.15899506211280823, -0.1480698585510254, -0.06293831765651703, 0.020117120817303658, 0.038588255643844604, -0.20687247812747955, -0.26096034049987793, -0.09276411682367325, 0.08842653036117554, 9.746722530793348e-34, 1.0413147930827928e-33, -1.0990500246428948e-33, -0.13956432044506073, -0.1616622805595398, -0.014630487188696861, 0.042858388274908066, 0.07623299211263657, -0.10849819332361221, 0.13654516637325287, -0.006568211130797863, 0.09010989218950272, 1.0225338831055066e-33], [0.0056177726946771145, -0.04832432046532631, 0.01969374157488346, 0.05179879441857338, -0.10009431838989258, -0.07459256052970886, 0.0014805387472733855, 0.21129870414733887, -0.0819774717092514, 0.0704670324921608, -0.0216634850949049, -0.011388476938009262, 0.007040460593998432, 0.04842490702867508, -0.07288716733455658, 0.2150118201971054, 0.10032982379198074, 0.05617966875433922, 0.0036759660579264164, 0.05329722538590431, 0.030459336936473846, 0.020856274291872978, -0.019380681216716766, -0.25383156538009644, -0.12019025534391403, 0.012700493447482586, 0.08721581101417542, -1.0569722860002495e-33, 9.975495771982443e-34, -1.0774694177297362e-33, -0.0900418609380722, -0.026026640087366104, 0.0707373395562172, 0.039432600140571594, 0.029025601223111153, 0.012348896823823452, 0.003806424094364047, -0.004115786869078875, 0.12565869092941284, 1.0855683901359094e-33], [0.006531035993248224, 0.06328130513429642, -0.0415998138487339, 0.0017712140688672662, -0.04905617982149124, -0.218296617269516, 0.10289380699396133, -0.003086632117629051, -0.14360398054122925, -0.08034048229455948, -0.08629406988620758, 0.02670247294008732, -0.008451235480606556, -0.1550184041261673, -0.004375677090138197, 0.06426312774419785, -0.045247070491313934, -0.10920178145170212, 0.085849829018116, -0.07050836831331253, -0.15039804577827454, 0.07899750024080276, 0.14458458125591278, 0.06195233762264252, 0.20789119601249695, 0.007999010384082794, 0.032790057361125946, -1.0163545480755239e-33, -1.0024510212991886e-33, -1.1288582654923441e-33, 0.1187349185347557, -0.009574291296303272, 0.007216883357614279, 0.04907320812344551, -0.19577160477638245, 0.04821733012795448, -0.20494122803211212, 0.02068190462887287, 0.10157234221696854, -9.78593077752304e-34], [-0.024482106789946556, 0.008969282731413841, 0.06038513034582138, 0.0670146718621254, -0.028229227289557457, 0.02982231415808201, 0.02533983439207077, -0.018087701871991158, -0.074653260409832, -0.13469378650188446, -0.12456514686346054, -0.007904989644885063, -0.029827505350112915, -0.024103838950395584, -0.044371671974658966, -0.07104001939296722, -0.04879370704293251, -0.09208568930625916, -0.032450512051582336, 0.024348953738808632, -0.05711880326271057, 0.006525788921862841, -0.05747202783823013, 0.20908130705356598, 0.2542998790740967, 0.08692348003387451, -0.06927181780338287, -1.0501871122021124e-33, 9.470462072895917e-34, 1.0554777551357743e-33, 0.16589082777500153, -0.049585383385419846, 0.028328850865364075, 0.05176994577050209, 0.09097273647785187, -0.05259957164525986, -0.1669921576976776, -0.026763545349240303, 0.0437922328710556, -1.0184929376035627e-33], [0.06356680393218994, -0.15074947476387024, 0.17830926179885864, -0.18744820356369019, -0.26253679394721985, 0.21712975203990936, -0.059642087668180466, 0.08284913003444672, 0.1272873431444168, -0.05184055119752884, -0.12323206663131714, -0.12436464428901672, 0.10654667764902115, 0.0008673813426867127, 0.11325573921203613, 0.00056221685372293, 0.12080652266740799, -0.07349660247564316, -0.010843557305634022, -0.08245699852705002, 0.12537647783756256, -0.062089983373880386, -0.06505485624074936, 0.09765622019767761, -0.015240038745105267, -0.049936361610889435, -0.1156814843416214, 1.0769999546733765e-33, 1.030273686886206e-33, 1.0748853505388426e-33, -0.007622306235134602, -0.15482021868228912, -0.0014401291264221072, -0.12846368551254272, -0.1647464781999588, 0.00404746737331152, 0.13082976639270782, 0.13269059360027313, -0.1400904506444931, -1.0772167782798055e-33], [-0.18309463560581207, 0.2460167557001114, 0.025461887940764427, -0.09553389996290207, -0.07307276874780655, -0.0549975261092186, 0.0017812901642173529, 0.13835275173187256, 0.13070428371429443, 0.09443100541830063, 0.028318634256720543, -0.10348176211118698, 0.036606565117836, -0.11168476939201355, 0.18889659643173218, -0.049063824117183685, -0.11811012029647827, -0.053916268050670624, -0.19719569385051727, -0.06392107158899307, -0.17771016061306, -0.02241293154656887, -0.03172338381409645, 0.13932476937770844, 0.22867168486118317, 0.030477551743388176, -0.10845614969730377, 1.0535156897603588e-33, -1.1045427056681043e-33, -1.0319358175311694e-33, 0.0717615932226181, 0.20502440631389618, -0.07597364485263824, -0.11847619712352753, -0.11839839071035385, 0.11120615154504776, 0.14832687377929688, -0.013221975415945053, 0.08654489368200302, 1.0576620624118921e-33], [0.23669354617595673, -0.15128859877586365, 0.24234507977962494, 0.009273039177060127, 0.06650383025407791, 0.16679422557353973, -0.03557910397648811, -0.002109231660142541, -0.006735972594469786, 0.16854515671730042, 0.019640425220131874, 0.10107879340648651, -0.023477857932448387, -0.05072540044784546, -0.058631036430597305, 0.15047021210193634, 0.1119186282157898, -0.0327056460082531, 0.08892157673835754, -0.060965124517679214, -0.010277076624333858, 0.020653121173381805, 0.08929550647735596, -0.10553837567567825, -0.21520370244979858, 0.0406099297106266, 0.03159133717417717, 1.135743356310301e-33, 9.71526519993939e-34, -1.1733471450866175e-33, -0.13179564476013184, -0.09838525205850601, 0.08510453253984451, -0.008515838533639908, -0.12325523048639297, -0.12298402935266495, 0.03328825160861015, 0.11092930287122726, -0.10010058432817459, 1.0035018948817245e-33], [0.020933374762535095, 0.10175108909606934, -0.18418172001838684, -0.20694701373577118, -0.10944178700447083, 0.1693509817123413, 0.12601077556610107, -0.28618961572647095, -0.07822494953870773, -0.17529717087745667, 0.02052563987672329, -0.056366950273513794, 0.025418264791369438, -0.04468587040901184, 0.18226197361946106, -0.15150387585163116, 0.050792235881090164, 0.07186621427536011, -0.033214252442121506, -0.04489417001605034, 0.10932508856058121, -0.1404789537191391, 0.011384468525648117, 0.1157756969332695, 0.06233519688248634, 0.02818962372839451, 0.14998354017734528, -9.807343141807238e-34, 1.0563271416397396e-33, 1.0758168379763731e-33, -0.11061681807041168, 0.058908965438604355, 0.1180865615606308, 0.09704217314720154, -0.07127105444669724, -0.0424175038933754, 0.07334315776824951, 0.10081776231527328, -0.09419375658035278, 1.0140658238402744e-33], [-0.19423498213291168, 0.1058589294552803, 0.02358274906873703, 0.03420090302824974, -0.06863986700773239, 0.039686720818281174, -0.1065046489238739, -0.04404158517718315, 0.24400781095027924, -0.07454810291528702, 0.13611377775669098, 0.018605507910251617, 0.08855897188186646, 0.01575741544365883, -0.07789869606494904, 0.05990505591034889, 0.12193717062473297, 0.07599912583827972, -0.19373656809329987, -0.11882209032773972, -0.06969762593507767, -0.06019316613674164, 0.06535887718200684, 0.13986408710479736, 0.037740129977464676, 0.08739558607339859, -0.059258680790662766, -1.0954437365442667e-33, -9.874743967502473e-34, 1.0623018671842823e-33, 0.1476464867591858, 0.00592097919434309, -0.05617353692650795, -0.032438140362501144, -0.010581856593489647, 0.015828626230359077, -0.07010570913553238, 0.0408908873796463, 0.04487302526831627, 9.558669148600706e-34], [0.021694673225283623, -0.09451111406087875, 0.08996602147817612, -0.030400045216083527, -0.2430976927280426, -0.03906416893005371, -0.011862385086715221, -0.08493822813034058, 0.11811012029647827, 0.022392243146896362, -0.07511617988348007, 0.11895377188920975, -0.14603778719902039, -0.06595639139413834, 0.138356551527977, 0.0888412669301033, -0.07463876157999039, -0.05497431755065918, 0.07294458150863647, -0.08696096390485764, -0.24424828588962555, 0.1158454492688179, 0.1175716295838356, 0.02235027775168419, -0.2721858024597168, 0.17679163813591003, 0.03772494196891785, 9.54727879201223e-34, 1.095268422582101e-33, -1.1357383971935085e-33, 0.11138837039470673, -0.1943972408771515, 0.04564490541815758, -0.07772236317396164, 0.12416134029626846, -0.1167045310139656, 0.11258033663034439, 0.028395716100931168, 0.013422665186226368, -1.0267109288127567e-33], [0.0792265459895134, 0.19157728552818298, -0.07108372449874878, 0.040365561842918396, -0.2118242233991623, 0.13858100771903992, -0.11498165130615234, -0.04135545715689659, 0.09775421768426895, -0.08530659973621368, 0.15745973587036133, -0.0222711730748415, 0.09287403523921967, 0.19437067210674286, 0.016866005957126617, 0.020845690742135048, -0.117027647793293, 0.08662480115890503, 0.05512818694114685, 0.008005279116332531, -0.04845689609646797, -0.055698104202747345, -0.06088325008749962, -0.041236914694309235, 0.1480889916419983, -0.1498452126979828, -0.13156360387802124, -1.1649092078641251e-33, 9.917829508879956e-34, 1.0632345484832629e-33, 0.0427415631711483, 0.0462004691362381, -0.06440434604883194, 0.03916217014193535, 0.0982149988412857, 0.06455516070127487, 0.2505790889263153, 0.06331396102905273, 0.07148013263940811, -1.0622679798862e-33], [-0.11801595240831375, 0.0826108530163765, 0.2203582525253296, -0.034824442118406296, 0.2641748785972595, 0.34773966670036316, 0.012412694282829762, 0.01339193619787693, -0.08032240718603134, -0.01698308438062668, 0.07750147581100464, -0.22056642174720764, 0.20734910666942596, -0.03962542861700058, -0.0014555677771568298, 0.1932152956724167, 0.028756286948919296, 0.04478813707828522, -0.27860724925994873, 0.12758105993270874, -0.18355126678943634, -0.01874818466603756, -0.053580451756715775, 0.10318533331155777, 0.0041078305803239346, 0.021204188466072083, 0.016242794692516327, 1.060055662783754e-33, -1.0156994854814289e-33, 1.0414973620491548e-33, 0.04864015802741051, -0.10166016221046448, -0.02989722602069378, 0.020415253937244415, 0.08864162117242813, -0.04240839555859566, 0.00952515285462141, 0.029105424880981445, 0.006127067841589451, 1.0123091944697643e-33], [-0.022288810461759567, -0.06550101935863495, 0.24740612506866455, -0.05248790234327316, 0.2884495258331299, -0.03969225287437439, -0.02349144034087658, -0.031624648720026016, 0.009776579216122627, 0.08564046025276184, 0.12750214338302612, 0.047366946935653687, -0.165115624666214, -0.04283277690410614, 0.26590678095817566, -0.12043862044811249, -0.037300799041986465, -0.03570236265659332, 0.16128632426261902, 0.13122551143169403, -0.05560782924294472, -0.08878162503242493, 0.07574882358312607, -0.14932957291603088, 0.007968706078827381, -0.06644710898399353, -0.04356127977371216, 9.682978594555125e-34, 1.0306758345238818e-33, -1.0021282195301933e-33, 0.04370647296309471, 0.04966995492577553, -0.09609420597553253, 0.03519441559910774, -0.01946408674120903, 0.03454871103167534, -0.0660277009010315, 0.008937753736972809, -0.1135706752538681, -1.0417253895861151e-33], [-0.11923949420452118, -0.1131686344742775, 0.18649566173553467, -0.07376386970281601, 0.14572261273860931, 0.10846308618783951, 0.0627749040722847, -0.027568306773900986, 0.14213068783283234, 0.05853653326630592, -0.11068104952573776, 0.06091718748211861, -4.189948958810419e-05, 0.06486834585666656, 0.1673111468553543, 0.019488636404275894, 0.05201190337538719, 0.08523557335138321, 0.08060681074857712, -0.17299377918243408, 0.18279649317264557, -0.05089230090379715, 0.06171000748872757, -0.06193631514906883, -0.185215026140213, 0.03543095290660858, 0.1349349468946457, 1.110310434004307e-33, 9.603110181901481e-34, 1.1193584344277769e-33, 0.07907580584287643, 0.05121507868170738, 0.01864573359489441, -0.07963758707046509, -0.1368710845708847, -0.05178720876574516, 0.05574934184551239, 0.07641466706991196, -0.052063558250665665, 9.489496816184584e-34], [-0.0032105823047459126, -0.016436830163002014, 0.011467179283499718, 0.030239928513765335, -0.20516636967658997, 0.04976223036646843, 0.0760229080915451, -0.07794579863548279, -0.16258147358894348, -0.09576305747032166, 0.17423509061336517, -0.08632689714431763, -0.08232752233743668, 0.023833392187952995, 0.1641080230474472, -0.017364220693707466, -0.034220024943351746, -0.06510654091835022, -0.10798169672489166, -0.1653261035680771, 0.1902260035276413, 0.022416159510612488, 0.025098301470279694, 0.023596933111548424, -0.03588804602622986, 0.01159287802875042, -0.02670953795313835, 1.0664948922678639e-33, 1.0417788378448791e-33, 1.1301948393034275e-33, 0.14118348062038422, 0.07087495923042297, -0.05583133548498154, -0.005042124539613724, -0.09394600987434387, 0.03438667207956314, 0.1651460975408554, 0.0013349602231755853, 0.05013864487409592, 1.0178644154678574e-33], [0.11406677216291428, 0.05935215204954147, -0.0014031347818672657, 0.005100466776639223, -0.2283547818660736, -0.07688913494348526, 0.060901857912540436, -0.12547902762889862, 0.16513119637966156, 0.012911912053823471, 0.10823269933462143, 0.04032054916024208, -0.031574051827192307, -0.02199491672217846, -0.008245839737355709, -0.052779681980609894, 0.06677621603012085, -0.0030755288898944855, 0.08417949825525284, -0.02272135019302368, -0.17938469350337982, -0.13929425179958344, 0.07781752943992615, 0.10435303300619125, 0.012936234474182129, 0.13798260688781738, 0.13071204721927643, -1.0059027502577829e-33, 1.0022899418389275e-33, 1.1447575612711848e-33, -0.0041615660302340984, 0.015407629311084747, 0.025643253698945045, -0.03731392323970795, 0.18254829943180084, -0.03695480525493622, 0.08268999308347702, 0.02711557038128376, 0.020911289379000664, -9.956774187735675e-34], [-0.06155041605234146, -0.03306169435381889, -0.21555455029010773, 0.044884707778692245, -0.3124690651893616, 0.062123578041791916, 0.03767543286085129, 0.045786671340465546, -0.024462204426527023, 0.18210944533348083, 0.054281190037727356, 0.1305145025253296, 0.05442285165190697, 0.07395171374082565, 0.0304294154047966, -0.06587672233581543, -0.08043015003204346, -0.05150023102760315, 0.13691450655460358, 0.17174702882766724, 0.09015412628650665, 0.14588123559951782, -0.08705756813287735, 0.1487441062927246, -0.1793188452720642, 0.08399564772844315, 0.05267218500375748, -1.0761137421354519e-33, -1.0506224124539013e-33, -1.091321516628223e-33, -0.11146041750907898, 0.1430535912513733, -0.10105997323989868, -0.060883358120918274, 0.1481727957725525, -0.14904649555683136, -0.04312228411436081, 0.050893813371658325, -0.010294212959706783, 9.953953001293702e-34], [-0.14413407444953918, -0.07851657271385193, 0.1887264996767044, 0.050213467329740524, 0.23413220047950745, 0.09467346221208572, -0.14209973812103271, 0.024562928825616837, 0.004354373551905155, 0.1015215739607811, -0.007333560846745968, 0.030140966176986694, -0.12668466567993164, -0.08926651626825333, -0.23071414232254028, -0.0914921835064888, -0.012113140895962715, -0.029621301218867302, 0.11139416694641113, 0.11331537365913391, -0.16109946370124817, -0.16634686291217804, -0.1071564257144928, 0.12725646793842316, -0.028211837634444237, 0.09153610467910767, 0.17511484026908875, -1.074359500487842e-33, -1.0629258893806759e-33, 9.84625475988434e-34, -0.1179041713476181, 0.049211546778678894, -0.058172281831502914, -0.05039994791150093, 0.019950486719608307, 0.08277688920497894, -0.10191073268651962, 0.05971493199467659, 0.040505215525627136, -1.0534975063321196e-33], [0.16205984354019165, -0.09339785575866699, 0.12644214928150177, -0.015599032863974571, -0.14180006086826324, 0.14603467285633087, 0.11079069972038269, -0.03841283172369003, 0.15179555118083954, 0.003320048563182354, -0.07776664942502975, -0.04047498106956482, -0.004853063262999058, 0.09892509877681732, -0.09661377966403961, 0.12097816169261932, -0.07950601726770401, 0.011106819845736027, -0.12609992921352386, 0.03401319310069084, 0.018595917150378227, 0.06456427276134491, 0.09110420942306519, -0.031806282699108124, -0.16765204071998596, 0.10687173157930374, -0.03102661482989788, -1.0472698658311577e-33, -9.946201167063005e-34, -1.058121790905659e-33, -0.2321747988462448, -0.02342899516224861, 0.047452978789806366, 0.06898749619722366, 0.09798013418912888, -0.08393628895282745, -0.00730667682364583, 0.02514069899916649, 0.07773301005363464, -1.0442128458350505e-33], [-0.048751845955848694, 0.034372784197330475, 0.08355783671140671, -0.043381690979003906, 0.029788324609398842, 0.21318180859088898, -0.1404235064983368, 0.04290362820029259, 0.0625532865524292, -0.16307668387889862, 0.0674450471997261, 0.2765236794948578, 0.01669953763484955, 0.1088525801897049, 0.33048465847969055, -0.0662771686911583, 0.044878266751766205, 0.06459943950176239, 0.10552135109901428, -0.11531373113393784, -0.1344715654850006, -0.3808475732803345, -0.323309987783432, -0.016088087111711502, 0.1656133383512497, -0.084126316010952, -0.17733320593833923, -1.0648187107919882e-33, 1.1707185376800873e-33, -1.070337105756122e-33, 0.07763534784317017, 0.0374218113720417, -0.09053082764148712, -0.012395725585520267, -0.0003988471580669284, -0.03854184225201607, 0.1282496452331543, 0.039508793503046036, 0.0924435630440712, -1.0276175288308284e-33], [-0.05976738780736923, -0.06073221191763878, 0.10869036614894867, -0.02840755507349968, 0.21966399252414703, -0.19225867092609406, -0.16399723291397095, 0.1143287643790245, -0.029576651751995087, -0.0286144707351923, -0.0708824098110199, 0.11784135550260544, -0.07670148462057114, 0.014321018941700459, -0.047866929322481155, 0.0022303482983261347, -0.07029855251312256, 0.0506587028503418, -0.022719865664839745, 0.13274244964122772, -0.08687441796064377, 0.0529620423913002, 0.12984010577201843, 0.031005948781967163, 0.08981159329414368, 0.16169047355651855, 0.10584468394517899, 1.0803585624388666e-33, -1.0294288921570486e-33, 9.992320034878587e-34, 0.11531822383403778, -0.055782753974199295, 0.07775774598121643, 0.0459015779197216, 0.1307957023382187, 0.012443226762115955, -0.08569405227899551, 0.02390836365520954, 0.07915911823511124, -1.0410374498843956e-33], [0.3465501070022583, -0.17688621580600739, 0.23247602581977844, -0.09177900105714798, -0.025500325486063957, 0.09821231663227081, 0.11816582828760147, 0.06057734414935112, 0.04624529182910919, -0.008641534484922886, 0.13702522218227386, 0.2085007131099701, -0.11651387065649033, 0.032542794942855835, 0.1748747080564499, -0.025388965383172035, -0.051110681146383286, -0.14490650594234467, 0.11577440798282623, 0.017834465950727463, -0.176222026348114, -0.02950950898230076, -0.021390719339251518, 0.0012375310761854053, -0.09349111467599869, -0.08547600358724594, 0.16080202162265778, -1.0223468141998328e-33, -1.056954561749491e-33, -1.0177651412965106e-33, -0.1248888149857521, 0.09642133861780167, 0.07975009828805923, 0.035177163779735565, 0.1657642126083374, -0.04511914402246475, -0.039747484028339386, 0.060304537415504456, 0.00927787646651268, 1.0438461466988916e-33], [0.04571375250816345, 0.05091317370533943, -0.030537571758031845, -0.12824493646621704, -0.033069584518671036, 0.21653792262077332, 0.06869100034236908, -0.08117781579494476, -0.13045279681682587, 0.13066783547401428, -0.014585486613214016, -0.21015942096710205, 0.2103160321712494, -0.008815789595246315, 0.22530613839626312, -0.0718323290348053, 0.059196844696998596, 0.1523171216249466, -0.2368580549955368, 0.20360934734344482, -0.07875875383615494, 0.08700526505708694, 0.06503418833017349, -0.13747085630893707, -0.13087666034698486, -0.03687998279929161, -0.03836802765727043, -9.488217547723103e-34, 1.060241629663474e-33, -9.790170822380655e-34, -0.06466765701770782, 0.003542856778949499, 0.035745326429605484, -0.017896778881549835, -0.11165233701467514, 0.09689692407846451, 0.1544199138879776, -0.07149431854486465, -0.09917633980512619, -1.016678360034977e-33], [-0.10807350277900696, -0.014771100133657455, -0.013619638979434967, 0.033604297786951065, -0.02100198343396187, 0.2775184214115143, -0.13410912454128265, 0.07500070333480835, -0.04535883292555809, 0.11483253538608551, 0.15699975192546844, -0.045794203877449036, 0.12203269451856613, -0.08975464850664139, -0.20842252671718597, -0.0047915419563651085, 0.16859111189842224, 0.04535836726427078, -0.09041155129671097, 0.1643286645412445, -0.1550501435995102, 0.02956872619688511, 0.07188016176223755, -0.18509668111801147, -0.07331248372793198, 0.09692728519439697, 0.0999215766787529, 1.0553867461590818e-33, -1.0771642483760032e-33, -1.0536952281553477e-33, -0.12433598190546036, 0.16857995092868805, 0.1276075541973114, -0.042245056480169296, 0.03831133618950844, -0.0067426543682813644, 0.08225687593221664, -0.04414108768105507, 0.12542609870433807, -1.0814146706446835e-33], [0.12232103198766708, 0.10141205042600632, -0.16155970096588135, -0.040659304708242416, 0.5505240559577942, -0.09032811969518661, 0.12081606686115265, 0.07337143272161484, -0.13780780136585236, 0.18295997381210327, -0.19195833802223206, -0.01918768882751465, -0.046415336430072784, -0.05769127234816551, 0.26360413432121277, -0.07467643916606903, -0.0770082175731659, -0.13031889498233795, 0.015057526528835297, 0.1488579958677292, -0.23108823597431183, -0.0030558675061911345, -0.11529801785945892, -0.15962961316108704, -0.07110368460416794, -0.019711364060640335, -0.18861092627048492, -1.1232664939667802e-33, -1.0259055315114511e-33, 1.0581155460919203e-33, -0.025113586336374283, 0.16262856125831604, 0.11777303367853165, 0.03527698293328285, 0.10278251767158508, 0.048265621066093445, 0.00777437724173069, 0.04801366850733757, 0.025688383728265762, -1.0901111247888606e-33], [-0.10131923854351044, 0.11452816426753998, -0.01949145831167698, -0.12423574924468994, 0.016765164211392403, 0.0028019461315125227, 0.06263761222362518, -0.029312608763575554, 0.050235215574502945, 0.026517972350120544, -0.19575800001621246, 0.1386786699295044, -0.08788891136646271, 0.05916428938508034, 0.0917704626917839, 0.09134836494922638, -0.058501239866018295, -0.07153794169425964, 0.08435223996639252, -0.043169211596250534, -0.20474883913993835, -0.13693994283676147, -0.05021935701370239, 0.007719418965280056, 0.32256951928138733, 0.1898919939994812, 0.032259922474622726, 1.1646228647871045e-33, 1.055097372510688e-33, 1.0702396682946983e-33, 0.1891186386346817, -0.18029144406318665, -0.0003820879210252315, 0.09243986755609512, 0.004637619014829397, 0.09817466884851456, 0.09992749989032745, 0.02417929656803608, 0.04288431257009506, 1.0722119274101873e-33], [0.15943428874015808, -0.02912340685725212, -0.13599996268749237, 0.03844878450036049, -0.09261590242385864, -0.12727683782577515, -0.06865429878234863, -0.11021222919225693, 0.14387495815753937, 0.055179815739393234, 0.14062455296516418, -0.045469146221876144, -0.10791309177875519, 0.14011895656585693, 0.024159345775842667, 0.1540941745042801, 0.024249881505966187, 0.035408951342105865, 0.17851522564888, -0.08706429600715637, 0.20350079238414764, -0.08117097616195679, -0.1606607437133789, -0.11300873011350632, -0.12827855348587036, 0.08661522716283798, -0.17477045953273773, -9.646915713568843e-34, -1.1416232157873126e-33, 1.1726369811948278e-33, -0.1501498520374298, 0.027034398168325424, -0.005644909106194973, -0.006100738886743784, -0.03133085370063782, -0.08033525198698044, 0.16452305018901825, 0.1267542690038681, -0.12323515862226486, -1.1184933440539686e-33], [0.18627119064331055, -0.1460689902305603, 0.06584849953651428, -0.17079605162143707, -0.257449746131897, 0.16368499398231506, -0.010557851754128933, 0.05960025638341904, 0.13835981488227844, -0.05576153099536896, -0.14097854495048523, 0.16317695379257202, 0.04459147900342941, 0.013130474835634232, 0.10743121802806854, 0.07107771188020706, -0.01962633803486824, -0.12525814771652222, -0.102428138256073, -0.1444329470396042, -0.10713235288858414, 0.018905723467469215, 0.06415145099163055, 0.161170095205307, 0.2200382798910141, -0.09659922122955322, 0.07668658345937729, 1.0072409771077971e-33, -1.0304484498353946e-33, 9.770175479802176e-34, -0.08263393491506577, 0.06686478853225708, 0.08188974857330322, 0.1306447684764862, 0.06391743570566177, 0.10977473109960556, -0.02540472149848938, 0.04236822575330734, -0.015041341073811054, 1.0887446126060297e-33], [-0.03755493834614754, -0.1583946794271469, -0.4462718367576599, 0.025901351124048233, 0.044010236859321594, -0.16573551297187805, 0.13630057871341705, -0.02904730848968029, 0.023506632074713707, -0.18090103566646576, -0.07381309568881989, 0.085306316614151, -0.07974720001220703, -0.12079982459545135, 0.20331309735774994, -0.017378713935613632, -0.07251062244176865, 0.016994915902614594, 0.38114795088768005, 0.18171364068984985, 0.33237317204475403, 0.05238662287592888, 0.061781615018844604, -0.006756864953786135, -0.07772345840930939, -0.10718972235918045, 0.09013687819242477, -1.0903588051219987e-33, -1.0126308942128058e-33, -1.1081604732037522e-33, 0.136153906583786, 0.01625788025557995, -0.07279589027166367, 0.05420805886387825, -0.24733194708824158, 0.0002072993083857, -0.09426690638065338, 0.028932999819517136, -0.01513903122395277, -1.0647700379790245e-33], [0.13832733035087585, 0.1358467936515808, -0.10892683267593384, 0.2010805308818817, 0.10236891359090805, -0.07922018319368362, 0.15156133472919464, -0.05877058207988739, 0.012859965674579144, -0.029873615130782127, 0.11145450174808502, -0.11352809518575668, -0.12064749002456665, -0.03459346666932106, 0.15318411588668823, 0.05911482125520706, 0.09261714667081833, -0.02074321173131466, 0.06640151143074036, -0.28323301672935486, 0.03439196199178696, -0.03341814503073692, 0.08609326928853989, -0.09858814626932144, -0.2484225481748581, -0.11744586378335953, 0.0012789579341188073, -1.0807615365960078e-33, 1.036654876336744e-33, 1.0202938316832209e-33, -0.023717129603028297, 0.056521713733673096, -0.08296166360378265, 0.054966192692518234, 0.052636247128248215, -0.13081705570220947, -0.04680883139371872, -0.0727262943983078, 0.10293087363243103, -1.039292116279913e-33], [-0.1048368588089943, 0.17910955846309662, -0.02325625531375408, 0.02725903131067753, 0.09631132334470749, 0.11163334548473358, -0.09199496358633041, -0.09736529737710953, 0.06991177052259445, -0.06349845230579376, -0.16569335758686066, 0.055611006915569305, -0.025779014453291893, 0.029219048097729683, -0.11029214411973953, 0.1446598470211029, -0.0623597577214241, -0.028029989451169968, 0.07577385753393173, -0.011905428022146225, 0.0806480124592781, -0.14894968271255493, -0.07818375527858734, 0.12357567995786667, 0.278482049703598, -0.06514094024896622, 0.09774849563837051, 1.0771904214924082e-33, -1.069236824676653e-33, 1.0084806644704338e-33, -0.11956516653299332, -0.03761499375104904, 0.05983891710639, -0.07704678922891617, 0.16841363906860352, 0.022493330761790276, -0.08844432234764099, 0.02178238332271576, 0.051673565059900284, -1.0500346652784902e-33], [0.23472529649734497, -0.2475479692220688, -0.09869757294654846, -0.014866679906845093, -0.2134084552526474, 0.21021422743797302, 0.1492384374141693, 0.06559146195650101, -0.059930335730314255, 0.004218222573399544, 0.013288448564708233, 0.038033101707696915, -0.001747769070789218, 0.034281130880117416, 0.024505583569407463, 0.06393007189035416, 0.07226044684648514, -0.1090976893901825, 0.1476077139377594, -0.09067147970199585, -0.1388542354106903, 0.09986796975135803, -0.08022595942020416, 0.10708349198102951, -0.08067059516906738, 0.1843291074037552, 0.057004909962415695, -1.0787836755152532e-33, -1.0063276730985059e-33, 1.0204932065453799e-33, 0.03413928672671318, -0.08854638785123825, 0.10470456629991531, -0.012484333477914333, 0.058294106274843216, -0.07883524149656296, -0.034485913813114166, 0.027925962582230568, 0.03396089747548103, -1.0095037118976339e-33], [-0.36673420667648315, 0.22525641322135925, 0.02614891529083252, -0.0014298346359282732, -0.18883630633354187, 0.016663558781147003, -0.006418746896088123, 0.10822099447250366, -0.0020729617681354284, -0.15236559510231018, 0.2317204773426056, -0.03554004803299904, 0.06157075613737106, -0.03331243246793747, 0.2028205394744873, -0.11941848695278168, -0.019967572763562202, 0.08700762689113617, -0.1876365840435028, -0.016536865383386612, 0.012935719452798367, -0.11461426317691803, -0.15559981763362885, 0.14800801873207092, -0.01598273776471615, -0.15989887714385986, -0.026345843449234962, -1.0526755786415055e-33, 1.0010244487018704e-33, 9.912144891667776e-34, 0.2298687994480133, 0.0032848254777491093, -0.14500200748443604, -0.09192509949207306, 0.03990782052278519, 0.06358899921178818, 0.17708194255828857, 0.05249727517366409, 0.057322002947330475, -1.0147523860095515e-33], [0.0706234946846962, 0.12061324715614319, 0.0981091856956482, -0.048490919172763824, 0.5371285676956177, 0.0015600622864440084, -0.2223803848028183, 0.08496250957250595, -0.14639738202095032, 0.11678017675876617, 0.007678196299821138, 0.03089822269976139, 0.024288387969136238, 0.033431828022003174, -0.12217560410499573, 0.12126890569925308, 0.10983217507600784, -0.054685115814208984, 0.005992891266942024, -0.127654567360878, 0.0838845744729042, -0.11561822146177292, -0.046552762389183044, -0.03078097477555275, 0.02288639172911644, -0.00069575069937855, 0.056687336415052414, 1.0158649730455056e-33, 1.0536531674981074e-33, -1.0568855932918763e-33, -0.04307806119322777, 0.021497022360563278, 0.016491424292325974, 0.0033397474326193333, 0.023417910560965538, -0.06912869960069656, 0.057046275585889816, 0.07756964862346649, -0.054354000836610794, -1.0445680655341896e-33], [0.14687229692935944, -0.015498806722462177, 0.10607653856277466, 0.06680291891098022, 0.24753525853157043, -0.2563222050666809, -0.08088085800409317, 0.08310314267873764, -0.10308944433927536, 0.08440309762954712, 0.05816362053155899, 0.10702792555093765, -0.06803347915410995, -0.060460302978754044, -0.13049063086509705, 0.06208853796124458, 0.06839767843484879, 0.08024877309799194, 0.09549202024936676, 0.2128821164369583, -0.016406254842877388, -0.03179847449064255, -0.0030248775146901608, 0.02425643429160118, 0.05427137762308121, -0.07200394570827484, 0.230844184756279, -9.76924794129098e-34, -1.0057939251948357e-33, -1.1196291654704506e-33, -0.18441128730773926, -0.03281974047422409, 0.07098837196826935, -0.03919033333659172, 0.15125827491283417, -0.021833382546901703, -0.06120212748646736, 0.019416216760873795, 0.012874450534582138, -1.0551312598087702e-33], [0.05637050047516823, 0.0737319365143776, -0.0233303252607584, -0.05424058809876442, -0.34379881620407104, -0.2808971405029297, -0.11581237614154816, 0.10229575634002686, 0.07739284634590149, 0.09345953911542892, -0.06753695011138916, -0.07261060178279877, 0.0581461600959301, 0.07046566903591156, -0.1648811250925064, -0.045923538506031036, -0.04671969264745712, 0.08392617851495743, -0.020293323323130608, -0.15382306277751923, 0.07972697168588638, -0.11139312386512756, 0.020453087985515594, 0.15820527076721191, 0.24802014231681824, 0.14361926913261414, 0.026975907385349274, 1.0331990147808226e-33, 1.0099780422352899e-33, -1.013406995990837e-33, -0.02630048617720604, -0.016904644668102264, -0.028947636485099792, 0.0030483128502964973, 0.18371155858039856, 0.08998794853687286, -0.11145047843456268, 0.05888528749346733, 0.07314994186162949, -9.594005610812378e-34], [-0.006276904139667749, 0.17552731931209564, -0.25506576895713806, -0.020429037511348724, -0.27690035104751587, -0.04295480251312256, -0.068649061024189, -0.002739518415182829, 0.1523023545742035, -0.09214726090431213, -0.03270796686410904, 0.243106871843338, -0.15527567267417908, 0.10491711646318436, 0.2331048995256424, -0.054081711918115616, -0.10307054221630096, -0.1430613398551941, 0.19915273785591125, -0.07136175781488419, 0.23378951847553253, -0.062182262539863586, -0.1228879764676094, 0.13709932565689087, 0.12693306803703308, -0.07797174900770187, -0.3423222005367279, 1.0836425997814763e-33, 1.058163025043434e-33, 1.056485466035116e-33, -0.036131929606199265, 0.07355307787656784, -0.00623763632029295, -0.007165165618062019, 0.09943054616451263, 0.15921351313591003, 0.06020517274737358, 0.10795775800943375, -0.024235323071479797, -1.0491226469661452e-33], [-0.05695200338959694, 0.22150614857673645, -0.10551570355892181, 0.025035416707396507, -0.009293587878346443, 0.17521896958351135, -0.03955911099910736, 0.17805176973342896, -0.05527912825345993, 0.047959279268980026, 0.01644805260002613, 0.13655774295330048, -0.0783063992857933, 0.1555144041776657, -0.04938838630914688, -0.003396010957658291, -0.05891774222254753, -0.03543728217482567, -0.2389332503080368, -0.046707503497600555, -0.005049880128353834, -0.020615413784980774, -0.014927159994840622, -0.006736416835337877, 0.13497310876846313, -0.05718964710831642, -0.2421562373638153, -9.93415969680677e-34, -1.1041932716052231e-33, 1.0003171317104615e-33, -0.07339902967214584, 0.1113060712814331, -0.05688750743865967, -0.04068095237016678, -0.08338197320699692, 0.05546579137444496, 0.1635926514863968, 0.026916490867733955, 0.08732012659311295, 9.687432616118787e-34], [0.0822942778468132, -0.15362100303173065, -0.03302530199289322, 0.0429622121155262, -0.04812837764620781, 0.15399587154388428, -0.14910906553268433, 0.055298302322626114, -0.01959737204015255, -0.012962491251528263, -0.22205394506454468, 0.1700001060962677, -0.07446017116308212, 0.05646877363324165, 0.09808117896318436, -0.0698443204164505, 0.09516464173793793, 0.05238073319196701, 0.14316760003566742, -0.08660748600959778, 0.030041584745049477, -0.09741836041212082, -0.12510249018669128, 0.14503662288188934, 0.2931503653526306, 0.08776486665010452, 0.029367679730057716, -1.002326308695406e-33, -1.1068091138777874e-33, -1.0258004717038464e-33, 0.08975502848625183, -0.03846555948257446, 0.10576888173818588, -0.00782973412424326, 0.06566505879163742, 0.20665226876735687, -0.17078639566898346, 0.024169711396098137, 0.032395120710134506, 1.0915458707453369e-33], [-0.06714146584272385, -0.11658415198326111, 0.06986281275749207, 0.002391323447227478, 0.05814776197075844, -0.0038387600798159838, 0.12578938901424408, 0.1061563491821289, 0.04230707511305809, -0.0965571403503418, -0.02590058371424675, 0.012106875889003277, 0.11380208283662796, 0.08924846351146698, -0.17561529576778412, 0.10093437135219574, 0.12700104713439941, 0.11644601076841354, -0.10155822336673737, -0.35852667689323425, 0.16067489981651306, 0.004183171316981316, -0.023983215913176537, -0.012215864844620228, -0.16272102296352386, 0.10991083085536957, 0.13094398379325867, 1.0480118048046181e-33, 1.0377603002039977e-33, 1.0420298242558789e-33, -0.15877093374729156, 0.2340289205312729, 0.10179810225963593, 0.07173702865839005, 0.024171246215701103, -0.023355502635240555, 0.06134235858917236, -0.0854562297463417, -0.022985059767961502, -1.0254775780993549e-33], [-0.07094940543174744, 0.13748890161514282, -0.09463103115558624, -0.010603642091155052, -0.2909410297870636, -0.1299489140510559, -0.07728476822376251, -0.050523873418569565, -0.10921274125576019, 0.06610429286956787, 0.021559135988354683, 0.043257590383291245, -0.06618845462799072, 0.03176047280430794, 0.20564350485801697, -0.11978461593389511, 0.06985646486282349, -0.04998524487018585, -0.04433412104845047, 0.12696422636508942, -0.11753851175308228, -0.06433067470788956, 0.1314663141965866, 0.06437020003795624, -0.13568471372127533, 0.1283479779958725, -0.08857414126396179, -1.051430748491084e-33, -1.0209019663387791e-33, -1.0511949149369502e-33, 0.10700434446334839, 0.005318263079971075, 0.029084518551826477, -0.04213687777519226, -0.09935262799263, 0.017731262370944023, -0.1652309000492096, 0.06127425655722618, 0.0655742883682251, -9.808706898925184e-34], [0.2548384666442871, -0.0031713549979031086, 0.3961595594882965, 0.04803415760397911, 0.5350844264030457, 0.114132821559906, -0.09495659917593002, 0.048970676958560944, -0.11811632663011551, 0.09304828196763992, -0.0677044466137886, 0.05486167222261429, -0.020232900977134705, -0.003510007867589593, -0.15680959820747375, 0.024647902697324753, -0.04373510554432869, 0.014202959835529327, 0.11137181520462036, -0.04539470747113228, -0.3476178050041199, 0.12612539529800415, -0.03499018773436546, -0.07897741347551346, -0.08070115745067596, 0.19779907166957855, 0.10879113525152206, -1.0304232869094473e-33, 1.011507378752809e-33, 1.0589159842764334e-33, 0.022370900958776474, -0.003187779104337096, 0.0017059196252375841, 0.07853905111551285, 0.02193901129066944, -0.10537464916706085, 0.12713134288787842, 0.048620156943798065, 0.026231247931718826, -1.1614527034597307e-33], [0.0793541967868805, -0.20840167999267578, 0.11862633377313614, -0.013387753628194332, 0.34721753001213074, 0.12535987794399261, 0.16366665065288544, -0.17348700761795044, 0.011582470498979092, 0.013811929151415825, -0.015007663518190384, 0.16485168039798737, 0.024296754971146584, 0.014554399065673351, -0.09694387763738632, -0.01879286766052246, -0.03542892634868622, 0.006481383927166462, 0.28882721066474915, -0.0895807147026062, 0.04754168167710304, -0.11203746497631073, 0.1279955804347992, 0.00694560119882226, 0.11848533153533936, -0.1459970921278, -0.01226457953453064, 9.842396750690743e-34, 1.1238224660605206e-33, -1.054149354683849e-33, 0.11387583613395691, -0.051370199769735336, -0.03301789611577988, -0.08170822262763977, -0.25934845209121704, 0.07081474363803864, -0.07208344340324402, 0.10711126774549484, -0.07005643099546432, 1.049337633862651e-33], [0.11398793756961823, 0.0837443545460701, 0.10328283160924911, -0.101646788418293, 0.03874186798930168, -0.10802694410085678, 0.13604338467121124, -0.005073543172329664, 0.07521088421344757, 0.0006511982646770775, -0.19783252477645874, 0.03112206980586052, -0.13166163861751556, -0.014345716685056686, 0.22359204292297363, -0.1519436091184616, -0.028798291459679604, -0.011440386064350605, 0.14039400219917297, 0.14504043757915497, -0.0011714112479239702, -0.037383317947387695, -0.00925850123167038, 0.004652589093893766, 0.13891232013702393, 0.05976632237434387, -0.02869422547519207, 1.0013507402197197e-33, 9.577322774580317e-34, -1.0099867666074249e-33, 0.05030694976449013, 0.003798386314883828, 0.0997675210237503, 0.010384862311184406, -0.14023391902446747, -0.03337147831916809, -0.1476498693227768, 0.016060028225183487, 0.06045212596654892, 1.025229989601713e-33], [-0.006441238336265087, -0.25905540585517883, -0.19201013445854187, -0.17197754979133606, -0.21312299370765686, 0.2972261905670166, -0.005115215666592121, -0.23590996861457825, 0.16610004007816315, -0.08781921863555908, -0.09377917647361755, 0.08838482201099396, 0.03653956949710846, 0.03164154663681984, 0.05200834572315216, 0.13027924299240112, 0.013890895061194897, -0.13434040546417236, -0.010788558050990105, -0.1813935935497284, 0.2672664523124695, 0.13469362258911133, 0.13128939270973206, 0.09469147771596909, 0.2627500295639038, -0.18366195261478424, 0.11522044241428375, 1.0544224734494228e-33, 1.0017080721352705e-33, -1.0761443233556725e-33, 0.07958745211362839, -0.0047367592342197895, 0.004606266506016254, 0.04555439576506615, 0.02553047239780426, 0.11548042297363281, -0.0714375451207161, 0.04852040112018585, -0.004257050342857838, -9.814374985748055e-34], [0.02548868954181671, 0.259154736995697, -0.16943217813968658, -0.11974430084228516, 0.21121133863925934, 0.14045685529708862, 0.07486443221569061, -0.02479703538119793, -0.022293338552117348, -0.10601814091205597, -0.093600332736969, -0.14795009791851044, 0.03716824948787689, -0.07657533884048462, 0.16141505539417267, 0.003062595147639513, -0.03985341265797615, 0.1317977011203766, -0.14761261641979218, -0.10436829179525375, -0.16862739622592926, -0.021091295406222343, -0.14355532824993134, -0.10476340353488922, 0.2990581691265106, 0.12050284445285797, -0.06256837397813797, -1.1230360787069198e-33, -1.0649256073095161e-33, -1.0901946950903644e-33, -0.05880808085203171, 0.1335022747516632, 0.18777720630168915, -0.03533097356557846, -0.01464796345680952, 0.1972188800573349, 0.17844414710998535, -0.01686939224600792, 0.027438901364803314, -1.0247889955491622e-33], [0.14742735028266907, -0.07419783622026443, 0.175916388630867, -0.06560131907463074, -0.3910101056098938, 0.1357400268316269, -0.0479779951274395, -0.12620529532432556, -0.03365621343255043, 0.006579697132110596, -0.024984637275338173, -0.008960419334471226, -0.009983072057366371, -0.07558950036764145, 0.13826851546764374, 0.06847767531871796, 0.04722287505865097, 0.04343217611312866, 0.014640427194535732, -0.11559896916151047, 0.11485452950000763, -0.0023530295584350824, 0.11342645436525345, -0.13911402225494385, -0.2017669677734375, 0.05858040601015091, 0.054711081087589264, -1.0387867455445556e-33, -1.0111415979716116e-33, 1.0963526324497423e-33, 0.12769772112369537, -0.18552464246749878, -0.13847355544567108, -0.06415107846260071, 0.16990888118743896, -0.10769003629684448, 0.10743938386440277, 0.04211728274822235, 0.03024197928607464, 1.0436160069455197e-33], [-0.030764978379011154, -0.07363376766443253, -0.2118772566318512, 0.17698030173778534, -0.20774726569652557, -0.10745677351951599, 0.16859270632266998, -0.13582338392734528, -0.04948272556066513, 0.03820611163973808, -0.00676208920776844, -0.07324554026126862, -0.07224725186824799, 0.061414625495672226, 0.1170358806848526, 0.001184237888082862, 0.14827334880828857, 0.04425613582134247, 0.17928355932235718, 0.16934674978256226, 0.30312520265579224, 0.05012749135494232, 0.034745294600725174, -0.06309612840414047, -0.19282536208629608, 0.10555237531661987, -0.012996270321309566, 1.0508934190030636e-33, -1.0430154946361426e-33, 1.0468285044366224e-33, 0.054422177374362946, -0.04738600552082062, 0.08842799812555313, 0.05399441719055176, -0.11553500592708588, -0.11350870877504349, -0.1364961862564087, 0.021107155829668045, 0.02609829045832157, -1.1068261034445766e-33], [0.0328831821680069, 0.20570723712444305, -0.06775155663490295, 0.1851472705602646, -0.3187551200389862, -0.05880507826805115, -0.026210786774754524, 0.029275543987751007, -0.16749951243400574, 0.13712632656097412, 0.12252946943044662, -0.00856887735426426, -0.13477617502212524, 0.05880771204829216, -0.03979502618312836, 0.021000729873776436, 0.14534665644168854, -0.03914084658026695, -0.05241980776190758, -0.1091371476650238, 0.09256917238235474, -0.04400796815752983, 0.07723578065633774, 0.1295311450958252, -0.2152877002954483, 0.09500209242105484, 0.08524822443723679, -1.0519142623783558e-33, 9.781380328688412e-34, -1.0462834607669247e-33, -0.10168305039405823, -0.09437946230173111, 0.006938992068171501, -0.0045967791229486465, 0.10340432077646255, -0.008830688893795013, 0.02976149134337902, -0.048070028424263, 0.01315553579479456, -9.679746903445325e-34], [-0.12761133909225464, 0.033889539539813995, -0.04559154808521271, 0.14427271485328674, -0.11811370402574539, -0.10988987982273102, 0.023362139239907265, 0.18938185274600983, -0.12970715761184692, -0.06585649400949478, 0.021678538993000984, -0.07456664741039276, 0.0530061312019825, 0.13006307184696198, 0.14697909355163574, -0.021714670583605766, 0.18062353134155273, -0.02762574702501297, 0.08506736159324646, -0.06786167621612549, -0.042698901146650314, -0.13689976930618286, -0.021328698843717575, -0.06490137428045273, -0.2506815195083618, -0.06364273279905319, -0.1898193359375, -1.1235224394945725e-33, -1.0641075367097408e-33, -1.0712604198344944e-33, 0.02619422785937786, 0.13016508519649506, 0.05399207025766373, -0.015317931771278381, -0.13137389719486237, -0.0760684385895729, 0.15416619181632996, -0.020943110808730125, 0.1746305376291275, 1.0616381720535485e-33], [-0.2530139088630676, 0.16286690533161163, -0.022566556930541992, 0.006235078908503056, -0.20629502832889557, -0.3464874029159546, 0.07422152161598206, 0.13041046261787415, 0.1624596267938614, -0.12257011234760284, 0.04372527077794075, -0.10304170101881027, 0.003571624867618084, 0.01623479463160038, 0.18408477306365967, -0.0840817391872406, -0.025497213006019592, 0.05045666918158531, -0.1397312581539154, -0.06170762702822685, 0.04935580864548683, -0.028182953596115112, -0.08251015841960907, 0.04829828068614006, 0.15786434710025787, 0.17324936389923096, -0.16303719580173492, -1.1152828669437814e-33, -9.610768343926096e-34, 1.1552291037205997e-33, -0.004492122679948807, 0.11154089123010635, -0.09332013875246048, -0.0680379644036293, -0.17574188113212585, 0.10072385519742966, -0.11093764752149582, 0.01238408125936985, 0.08591048419475555, -9.930014242510198e-34], [0.12923237681388855, -0.15279318392276764, 0.054755620658397675, -0.024542978033423424, 0.12981536984443665, 0.17583896219730377, 0.0842980220913887, -0.2101917564868927, -0.028794370591640472, 0.10382620245218277, 0.02444889023900032, -0.1500997692346573, 0.12927940487861633, -0.05575334280729294, -0.008893097750842571, 0.14665760099887848, -0.08531114459037781, 0.21498975157737732, -0.024122633039951324, 0.12345050275325775, 0.0759100541472435, -0.10771265625953674, -0.01988399773836136, 0.20683610439300537, -0.15364518761634827, 0.0775166004896164, 0.1335030496120453, 1.0345187826961091e-33, -1.0508144404763677e-33, 1.0758143584179768e-33, -0.18051382899284363, -0.06613762676715851, 0.0765049010515213, -0.125043123960495, -0.16446413099765778, -0.15513353049755096, -0.022844381630420685, 0.12383808195590973, -0.08424205332994461, 9.465466221904923e-34], [-0.0654630959033966, -0.11012127250432968, 0.05087795853614807, 0.011470336467027664, 0.021186957135796547, 0.08285313099622726, 0.07731896638870239, 0.18455946445465088, -0.03581862524151802, -0.10900510847568512, 0.1001838892698288, 0.04745292663574219, 0.07589471340179443, -0.003579566953703761, -0.15960988402366638, 0.06884931027889252, 0.00908651016652584, -0.026571357622742653, 0.15738943219184875, 0.12994316220283508, -0.00303453067317605, 0.061084844172000885, 0.1344338357448578, -0.026636989787220955, -0.03580794110894203, 0.16010847687721252, -0.02180601842701435, 1.1192488746808604e-33, -1.005300033896498e-33, 1.0556347938342045e-33, -0.15882638096809387, -0.01242786180227995, 0.013429155573248863, 0.08398403227329254, -0.004445934668183327, -0.04131225124001503, 0.12633752822875977, -0.027043543756008148, 0.07898326218128204, 1.0920553740780214e-33], [0.017510393634438515, 0.030320271849632263, 0.06329606473445892, -0.01526352297514677, -0.4410288631916046, 0.30465734004974365, 0.08167857676744461, -0.06173203885555267, 0.18622060120105743, -0.08307089656591415, 0.09080923348665237, -0.0626632571220398, -0.020622042939066887, -0.007117034867405891, 0.12373697757720947, 0.05992500111460686, 0.04184283688664436, 0.10670429468154907, -0.16748762130737305, -0.23140853643417358, -0.07990682125091553, -0.07139773666858673, -0.1449575275182724, 0.11949098855257034, 0.24539515376091003, -0.16592206060886383, 0.22237443923950195, 1.0468060965755598e-33, -1.009270725243881e-33, 1.0022337385152788e-33, -0.0020547257736325264, 0.16102910041809082, 0.04166039451956749, -0.003703368129208684, 0.1254742592573166, 0.09194488823413849, 0.1420050859451294, -0.013905446976423264, 0.08390581607818604, -1.0519383232783492e-33], [-0.011932878755033016, 0.0439123809337616, 0.21693678200244904, -0.10656272619962692, 0.034834567457437515, -0.04509943351149559, 0.08527633547782898, 0.02533303014934063, 0.09237354248762131, -0.029805157333612442, -0.06844522804021835, 0.09935587644577026, -0.05994157865643501, -0.03250376880168915, 0.13610275089740753, 0.11575427651405334, -0.015751641243696213, -0.044176094233989716, -0.0857231616973877, -0.22396838665008545, -0.2979518175125122, 0.007579622324556112, 0.025248225778341293, 0.0020081999246031046, 0.23241569101810455, 0.06458622962236404, 0.06243426725268364, 1.007196712398649e-33, 1.0647968539439026e-33, -9.933321238726847e-34, 0.12216001749038696, -0.219061478972435, -0.06228555738925934, 0.050050489604473114, 0.06906414777040482, 0.15891654789447784, -0.012543519027531147, 0.021368687972426414, -0.05248410999774933, 1.0106802164389139e-33], [0.20275233685970306, 0.0066735148429870605, -0.07736469805240631, -0.042193710803985596, 0.09767571836709976, 0.037973567843437195, -0.08082437515258789, -0.10230308771133423, 0.013703806325793266, 0.027782075107097626, -0.11274587363004684, 0.1133255809545517, -0.09838515520095825, 0.11414774507284164, 0.11479322612285614, 0.08011922985315323, 0.053271111100912094, 0.07650543004274368, 0.21068501472473145, -0.10355011373758316, -0.06313923001289368, -0.17287176847457886, -0.16797688603401184, 0.0335245355963707, -0.12204992771148682, 0.07602313160896301, 0.03363404795527458, -1.1060830624451623e-33, -9.770574964210463e-34, 1.0258302264046015e-33, -0.10897243767976761, 0.05811992287635803, -0.09502092003822327, -0.0768633708357811, 0.19102390110492706, -0.08203883469104767, 0.12579481303691864, 0.039722293615341187, 0.02619541436433792, 9.794853514329751e-34], [0.16032566130161285, -0.20906783640384674, 0.08218584954738617, -0.10111595690250397, -0.39126962423324585, 0.06193285807967186, 0.15489663183689117, 0.0007747424533590674, 0.09510122239589691, -0.09314706921577454, 0.03259648010134697, 0.17829781770706177, -0.129837766289711, -0.05390306934714317, 0.058449286967515945, -0.1388571858406067, 0.0009405199671164155, 0.03274862840771675, 0.1424112468957901, -0.07094845175743103, -0.06748066842556, -0.015792103484272957, -0.023647934198379517, -0.02846423350274563, 0.1978140026330948, 0.009077448397874832, 0.18604806065559387, -1.0208326305391798e-33, 9.666009231575051e-34, -1.0463797962023944e-33, 0.038467105478048325, -0.005407367832958698, 0.06777379661798477, 0.0566205270588398, -0.03695881366729736, 0.09111383557319641, 0.09650295972824097, -0.02394235134124756, 0.08066452294588089, 1.0019008348417061e-33], [-0.0634455755352974, 0.0031812740489840508, -0.0061187176033854485, -0.028266649693250656, 0.229609414935112, -0.011921539902687073, 0.058607351034879684, 0.1847505271434784, -0.011248939670622349, 0.15089036524295807, -0.061992958188056946, 0.10443893820047379, 0.006818939466029406, -0.06627913564443588, 0.14449776709079742, -0.02373405359685421, -0.07338673621416092, -0.10855727642774582, 0.11244482547044754, 0.05265083536505699, -0.05276629701256752, 0.02958674356341362, 0.017084358260035515, 0.02507454715669155, -0.022956375032663345, 0.10651989281177521, 0.11774752289056778, 1.1747591158400466e-33, -1.0131887030164694e-33, 1.0039280115838976e-33, -0.056347593665122986, -0.11790315061807632, -0.003903523785993457, 0.03922761231660843, 0.06561999768018723, -0.014490456320345402, -0.10021969676017761, 0.027261417359113693, 0.04262567311525345, 1.0389716103983216e-33], [0.017108777537941933, 0.07550681382417679, 0.07596652209758759, -0.06160314753651619, -0.6108241677284241, -0.055430732667446136, -0.06291893869638443, -0.04222351312637329, 0.2581539750099182, 0.0699433982372284, -0.11607150733470917, 0.023044859990477562, -0.13134242594242096, 0.05353151261806488, 0.10307375341653824, -0.06750008463859558, -0.00044643974979408085, 0.016336441040039062, 0.029002750292420387, 0.042321279644966125, -0.1867823451757431, -0.0014385320246219635, -0.10344462096691132, 0.11674515157938004, 0.28985539078712463, -0.12841494381427765, 0.179737851023674, -1.0447960012356537e-33, -1.1669940572979038e-33, 1.021551794309593e-33, -0.031092695891857147, 0.07018445432186127, 0.10352610796689987, -0.01842048391699791, 0.04958152770996094, 0.16270855069160461, 0.0299903005361557, 0.008468813262879848, 0.013919214718043804, -1.1298757109542785e-33], [-0.23052868247032166, 0.15252529084682465, 0.050824522972106934, 0.13110440969467163, 0.21563053131103516, 0.22579877078533173, -0.1355021446943283, 0.19597402215003967, 0.18645444512367249, -0.03628448024392128, 0.22797748446464539, 0.14474059641361237, 0.0691746398806572, -0.01684797927737236, -0.0650935247540474, 0.014665898866951466, -0.06133537366986275, 0.002919354708865285, -0.1532941460609436, 0.1457812339067459, -0.05021147429943085, 0.08023729175329208, -0.03489900007843971, 0.06489071249961853, 0.12119311839342117, 0.11590675264596939, -0.02692432329058647, -9.972925296444981e-34, -9.953576475759454e-34, 1.0284239363225917e-33, -0.06351277232170105, 0.10312718152999878, 0.06383208185434341, -0.023425186052918434, -0.07645758986473083, -0.02298923023045063, 0.1430869847536087, 0.022627245634794235, 0.04600413143634796, 1.0610591492502724e-33], [0.03903206065297127, -0.08595169335603714, -0.12101022154092789, -0.05084111914038658, 0.2469700425863266, -0.18111197650432587, 0.16515670716762543, 0.08443105965852737, 0.09891556203365326, -0.14828932285308838, -0.03332144767045975, -0.031465474516153336, 0.13236293196678162, 0.08138784766197205, -0.09015277028083801, -0.06727560609579086, 0.055533796548843384, 0.06258657574653625, -0.19347916543483734, 0.04582734778523445, 0.17935536801815033, 0.055213216692209244, 0.07133253663778305, 0.050156645476818085, 0.01069161668419838, -0.11862628161907196, 0.05781855061650276, -1.0277566596075077e-33, 1.0594670890888775e-33, -1.0150111784377248e-33, -0.026700783520936966, 0.21893438696861267, 0.014405735768377781, 0.10133364796638489, -0.1419021189212799, 0.015109330415725708, -0.08163828402757645, -0.08372196555137634, -0.05910756438970566, -1.0593676312465384e-33], [-0.1426944136619568, -0.011409655213356018, 0.11974667757749557, -0.04419359192252159, -0.026501202955842018, 0.2593183219432831, -0.002751363208517432, 0.011831202544271946, -0.1033325269818306, 0.16446752846240997, -0.17077204585075378, 0.0701000764966011, 0.06137865036725998, -0.01270529069006443, 0.021024513989686966, 0.09730690717697144, -0.07413418591022491, -0.08322229236364365, 0.11770744621753693, 0.009691453538835049, -0.2753141522407532, 0.009738441556692123, 0.19626234471797943, 0.08676213771104813, 0.2798915505409241, 0.054388631135225296, -0.0822632685303688, 1.0412412328503702e-33, -1.0684666922058721e-33, -1.0683292144681236e-33, 0.1848626285791397, -0.09318885952234268, 0.08031188696622849, 0.08415339887142181, 0.1572326123714447, 0.016653113067150116, -0.17667485773563385, 0.04276319965720177, -0.008892267942428589, -1.0519959959699364e-33], [0.013065500184893608, -0.04097239673137665, 0.030109867453575134, -0.09610003232955933, -0.2751353681087494, 0.06441543996334076, -0.01823659986257553, -0.13287271559238434, 0.15442422032356262, 0.09588662534952164, 0.06967120617628098, 0.03206689655780792, -0.11074826866388321, -0.10691734403371811, 0.12945473194122314, -0.12060573697090149, -0.16837984323501587, -0.13353858888149261, -0.013093874789774418, -0.07980208098888397, -0.07364161312580109, 0.030083972960710526, 0.08623527735471725, 0.11186616867780685, 0.12005135416984558, -0.0942172035574913, -0.03518000245094299, -9.86122761917794e-34, 9.704571874766753e-34, 1.0229579794267642e-33, 0.11364370584487915, -0.144196018576622, 0.020969893783330917, 0.004171350039541721, 0.09583254903554916, 0.14062049984931946, 0.13706202805042267, 0.009504470974206924, 0.07248557358980179, 1.017900782324336e-33], [0.13218355178833008, 0.07172402739524841, 0.0057790628634393215, 0.08647581934928894, 0.09921088814735413, 0.21439196169376373, 0.04438173398375511, 0.10594690591096878, 0.004213952459394932, 0.14386700093746185, 0.07690239697694778, 0.010319117456674576, -0.02358822710812092, 0.02549612522125244, -0.042389512062072754, 0.08264914155006409, 0.16646626591682434, 0.09496026486158371, 0.12360387295484543, -0.08391279727220535, -0.008555210195481777, -0.17985635995864868, -0.15083809196949005, -0.07427794486284256, -0.09751436859369278, -0.016607025638222694, 0.15118086338043213, -1.0588080775684477e-33, -1.0524910811297241e-33, 1.006346866717203e-33, 0.04140300303697586, -0.028264516964554787, -0.039437420666217804, 0.04057296738028526, 0.03481743484735489, -0.037757884711027145, -0.004612127784639597, -0.11055995523929596, 0.04290428385138512, -1.0394059004596528e-33], [0.03555178642272949, -0.0562751330435276, -0.005601103883236647, 0.2258157581090927, -0.1644095480442047, 0.13713212311267853, 0.048758719116449356, -0.11814353615045547, -0.010370193049311638, 0.08692525327205658, 0.0016626082360744476, 0.17886148393154144, -0.1187887191772461, 0.02302544377744198, 0.038989003747701645, 0.0037279047537595034, 0.15399935841560364, -0.046733252704143524, 0.1166154146194458, 0.12566779553890228, 0.15900953114032745, -0.05042777210474014, -0.08944107592105865, 0.03139152750372887, -0.10442718118429184, 0.028338514268398285, -0.1150369793176651, -1.0392186478829866e-33, 1.046746862680538e-33, -1.0375850780773283e-33, 0.018398206681013107, -0.05829751119017601, -0.09968036413192749, -0.07758266478776932, -0.03513415902853012, -0.06733695417642593, -0.16417743265628815, -0.11236314475536346, 0.0541825108230114, 1.0378400134146628e-33], [0.08293847739696503, -0.005053845699876547, -0.04194493219256401, 0.031983427703380585, -0.14137616753578186, -0.242557555437088, 0.07226121425628662, 0.0215933658182621, 0.07982444018125534, 0.01929999515414238, -0.027877040207386017, -0.007966467179358006, 0.006194736808538437, 0.013193512335419655, -0.28876397013664246, 0.07724060863256454, 0.046488214284181595, -0.06005966290831566, 0.17188027501106262, 0.18802951276302338, 0.20129945874214172, -0.01955205388367176, 0.07960681617259979, -0.13413101434707642, -0.09343486279249191, -0.015678392723202705, -0.116487056016922, -1.0289033176125364e-33, -9.665394852105754e-34, -1.0170229268165617e-33, 0.05537731572985649, -0.09591617435216904, -0.1135135367512703, -0.021482182666659355, 0.0011356264585629106, -0.07990458607673645, 0.10186944901943207, 0.07726453989744186, 0.06746885925531387, 1.0258071756950659e-33], [-0.09202804416418076, -0.011740868911147118, -0.14062471687793732, 0.11033867299556732, -0.20465387403964996, -0.07110217213630676, 0.03692694008350372, 0.13861791789531708, -0.2046215832233429, -0.01289111003279686, -0.05696871131658554, 0.07023809850215912, -0.06099257990717888, -0.10316640883684158, -0.0018043214222416282, 0.08056271821260452, -0.002105956431478262, -0.06058420613408089, 0.035125505179166794, 0.03034675493836403, 0.07402647286653519, -0.11336711794137955, 0.09689458459615707, 0.09693452715873718, 0.16399885714054108, -0.10661690682172775, -0.05963466688990593, -1.0239032421887184e-33, -9.659449422084486e-34, 1.0517269179661935e-33, 0.18440568447113037, -0.1649804264307022, -0.11072452366352081, -0.05306893214583397, 0.062212809920310974, 0.002465849742293358, -0.15192042291164398, -0.06463317573070526, 0.08650703728199005, -1.0243491035225655e-33], [-0.08741884678602219, 0.02218131348490715, -0.04234043136239052, 0.0032094346825033426, -0.1989823877811432, 0.3787773847579956, -0.19257207214832306, -0.1649600863456726, -0.09730236977338791, -0.009394885040819645, 0.22715480625629425, -0.2444727122783661, 0.15091310441493988, -0.01531921699643135, 0.07096337527036667, -0.09066491574048996, 0.01811378262937069, -0.06435609608888626, -0.2641524374485016, -0.22462530434131622, 0.015905003994703293, 0.03300147503614426, 0.0716799646615982, -0.051656581461429596, -0.14991407096385956, 0.052077751606702805, 0.05642639100551605, 9.858828876018293e-34, -1.0076366044252457e-33, -1.017421217363399e-33, -0.083733931183815, 0.05587577447295189, -0.03737698495388031, -0.04419514536857605, 0.03911843150854111, -0.09987533837556839, 0.13775314390659332, 0.0036670032422989607, 0.051474157720804214, 1.0838799945390447e-33], [0.17652849853038788, 0.09335464239120483, 0.12764112651348114, -0.07978697866201401, 0.057719312608242035, 0.20662817358970642, 0.12756304442882538, 0.017987215891480446, 0.0039986371994018555, -0.0066990782506763935, -0.1091800108551979, 0.06176897883415222, -0.0812903419137001, -0.13871464133262634, -0.1109432801604271, 0.019036320969462395, 0.020466851070523262, -0.046327464282512665, 0.013636746443808079, 0.008391833864152431, -0.3477631211280823, 0.09736303240060806, 0.13706658780574799, 0.03311213478446007, 0.22659671306610107, 0.07669564336538315, 0.02911209687590599, 9.504046313840895e-34, -1.0117871096741062e-33, 1.05896052449207e-33, 0.14254944026470184, -0.09280010312795639, -0.08169480413198471, 0.031068822368979454, 0.020823119208216667, -0.042704988270998, -0.007361951749771833, 0.03434706851840019, 0.03654839098453522, -1.0421733631363738e-33], [0.2028280347585678, -0.16306927800178528, 0.13734860718250275, -0.12880432605743408, 0.050372786819934845, 0.024879030883312225, 0.18274253606796265, -0.14832013845443726, -0.028006866574287415, 0.06032412126660347, -0.05339113622903824, -0.10952343791723251, -0.00704532116651535, 0.024013368412852287, -0.019701162353157997, 0.05277314782142639, -0.10354000329971313, 0.13585610687732697, 0.08179228007793427, -0.1271693855524063, 0.07316680252552032, 0.08381536602973938, -0.03536733612418175, 0.06558827310800552, -0.19796326756477356, 0.10605893284082413, -0.031114215031266212, -1.0911871612973438e-33, 9.605828512587758e-34, 1.0462994401432562e-33, 0.07171172648668289, 0.009984697215259075, -0.106011763215065, -0.04225962981581688, -0.031812600791454315, -0.1322479397058487, -0.16367743909358978, 0.07499567419290543, 0.05745159089565277, 1.1607281213950441e-33], [-0.010543624870479107, 0.06551646441221237, 0.24649745225906372, 0.011749685741961002, 0.13059911131858826, 0.1613718867301941, 0.034067608416080475, -0.04121468961238861, 0.007282400969415903, 0.1873854249715805, 0.11546329408884048, -0.014579299837350845, 0.019599631428718567, 0.09664835035800934, 0.029469523578882217, 0.17627716064453125, 0.025686029344797134, 0.0842098742723465, 0.11354321241378784, 0.012117411941289902, -0.19514518976211548, -0.06430978327989578, -0.020315254107117653, -0.04628942534327507, -0.16420602798461914, -0.031041165813803673, 0.007647426333278418, -1.1058130660864578e-33, 1.0552044526992081e-33, -1.0036295462213841e-33, 0.0933537408709526, 0.029444877058267593, -0.04825080931186676, 0.05773686617612839, 0.05735505372285843, -0.09409616142511368, -0.06002751737833023, 0.042806606739759445, 0.011634278111159801, -1.0369369949809413e-33], [-0.14537109434604645, 0.14439521729946136, 0.18094997107982635, 0.03479360416531563, 0.4894905388355255, -0.2007320672273636, -0.010591764003038406, 0.1874638944864273, 0.004570044111460447, -0.10007907450199127, 0.0796365812420845, 0.0206367876380682, 0.01185974944382906, 0.003349408507347107, 0.0980190709233284, -0.08115550875663757, 0.07841401547193527, 0.02329755388200283, -0.036435939371585846, 0.004027281887829304, 0.26167112588882446, -0.03289808705449104, 0.053582143038511276, 0.01790495775640011, 0.15472698211669922, -0.13578997552394867, 0.1584416627883911, -1.0588461892993533e-33, -1.0338801586558264e-33, 1.0402550114571295e-33, 0.10591695457696915, 0.0033706771209836006, -0.04801410436630249, 0.00780801335349679, -0.17363886535167694, 0.049389418214559555, -0.014986335299909115, 0.01821504905819893, 0.008084319531917572, 1.089317390595567e-33], [0.02206522412598133, 0.1736575812101364, -0.012768786400556564, -0.0478019192814827, -0.22519174218177795, 0.04031618684530258, 0.052549008280038834, -0.023684777319431305, 0.10319013148546219, 0.15248537063598633, 0.004032938275486231, 0.053740061819553375, -0.015550916083157063, 0.0433640256524086, 0.13623294234275818, -0.03951789066195488, 0.10181137919425964, 0.08927760273218155, 0.043442338705062866, 0.1600167155265808, -0.21876147389411926, -0.05590825900435448, -0.04168142378330231, -0.07701663672924042, 0.10782993584871292, 0.08091860264539719, 0.16133444011211395, 1.0576526033557879e-33, 1.0706949886846496e-33, -1.0523232058427473e-33, 0.017815537750720978, -0.11928638815879822, 0.0805530771613121, 0.029100483283400536, 0.18281099200248718, -0.0061331456527113914, -0.09134025126695633, 0.015296254307031631, 0.03670225292444229, -9.871617887213255e-34], [0.11456338316202164, 0.12383235991001129, -0.18271824717521667, -0.015866605564951897, 0.14911174774169922, 0.12191285192966461, -0.16542524099349976, 0.16227653622627258, -0.10750894993543625, 0.12689520418643951, -0.11793220043182373, 0.07026267051696777, -0.1498526632785797, -0.07506431639194489, 0.14204774796962738, -0.11859876662492752, -0.0746825560927391, -0.13891564309597015, 0.09401390701532364, 0.12330828607082367, -0.21067917346954346, 0.13528454303741455, -0.06605089455842972, -0.22748598456382751, -0.09192932397127151, -0.03820477053523064, 0.030963225290179253, 1.0863409103295904e-33, 1.0566966876762793e-33, 9.811094621825292e-34, 0.08247552812099457, -0.014945359900593758, -0.08480582386255264, 0.08165787905454636, -0.06069403886795044, -0.07639726251363754, 0.06440773606300354, 0.00817796029150486, 0.09555822610855103, -1.0384974637316579e-33], [-0.11919469386339188, -0.08981028199195862, -0.028874807059764862, 0.09345518797636032, -0.09291470050811768, 0.025251202285289764, 0.11396384239196777, -0.07311289012432098, -0.06050249934196472, -0.035877492278814316, 0.09520544111728668, 0.03742758929729462, -0.06312115490436554, 0.01511017419397831, 0.042700931429862976, 0.058601632714271545, 0.0686119869351387, -0.074905626475811, 0.0732894241809845, 0.08279138803482056, 0.012038667686283588, -0.031876951456069946, -0.11158843338489532, 0.019294479861855507, 0.1111251562833786, -0.08273480087518692, 0.080660380423069, -1.0000504414296187e-33, 9.520216708004394e-34, -1.048653459416274e-33, 0.09622795134782791, -0.1598503440618515, 0.08225145936012268, 0.04550175741314888, 0.047620248049497604, 0.03650061413645744, -0.044939592480659485, 0.006308684591203928, 0.015597238205373287, 1.0344522937968907e-33], [-0.089476078748703, 0.08070339262485504, -0.14504384994506836, -0.042363241314888, 0.09340240806341171, -0.12939223647117615, 0.0754217877984047, 0.1374640315771103, -0.03537808731198311, -0.16510313749313354, -0.03175654262304306, 0.11079241335391998, -0.08389823138713837, -0.12491459399461746, 0.10164142400026321, -0.13067908585071564, 0.048109788447618484, 0.021273266524076462, 0.05952171981334686, -0.04475099965929985, 0.12516239285469055, 0.08236709237098694, -0.1104309931397438, -0.07818525284528732, 0.23278704285621643, 0.052234526723623276, 0.05882928892970085, -1.0622992957903899e-33, 1.0036920861942677e-33, -1.0055283369399467e-33, -0.008881516754627228, -0.06198163703083992, 0.006859411019831896, 0.0967072919011116, -0.06540069729089737, 0.09054583311080933, 0.1048092395067215, 0.006531291175633669, -0.04547271504998207, 1.017810691702605e-33], [-0.2107047736644745, 0.1490502953529358, -0.10397026687860489, 0.12078773975372314, 0.000920495018362999, 0.08601639419794083, -0.2092437893152237, 0.07613081485033035, 0.11585111171007156, -0.03596143051981926, 0.21585622429847717, -0.16992467641830444, 0.22441372275352478, -0.062250472605228424, 0.04044930636882782, 0.013546989299356937, 0.18399561941623688, -0.06727737188339233, -0.22157840430736542, 0.1906023919582367, -0.14019744098186493, -0.13349874317646027, 0.09591054916381836, 0.17603753507137299, -0.07633697986602783, -0.050110284239053726, -0.06262891739606857, -9.630636953519878e-34, -1.0157434746840886e-33, -1.0567786967743484e-33, 0.11249411851167679, -0.03869210556149483, 0.04427569732069969, -0.01265153381973505, -0.17891982197761536, -0.0041883764788508415, 0.08705341815948486, 0.0014077357482165098, 0.024821605533361435, 1.0247681488915344e-33], [0.1539766788482666, 0.01914978213608265, -0.17492517828941345, 0.07873029261827469, -0.1727059930562973, -0.07364483177661896, 0.09349114447832108, -0.09861690551042557, 0.031186256557703018, 0.03817584738135338, 0.029656855389475822, -0.10075628757476807, -0.05691199749708176, 0.030324893072247505, -0.17390093207359314, -0.0027458849363029003, 0.06095803901553154, 0.16483807563781738, 0.18049775063991547, 0.07961032539606094, 0.05041148141026497, 0.07703227549791336, -0.09394603222608566, 0.0701509565114975, -0.071815125644207, -0.1036100685596466, 0.06594632565975189, 1.1061333882970569e-33, -1.0193736400117178e-33, -1.031770513638085e-33, 0.05088488385081291, 0.17127825319766998, 0.06788737326860428, 0.04106238856911659, -0.14232347905635834, -0.04540068283677101, -0.07897480577230453, 0.052155960351228714, 0.04166464880108833, -1.0498023214732105e-33], [-0.07399559020996094, 0.026351019740104675, -0.0867396891117096, 0.10518711060285568, 0.06585618853569031, -0.01814303919672966, 0.15440179407596588, -0.10514417290687561, -0.16357287764549255, 0.16140420734882355, 0.09338154643774033, -0.047154758125543594, 0.059511449187994, 0.056315697729587555, -0.24714869260787964, 0.10083992034196854, 0.12550124526023865, 0.18605443835258484, -0.08637790381908417, 0.19472314417362213, 0.007612166926264763, 0.09581092745065689, -0.011438812129199505, -0.019221702590584755, -0.17162638902664185, 0.059465017169713974, 0.09976767748594284, 1.1729245181332984e-33, 1.003002309782625e-33, 1.0207639375880536e-33, -0.22494208812713623, -0.093487948179245, -0.10221192985773087, 0.07168546319007874, -0.08266221731901169, -0.05369699001312256, -0.013408558443188667, 0.04459873586893082, 0.057615749537944794, 1.0253781202570158e-33], [-0.12994423508644104, -0.014892654493451118, -0.06067478656768799, 0.24552418291568756, 0.1056697741150856, -0.010879859328269958, 0.02095397561788559, 0.08803834021091461, -0.04527907446026802, -0.0366814061999321, 0.19441479444503784, -0.12990644574165344, 0.086988165974617, 0.11151867359876633, -0.0806322917342186, 0.12015359103679657, 0.09356249868869781, -0.15952469408512115, 0.010271908715367317, 0.12015612423419952, -0.10593807697296143, 0.13828900456428528, 0.02946854569017887, 0.18763211369514465, -0.22525429725646973, -0.10543066263198853, -0.09689177572727203, 1.0433902752959634e-33, -1.0627959421536123e-33, -1.0365657040699746e-33, -0.14602701365947723, 0.053107574582099915, -0.08541436493396759, -0.024306001141667366, 0.019890109077095985, -0.058410488069057465, 0.17369723320007324, 0.008953222073614597, -0.013415523804724216, -1.0495034887687124e-33], [-0.12745501101016998, 0.14512035250663757, -0.11750894039869308, 0.137800395488739, 0.12567470967769623, -0.037264809012413025, 0.05665713548660278, -0.059908896684646606, -0.03287368640303612, 0.05568479374051094, 0.04560429975390434, -0.08076339960098267, 0.23541909456253052, -0.061600927263498306, -0.029000159353017807, 0.0032925729174166918, 0.12461317330598831, 0.07426907867193222, 0.04815688729286194, 0.23532849550247192, 0.09261733293533325, 0.10931253433227539, -0.031009625643491745, 0.10937675088644028, -0.17052364349365234, -0.02533155493438244, -0.00804130919277668, -9.602282744081098e-34, 1.0028905459838008e-33, 9.927598050606281e-34, -0.12005294859409332, -0.011179188266396523, -0.03674817085266113, -0.015608681365847588, 0.08959131687879562, -0.14325803518295288, 0.011113184504210949, -0.06774991750717163, -0.05785556137561798, -1.0788333585186746e-33], [-0.06911063939332962, -0.10024941712617874, -0.2901535928249359, 0.016850577667355537, -0.05578762665390968, -0.07018148899078369, 0.22285933792591095, 0.030829112976789474, -0.02191387675702572, -0.11807385832071304, -0.031105540692806244, -0.06236761063337326, 0.049133047461509705, -0.15842188894748688, -0.2504672408103943, 0.06690148264169693, -0.06274604052305222, 0.07507191598415375, 0.05272906646132469, -0.13234344124794006, 0.19395378232002258, 0.24699416756629944, 0.1651293933391571, 0.07749602198600769, 0.012326227501034737, 0.1229657456278801, 0.06556480377912521, -1.0651575837728112e-33, 9.910951948572684e-34, -1.0182236759288275e-33, -0.03276868537068367, -0.05778347700834274, 0.05686478316783905, 0.09239870309829712, -0.16374993324279785, 0.017456358298659325, -0.3199383318424225, 0.026677405461668968, 0.03487975895404816, -9.549052135443041e-34], [-0.009694779291749, 0.203891783952713, -0.0006675644544884562, -0.00919102318584919, 0.12656347453594208, -0.001739982166327536, -0.1836034059524536, -0.09771426767110825, 0.02229740470647812, -0.04884559288620949, -0.17344477772712708, 0.037260740995407104, -0.038198478519916534, 0.04881872981786728, -0.041864827275276184, -0.06956002116203308, -0.011384706944227219, 0.026518482714891434, -0.0476527102291584, 0.2322402000427246, -0.14677710831165314, 0.05173248052597046, 0.04315267503261566, -0.15032315254211426, 0.03778304159641266, 0.2192230522632599, -0.11434729397296906, -1.0451138438878565e-33, -1.0328148669003937e-33, -1.0230210704126248e-33, 0.1912834346294403, -0.044905152171850204, 0.07445061206817627, 0.10996758192777634, -0.19989265501499176, 0.019519826397299767, -0.10759209096431732, 0.05255036801099777, 0.0766366571187973, 9.532833068466579e-34], [0.1340983659029007, 0.032330356538295746, -0.3031773269176483, -0.003068771678954363, -0.014499054290354252, -0.29237815737724304, 0.10137784481048584, -0.028356943279504776, -0.09670567512512207, -0.175451397895813, -0.14401361346244812, -0.16286002099514008, -0.18512006103992462, -0.1969650834798813, -0.040704358369112015, -0.11529582738876343, -0.11251180619001389, 0.07697905600070953, 0.23005077242851257, 0.05642101168632507, 0.16925528645515442, 0.0863199383020401, 0.09630673378705978, -0.09251035004854202, -0.1869795024394989, 0.005700651090592146, 0.03211641684174538, -1.0859103855236018e-33, -1.0568839402529455e-33, 1.0051647602106573e-33, 0.0779772698879242, -0.08045297116041183, -0.08701624721288681, -0.0457092747092247, -0.028391581028699875, 0.11144890636205673, -0.2235628068447113, 0.028134897351264954, 0.07618562132120132, 1.1240409427058805e-33], [-0.12114172428846359, 0.1060405895113945, -0.06432939320802689, 0.11242907494306564, -0.0021683089435100555, -0.0024399003013968468, -0.04531640186905861, 0.14685843884944916, 0.052759815007448196, -0.009244502522051334, -0.046971987932920456, 0.08777537196874619, 0.12777724862098694, 0.038772717118263245, -0.09592611342668533, -0.07718794047832489, 0.1767534464597702, 0.16027474403381348, -0.0562744140625, -0.05027146264910698, 0.17692379653453827, -0.01796099543571472, -0.07596218585968018, -0.08111313730478287, -0.040558621287345886, -0.0014054675120860338, -0.07704001665115356, -1.0455728376976542e-33, -1.0705770719075828e-33, 1.0319064301723989e-33, -0.017125479876995087, 0.024250196292996407, 0.010606029070913792, 0.019731082022190094, 