{"model": "valkyr_policy", "species": "valkyr", "input_dim": 40, "output_dim": 19, "actions": ["talk", "call_meeting", "set_personal_goal", "set_medium_term_goal", "set_group_goal", "follow_agent", "gather", "till", "plan_build", "build", "farm", "help", "deposit_items", "idle", "explore", "plant", "set_priorities", "pick", "wander"], "weights": {"net.0.weight": [[-0.1256159245967865, -0.06622637808322906, 0.09799711406230927, 0.06112678349018097, 0.050055649131536484, 0.00026972973137162626, 0.026793766766786575, 0.13936401903629303, -0.11183599382638931, -0.10622867196798325, 0.10383035987615585, 0.11574698239564896, 8.519009497831576e-07, -0.10468382388353348, -0.12464901059865952, 0.11102069169282913, -0.04907233640551567, -0.1217208206653595, 0.1318642795085907, -0.11477532982826233, 0.14143458008766174, -0.11160820722579956, -0.14501935243606567, 0.04630403220653534, 0.056851696223020554, 0.06794677674770355, -0.06083935126662254, 1.1701034964062274e-05, 0.001951879821717739, 0.003473165910691023, -0.007600246462970972, 1.7001559626805829e-06, -0.12367858737707138, 0.0926196351647377, -0.05701684579253197, 7.692632789257914e-05, -0.06384621560573578, 0.14066430926322937, 0.06610246747732162, -6.053913921277854e-07], [-0.06837998330593109, 0.018503844738006592, -0.07801473885774612, 0.007670695893466473, 0.0024728199932724237, -0.012182602658867836, 0.12605135142803192, -0.0857212021946907, 0.021325087174773216, 0.023582614958286285, 0.12158653140068054, 0.09292567521333694, 4.6651007323816884e-06, 0.14038324356079102, 0.16674119234085083, -0.02904852107167244, -0.0059816595166921616, -0.005105547606945038, -0.0033499840646982193, -0.1773909032344818, 0.1172468438744545, -0.1374559998512268, 0.08868174254894257, -0.10141487419605255, -0.11962377279996872, -0.003186848945915699, -0.09836041927337646, 1.235994886883418e-06, 0.001931432751007378, -0.0013456474989652634, 0.03818418085575104, 0.007368117105215788, -0.05424468219280243, 0.06606803089380264, -0.06165476515889168, -0.018792318180203438, 0.16067729890346527, -0.08079923689365387, -0.08365510404109955, -0.0042470116168260574], [-0.059517376124858856, -0.12694770097732544, -0.12784120440483093, 0.00039913132786750793, -0.03697996214032173, -0.03824938088655472, 0.14594538509845734, -0.051879554986953735, -0.03575994446873665, 0.0475136861205101, 0.00533114280551672, -0.12379000335931778, -7.053744184304378e-07, -0.07143495231866837, 0.11219213902950287, 0.016554228961467743, -0.09156365692615509, -0.0767437219619751, 0.03890586644411087, -0.11573157459497452, 0.07128703594207764, -0.054307423532009125, 0.03678885102272034, 0.0923209860920906, -0.17492793500423431, -0.06813711673021317, -0.0046265264973044395, -0.00044530228478834033, 0.0022868120577186346, 3.3366416118951747e-07, -0.1855660229921341, 0.005529473535716534, 0.06306719034910202, -0.07765217870473862, 0.021287046372890472, -0.0010858632158488035, -0.1500777006149292, -0.04257206246256828, 0.08457811921834946, 0.027637559920549393], [-0.03005402721464634, -0.07762604206800461, 0.05452072620391846, -0.006003177724778652, -0.10968740284442902, 0.0019270264310762286, 0.0359438881278038, -0.02427322044968605, -0.0114710982888937, 0.10127392411231995, -0.1327066421508789, -0.19809654355049133, -0.0007021446363069117, -0.05366736650466919, -0.21554571390151978, -0.06365510076284409, 0.11565958708524704, -0.09227777272462845, 0.001506480504758656, -0.036214303225278854, 0.08479978889226913, -0.032736532390117645, 0.021617930382490158, 0.09357276558876038, 0.11315228044986725, -0.11037186533212662, -0.07939685136079788, 0.0004935049219056964, 3.4878155474871164e-08, 0.005606222432106733, -0.11060389131307602, -0.0004251540813129395, 0.04148098826408386, 0.12480782717466354, 0.07582348585128784, -0.0006113942363299429, -0.06606748700141907, -0.010645879432559013, 0.09403593838214874, 0.004176831338554621], [-0.03865263983607292, -0.06870955228805542, 0.015860555693507195, 0.003949219826608896, -0.1259072870016098, 0.014301717281341553, 0.00608830014243722, 0.14401519298553467, 0.02652185596525669, -0.004498682916164398, 0.05046810209751129, -0.039982035756111145, -0.023759979754686356, -0.055750519037246704, -0.09660212695598602, 0.027788937091827393, 0.0008940066327340901, -0.01559313852339983, 0.0008243346819654107, 0.015457994304597378, -0.09424107521772385, 0.0726102888584137, 0.06243167445063591, -0.18540742993354797, 0.04762564226984978, -0.019981715828180313, 0.037120889872312546, -6.693671821267344e-07, 0.011509168893098831, 0.004027057439088821, -0.0981089249253273, 0.008252391591668129, 0.05351899936795235, 0.09550714492797852, 0.009835239499807358, -0.00019731992506422102, 0.07434434443712234, -0.04382362216711044, 0.01840852200984955, 0.00215939455665648], [0.013179531320929527, 0.059661705046892166, 0.03163393586874008, -0.006324135232716799, -0.00895495992153883, 0.005996554624289274, -0.034274645149707794, 0.07886525243520737, 0.12430056929588318, -0.117465078830719, 0.14563165605068207, 0.05525098368525505, 2.119774762832094e-06, -0.05459423363208771, 0.053361814469099045, 0.009129894897341728, -0.003577206050977111, -0.006535204127430916, 0.01649715006351471, 0.040974099189043045, 0.08405787497758865, -0.03010539710521698, 0.12699109315872192, 0.046584367752075195, 0.029666516929864883, -0.06992045789957047, 0.06670010089874268, 3.7743143366242293e-07, 1.8777383274937165e-06, 0.015156079083681107, 0.10112301260232925, 7.763491680634615e-07, 0.1041412428021431, -0.0424424409866333, -0.0051856692880392075, 0.02101513370871544, -0.0002122846053680405, -0.1252378672361374, -0.06317513436079025, -0.00316862715408206], [-0.017278166487812996, 0.12148080766201019, -0.0020045724231749773, 0.007792676333338022, -0.0683029294013977, 0.08236575126647949, 0.07205675542354584, -0.10755696892738342, 0.04048341140151024, -0.06717214733362198, 0.05944696441292763, 0.009034079499542713, -0.008973861113190651, -0.13541239500045776, 0.08464109897613525, 0.019766755402088165, -0.010351257398724556, -0.024248747155070305, -0.017277056351304054, 0.03859597444534302, -0.12090598046779633, 0.07705163210630417, 0.061477091163396835, -0.12086190283298492, -0.005455836188048124, 0.025715848430991173, -0.023317789658904076, -0.03366818279027939, 9.363969866171828e-07, -0.015362344682216644, 0.014855045825242996, -1.3854349845132674e-06, -0.07737250626087189, -0.03946736082434654, -0.10637380182743073, -0.04162980243563652, 0.09044355899095535, -0.048358235508203506, -0.09877311438322067, 3.495976841350057e-07], [0.013422188349068165, -0.04332238435745239, -0.04504277557134628, -0.07674694806337357, -0.016743168234825134, -0.02203964628279209, 0.05000042915344238, -0.06582936644554138, -0.011187218129634857, 0.0161189753562212, -0.0016027280362322927, 0.004139246419072151, 0.001840157201513648, -0.07571008801460266, 0.0858597382903099, 0.08414044976234436, 0.04636102169752121, -0.04654081165790558, -0.0035787629894912243, 0.004587908275425434, -0.09284906834363937, 0.1603253185749054, 0.12277103215456009, 0.12153371423482895, 0.12066849321126938, -0.10250408202409744, 0.005486269015818834, 0.008202914148569107, 2.3172383407654706e-06, -2.536971521749365e-07, -0.06225637346506119, -5.5309378694801126e-06, 0.1421247124671936, 0.015446573495864868, 0.10839979350566864, 0.007420915644615889, 0.03989327698945999, -0.04136938229203224, -0.04226407781243324, 0.030611678957939148], [-0.0908394381403923, -0.0720290020108223, -0.04348747432231903, -0.023950453847646713, -0.0691748559474945, -0.06894756108522415, 0.004219749942421913, 0.1204543262720108, 0.13698406517505646, 0.1161862462759018, -0.13283084332942963, -0.0012405915185809135, 0.01754741556942463, -0.14577238261699677, 0.031474679708480835, -0.12757477164268494, 0.040351659059524536, 0.001385968062095344, -0.020928779616951942, 0.09794428199529648, 0.1485995501279831, 0.13185904920101166, -0.13774695992469788, 0.05753098055720329, -0.12005043774843216, -0.0003663162933662534, 0.13673731684684753, -0.005889548920094967, -0.013079991564154625, 0.02962149679660797, 0.07921814173460007, 0.0006615389720536768, 0.016975533217191696, 0.014207216911017895, -0.09212799370288849, -0.0247234795242548, 0.1312977820634842, -0.1489812135696411, 0.06847181171178818, -0.002370552159845829], [-0.002331407507881522, 0.0043898653239011765, -0.15680217742919922, 0.05898921564221382, 0.10253936052322388, 0.08218890428543091, -0.12615932524204254, -0.16429650783538818, 0.04632435366511345, 0.13361553847789764, 0.112587109208107, -0.0469035729765892, 0.0005520559498108923, 0.12773382663726807, -0.056004058569669724, -0.043817318975925446, -0.026544228196144104, -0.025213325396180153, -0.05075795203447342, 0.11730043590068817, -0.16808107495307922, 0.04942222312092781, -0.15570002794265747, -0.17821985483169556, 0.004527890123426914, -0.13306570053100586, -0.13832269608974457, 5.295388518788968e-07, -0.02968207374215126, 0.023164547979831696, -0.0263686440885067, -1.2621934729395434e-05, 0.09945614635944366, -0.04341849312186241, -0.09475520253181458, 0.02434435300529003, 0.09098654985427856, -0.1593107283115387, 0.08806978166103363, -4.870743168794434e-07], [-0.06634239107370377, -0.05594177544116974, 0.05391477793455124, -0.04832085967063904, 0.13135305047035217, 0.03741033002734184, 0.14623066782951355, -0.005176220089197159, 0.04258754849433899, 0.12244120240211487, 0.039980653673410416, -0.06942244619131088, -7.939683200675063e-06, 0.045661915093660355, -0.03614913299679756, -0.014588714577257633, 0.04988996312022209, -0.021392513066530228, -0.0905047357082367, -0.04967348650097847, 0.11001984030008316, -0.12909168004989624, 0.06189851090312004, -0.1022341176867485, -0.07289650291204453, -0.009243081323802471, -0.051268067210912704, -0.003144394140690565, -0.009951675310730934, -6.282397225731984e-05, 0.13940401375293732, -0.013402874581515789, -0.06870578229427338, -0.0919613391160965, 0.05794613063335419, 0.0020312757696956396, 0.0961240753531456, -0.03649134933948517, -0.004263272043317556, -0.03137438744306564], [-0.12335735559463501, 0.015329773537814617, 0.12044673413038254, 0.0835437923669815, -0.02555585466325283, -0.027003731578588486, 0.037812188267707825, -0.04879073053598404, 0.15676337480545044, 0.04820575192570686, -0.027887284755706787, -0.009548252448439598, -0.0007151403115130961, -0.12457925826311111, -0.08323421329259872, -0.0330289788544178, -0.015589115209877491, 0.027107257395982742, -0.025739235803484917, 0.10667051374912262, -0.10824967920780182, -0.05187483876943588, 0.0657561644911766, -0.031694021075963974, -0.007096956018358469, 0.14766879379749298, -0.10150761157274246, -0.0028891880065202713, -0.00018706847913563251, 9.840918835379853e-08, 0.16295869648456573, 7.78181929490529e-05, -0.03644729405641556, 0.12460259348154068, 0.1473056972026825, -0.01294060330837965, 0.12889376282691956, -0.008919614367187023, -0.017408937215805054, -1.2476065421651583e-05], [0.04941519722342491, 0.01790521666407585, -0.015398588962852955, -0.0253958310931921, 0.07380025833845139, -0.0024672308936715126, 0.16018551588058472, -0.05441869795322418, 0.17668887972831726, -0.09603869915008545, 0.1470649540424347, 0.10292423516511917, -3.0606374821218196e-06, 0.13649709522724152, 0.022852422669529915, 0.05050383508205414, -0.0500187948346138, -0.023764116689562798, 0.02116983011364937, 0.02734447456896305, 0.08572458475828171, -0.07874685525894165, -0.08181877434253693, -0.013279580511152744, 0.05113521218299866, 0.17314550280570984, 0.05383525788784027, 1.9654280549730174e-06, 2.1744810396739922e-08, -6.040881430635636e-07, -0.018914546817541122, -4.153435781972803e-07, 0.014608017168939114, -0.1069503054022789, 0.08451908081769943, 0.025867167860269547, 0.03834313899278641, 0.08507067710161209, -0.15094426274299622, 2.0763880570484616e-07], [-0.011970734223723412, 0.14066320657730103, -0.0735865905880928, 0.03535234555602074, -0.0874994620680809, -0.06770242005586624, -0.13467669486999512, -0.0033516832627356052, 0.04453626647591591, 0.017804913222789764, -0.013795771636068821, -0.01352856308221817, 0.015797313302755356, 0.14885026216506958, 0.12538118660449982, 0.06931671500205994, 0.1489042192697525, 0.000712560024112463, -0.05774328112602234, 0.03819012641906738, -0.0900474414229393, 0.13080912828445435, 0.16666658222675323, -0.03311576694250107, -0.06823083758354187, -0.05098392441868782, -0.13243693113327026, -0.010922292247414589, -0.012538028880953789, -0.0019995407201349735, 0.0047919792123138905, -4.46170787427036e-07, -0.08779735863208771, 0.10262987017631531, -0.060578543692827225, 0.049141775816679, 0.16141095757484436, -0.00444582337513566, -0.10789618641138077, -1.1898213188032969e-06], [0.10132679343223572, 0.0037914765998721123, -0.05561724305152893, 0.05408822000026703, -0.053824491798877716, 0.03226396068930626, -0.07782760262489319, 0.03857399895787239, -0.09458744525909424, -0.10361216217279434, 0.08131171017885208, -0.026242801919579506, -0.00031919791945256293, 0.028327694162726402, 0.19032734632492065, 0.12846852838993073, -0.01480003260076046, 0.0021163872443139553, -0.0499151386320591, 0.1119844913482666, -0.08386605232954025, -0.08331253379583359, 0.06747056543827057, -0.09413089603185654, -0.05852942913770676, -0.05658995360136032, -0.0014188408385962248, 8.660618959765998e-07, -0.002375033451244235, -0.0005746270762756467, -0.11445356160402298, 0.003230717033147812, -0.09904595464468002, 0.07241564244031906, 0.07093270123004913, 0.0015443048905581236, 0.08599114418029785, 0.003903194796293974, 0.05479807034134865, -8.987134947346931e-08], [-0.08410095423460007, -0.0753001794219017, 0.016925644129514694, -0.026068387553095818, -0.09175537526607513, -0.00011217087740078568, 0.021009769290685654, -0.08353706449270248, 0.11151960492134094, -0.06362761557102203, 0.0631728246808052, -0.02986457385122776, -2.207933221143321e-06, 0.023928485810756683, 0.1659233272075653, -0.04666309431195259, -0.03815457224845886, 0.04965771362185478, 8.719008474145085e-05, -0.11522995680570602, 0.061552759259939194, -0.11034440994262695, -0.0678696259856224, -0.03811130300164223, -0.01875259540975094, 0.09971455484628677, -0.13559946417808533, -0.004287153482437134, 1.0459826626174618e-05, 0.024965286254882812, -0.14256638288497925, 0.018120916560292244, -0.12108246982097626, 0.08293798565864563, -0.10324233025312424, -0.025177592411637306, -0.00714140385389328, -0.04133935645222664, 0.02477707527577877, -0.032681677490472794], [0.009066706523299217, -0.06401458382606506, 0.033853139728307724, -0.013308254070580006, 0.1077660545706749, -7.63831558288075e-05, 0.04170819744467735, 0.053013961762189865, 0.015845106914639473, -0.10584338754415512, 0.1574638932943344, -0.032950833439826965, 2.6746386083686957e-06, -0.032262884080410004, 0.1901131123304367, 0.026125557720661163, 0.05476430431008339, -0.08785367757081985, 0.019897572696208954, -0.03926854580640793, 0.11255166679620743, 0.12501688301563263, 0.1382008045911789, 0.14726516604423523, 0.1636151671409607, -0.07706175744533539, 0.12194530665874481, -0.0001231416390510276, -0.00012370776676107198, 0.00013513588055502623, 0.18958431482315063, -5.146908961251029e-07, 0.07817580550909042, -0.02689465880393982, -0.050031911581754684, 0.005138566717505455, -0.06685120612382889, -0.13718360662460327, -0.10480258613824844, -4.2192809246444085e-07], [-0.10808426886796951, 0.08175437897443771, 0.03739818558096886, -0.02137301117181778, -0.03811367228627205, -0.03604919835925102, 0.13368713855743408, -0.055456098169088364, 0.04042046517133713, 0.10667293518781662, 0.01474173367023468, 0.04931265115737915, -2.5708366138132988e-06, 0.13751034438610077, 0.04750543832778931, 0.04743919521570206, -0.06078376993536949, 0.06261586397886276, 0.08705228567123413, 0.08163117617368698, -0.017590273171663284, -0.1459544599056244, -0.0699213519692421, 0.12210234254598618, -0.10168629884719849, -0.11097322404384613, -0.040854278951883316, 8.506275480613112e-05, 0.021654589101672173, -4.254749364918098e-05, 0.05371683090925217, -0.003083794843405485, -0.11841195821762085, 0.11943317204713821, -0.021072130650281906, 0.02458290010690689, 0.08608947694301605, 0.020238710567355156, 0.016242098063230515, -2.1628551394314854e-07], [-0.1103140115737915, -0.002809060038998723, 0.058515552431344986, 0.03146984428167343, -0.04667127877473831, 0.06556912511587143, -0.04993666335940361, 0.08333900570869446, 0.046578340232372284, 0.10414896160364151, -0.2061043232679367, -0.06363049149513245, 0.0005003197002224624, -0.13319943845272064, 0.10481765121221542, 0.11711899191141129, 0.09776997566223145, -0.09598913043737411, 0.025212466716766357, 0.08215546607971191, 0.021410657092928886, 0.09622811526060104, 0.01646219752728939, 0.15678401291370392, 0.07497290521860123, -0.11755086481571198, -0.14488741755485535, 0.0006331739132292569, -0.021898752078413963, 0.012113707140088081, 0.1159532219171524, -0.03281687572598457, 0.07453738152980804, -0.0603812150657177, -0.14080797135829926, -0.017602520063519478, -0.07365632057189941, 0.1295931041240692, 0.09290146827697754, 0.022874537855386734], [0.10201924294233322, -0.06957704573869705, 0.052029188722372055, 0.0646444633603096, 0.08500266075134277, -0.047856274992227554, 0.07852502912282944, 0.048980653285980225, -0.06632482260465622, 0.1407415270805359, -0.22496537864208221, -0.17811745405197144, -0.0010659708641469479, -0.047338102012872696, -0.09620977938175201, 0.0031032932456582785, -0.06382522732019424, -0.07315776497125626, 0.04730317369103432, 0.0019078190671280026, 0.0032578373793512583, 0.020665030926465988, -0.09552398324012756, 0.09044581651687622, -0.07055343687534332, -0.10244190692901611, 0.07456497102975845, -9.577456694387365e-06, -0.0007245823508128524, 0.005412890110164881, 0.13328540325164795, 0.0015582521446049213, 0.023451851680874825, -0.051753345876932144, -0.0015371633926406503, -0.03442644700407982, -0.13324712216854095, 0.06428343057632446, 0.06983762979507446, -2.5318109919680865e-07], [0.051304131746292114, 0.10818372666835785, -0.08477096259593964, -0.0037078135646879673, -0.08486615121364594, -0.047062795609235764, 0.13982437551021576, 0.1572868525981903, -0.10835982114076614, 0.0011531459167599678, -0.037817709147930145, -0.12045872211456299, -7.730239985903609e-07, -0.023291613906621933, -0.08813127130270004, -0.03640154376626015, 0.1291617751121521, 0.11195046454668045, -0.032050374895334244, 0.06638788431882858, 0.11030588299036026, -0.07759464532136917, -0.10633115470409393, -0.12483326345682144, -0.13314136862754822, 0.03582880273461342, 0.13962653279304504, 3.8743419850106875e-07, -6.73384690230705e-08, 0.014756541699171066, -0.13238660991191864, 0.006484345532953739, -0.11567363888025284, -0.11336234956979752, 0.1419694721698761, 0.009612273424863815, 0.14578601717948914, -0.03647990524768829, 0.09661587327718735, 0.00418945262208581], [0.03482287749648094, -0.09644161909818649, -0.10346940159797668, -0.015668656677007675, 0.006842564791440964, -0.001502076513133943, -0.0923919826745987, -0.025204094126820564, 0.060882966965436935, 0.02973024919629097, 0.010391345247626305, 0.07901526987552643, 0.028186500072479248, 0.05776194483041763, 0.1713671237230301, 0.0016631858889013529, 0.0318155512213707, 0.004172207787632942, -0.029762079939246178, -0.15678471326828003, 0.09431793540716171, -0.039111848920583725, -0.07489585131406784, -0.2045777142047882, -0.05403309687972069, 0.04062995687127113, 0.1313990205526352, -2.1823325369041413e-08, 6.031122552485613e-07, -9.43063150771195e-06, -0.00535514997318387, 4.0294644350069575e-06, 0.08875282853841782, 0.11228324472904205, 0.11541078984737396, -0.020911240950226784, -0.0394921638071537, -0.04033757373690605, 0.021580642089247704, 2.7064515961683355e-07], [0.0903606042265892, 0.052807919681072235, -0.06820645928382874, -0.006571936886757612, 0.022708063945174217, 0.006125364452600479, 0.08595889061689377, 0.04969411715865135, 0.09485975652933121, -0.03960468992590904, -0.18776512145996094, -0.16465210914611816, 6.439098143573574e-09, -0.17662566900253296, -0.026060767471790314, 0.04257192835211754, 0.054208170622587204, -0.0037351520732045174, 0.08447309583425522, -0.055297598242759705, 0.034106045961380005, 0.04177805408835411, 0.05443781614303589, -0.08214455842971802, -0.1528174728155136, 0.12892892956733704, 0.06947312504053116, 0.0173515472561121, 0.0011183215538039804, 0.0002092882787110284, 0.19607976078987122, 0.0031938371248543262, 0.08334854245185852, 0.052607692778110504, 0.10609667748212814, 0.001194025855511427, -0.24760983884334564, 0.06572063267230988, -0.1037590280175209, 1.0854315405595116e-05], [-0.01818018965423107, 0.08950240164995193, 0.05747288465499878, -0.005414446350187063, -0.064946249127388, -0.06309746950864792, 0.13525010645389557, 0.02861260063946247, 0.05277017503976822, 0.021957844495773315, -0.1985953152179718, -0.08669617772102356, 0.012173778377473354, -0.09854956716299057, -0.18722499907016754, -0.036309584975242615, 0.006913760211318731, -0.13658428192138672, 0.12432464957237244, 0.14654536545276642, -0.12236478179693222, -0.07929500937461853, -0.17123886942863464, 0.17524366080760956, 0.03085656836628914, -0.0914728045463562, -0.08724408596754074, 6.315565769909881e-06, 0.0005838153883814812, 0.0004111215239390731, 0.1399763971567154, 1.0006743877966073e-06, -0.11692609637975693, 0.08791880309581757, 0.05896719545125961, 0.08201897144317627, 0.07754215598106384, -0.05447123944759369, 0.10622343420982361, -0.0051938933320343494], [-0.03450610116124153, 0.10786015540361404, 0.019211385399103165, 0.020723804831504822, -0.04692808538675308, 0.04136662557721138, 0.0011484602000564337, -0.026611173525452614, -0.08179648965597153, -0.15254227817058563, -0.009187265299260616, -0.005111449398100376, 2.849675183824729e-06, -0.08598978072404861, 0.04321466386318207, 0.0026170352939516306, -0.026397114619612694, -0.010362702421844006, 0.0032675452530384064, -0.09123869240283966, 0.10510002821683884, 0.048305705189704895, 0.1039067804813385, -0.05790822580456734, 0.060270044952631, 0.12695440649986267, -0.05699937045574188, 0.0021586078219115734, -0.00042560449219308794, 0.009479343891143799, 0.11532153934240341, 8.449486585959676e-07, 0.05312648415565491, -0.014251051470637321, 0.02324109897017479, 0.056661371141672134, 0.010427474044263363, -0.013898627832531929, 0.04143430292606354, 0.026323696598410606], [0.1386364847421646, 0.07552822679281235, 0.17179304361343384, -0.0013882124330848455, 0.0168817900121212, 0.02508682571351528, 0.04654424265027046, 0.1132153645157814, -0.0728619247674942, -0.12932786345481873, 0.0038445584941655397, 0.013942389748990536, -1.66465815709671e-06, 0.028934098780155182, -0.0767800435423851, -0.0998103991150856, 0.08414376527070999, -0.06207195296883583, 0.00545446528121829, 0.08389440923929214, -0.1265610307455063, 0.14246003329753876, 0.03257057070732117, 0.2049648016691208, -0.06481384485960007, -0.04534129053354263, 0.029793448746204376, 0.009237460792064667, -0.020428378134965897, 0.005657216068357229, -0.005260936915874481, -8.98219605005579e-06, -0.03474680706858635, 0.13087628781795502, -0.13210871815681458, -0.0022463772911578417, -0.16842259466648102, -0.1452871859073639, 0.022566694766283035, 1.0702165127440821e-05], [0.012263336218893528, -0.13464029133319855, 0.011716656386852264, -0.002524696523323655, 0.06100724637508392, 0.0016898767789825797, -0.02882286161184311, -0.08305962383747101, 0.040065065026283264, -0.1481233835220337, -0.015264580026268959, -0.009437506087124348, -0.002933745738118887, 0.14641205966472626, 0.23870304226875305, -0.0542512871325016, -0.0127491420134902, -0.0023302764166146517, 0.05979733169078827, -0.13611505925655365, 0.1406426578760147, -0.12086290121078491, -0.06139829754829407, -0.08812333643436432, -0.15691526234149933, -0.1210857629776001, -0.04029500484466553, 0.004838444292545319, 0.015165683813393116, -5.058745500718942e-06, -0.17329314351081848, 4.285553131921915e-06, -0.10401813685894012, 0.05672214552760124, -0.12108326703310013, 0.001497379969805479, 0.04777568206191063, -0.01956244744360447, 0.07556015253067017, -0.029489872977137566], [0.08373016864061356, 0.039624545723199844, 0.0497153177857399, -0.01218478288501501, 0.005671633407473564, -0.07298114895820618, -0.07373865693807602, -0.12415285408496857, 0.07821954041719437, -0.12184890359640121, 0.11814755946397781, -0.013788079842925072, -1.996131913983845e-06, -0.010915152728557587, 0.058300841599702835, 0.11732064187526703, 0.042395275086164474, -0.022875972092151642, -0.07348644733428955, 0.16459718346595764, 0.13429123163223267, -0.018168196082115173, 0.007028257008641958, -0.08173902332782745, -0.07564593851566315, 0.07863213866949081, -0.12671470642089844, -1.400310054577858e-07, -3.804179193878099e-09, -3.0477037853415823e-06, -0.12721312046051025, -0.011463645845651627, -0.06059464439749718, -0.11421384662389755, 0.09200263768434525, -0.0190828088670969, 0.179371640086174, -0.014171470887959003, -0.027759559452533722, -0.018438979983329773], [-0.10154201835393906, 0.03288540244102478, 0.005071557126939297, 0.0065788691863417625, -0.06704208254814148, 0.031882185488939285, -0.039782069623470306, -0.12437153607606888, -0.0076439268887043, -0.11403914541006088, 0.21179911494255066, 0.12638433277606964, 2.3510435198659252e-07, 0.0032157087698578835, 0.05416594073176384, 0.046965185552835464, 0.03368585184216499, 0.054208673536777496, -0.024300090968608856, -0.023115044459700584, -0.1234138235449791, -0.052039261907339096, -0.05893108248710632, -0.21597768366336823, -0.14649756252765656, -0.020951300859451294, -0.15328049659729004, 9.275537991015881e-07, -2.167701929067789e-08, 3.4888327604676306e-07, -0.20023663341999054, 0.0016949297860264778, 0.11311733722686768, 0.09163440763950348, 0.11540547758340836, -0.00013731724175158888, 0.10004982352256775, 0.07702065259218216, 0.050629403442144394, 2.3977605678737746e-07], [-0.04723123833537102, 0.030926911160349846, 0.0012378219980746508, -0.02720000594854355, -0.15376104414463043, -0.014583860523998737, -0.04613042250275612, -0.04411127045750618, 0.16105811297893524, -0.11077224463224411, 0.11538080871105194, 0.09485927224159241, -0.022288674488663673, -0.08146103471517563, 0.14252454042434692, -0.05112725868821144, 0.09488309919834137, -0.0274098739027977, 0.06948691606521606, -0.12604030966758728, 0.043098773807287216, 0.0718241035938263, 0.05167670547962189, -0.003589913947507739, 0.03806249797344208, 0.14527377486228943, 0.07926026731729507, 0.012274504639208317, 9.110572136705741e-06, -2.415206381556345e-07, -0.2022164911031723, 0.003016304224729538, 0.13073799014091492, 0.014760734513401985, -0.0935199037194252, -0.00047793445992283523, -0.14496108889579773, -0.1013459861278534, 0.11671910434961319, 0.022557996213436127], [0.010228713974356651, 0.08663439750671387, 0.08846385776996613, -0.05211148038506508, -0.05223281681537628, 0.04185971990227699, 0.13611909747123718, 0.05017402023077011, 0.01615305058658123, 0.15654325485229492, -0.05085521191358566, 0.05629952251911163, 5.458333589558606e-07, -0.09758845716714859, -0.10170760005712509, 0.025407975539565086, 0.14115747809410095, -0.09716349840164185, -0.0006992288981564343, -0.04533418267965317, -0.00041659254929982126, 0.1393609195947647, 0.03659937158226967, 0.12248843908309937, -0.05817006900906563, 0.0721750482916832, -0.15327027440071106, -0.026759404689073563, -0.003168346593156457, 3.51967923961638e-06, -0.0887359231710434, 0.01040592323988676, 0.07234691828489304, -0.04751672223210335, -0.13840873539447784, -0.05999171733856201, 0.15023007988929749, 0.0007918357150629163, 0.044960249215364456, -0.00657909270375967], [-0.023375067859888077, 0.0010818992741405964, 0.013141971081495285, -0.05083129554986954, 0.03835180401802063, -0.03554433584213257, -0.012813826091587543, -0.0003372046339791268, -0.03314153105020523, -0.11204582452774048, 0.0704892948269844, 0.1893780529499054, 0.018673615530133247, 0.15727601945400238, 0.16837909817695618, -0.1283421516418457, 0.13253238797187805, 0.033714525401592255, 0.08151334524154663, -0.038338903337717056, 0.04792940989136696, 0.035998161882162094, 0.04597678408026695, 0.002162383170798421, -0.18069279193878174, -0.06041882559657097, 0.11917047947645187, 9.889409966490348e-07, 1.8813678252627142e-05, 0.0002259351749671623, -0.05808395892381668, 0.008344672620296478, 0.005326925311237574, -0.16341468691825867, -0.17191798985004425, -0.04852045327425003, 0.088732048869133, 0.034027229994535446, 0.1456461250782013, 3.9584290334460093e-07], [-0.005050374660640955, -0.055749207735061646, -0.08748369663953781, 0.0005007086438126862, 0.04779249057173729, -2.310116178705357e-05, 0.16491636633872986, 0.13861402869224548, -0.05583804100751877, -0.09469632804393768, 0.03289829567074776, -0.07611750811338425, 4.507087965066603e-07, -0.1113804429769516, -0.14179912209510803, 0.0757347047328949, 0.04008772224187851, -0.03955019637942314, -0.0812012255191803, -0.05565207824110985, 0.06591952592134476, -0.11104721575975418, 0.05504217743873596, 0.033933401107788086, 0.07756649702787399, -0.0886014848947525, 0.054967548698186874, -0.0018986286595463753, 0.007600545883178711, 4.27333088737214e-06, 0.12737540900707245, -1.263087870029267e-05, 0.15501034259796143, -0.11616689711809158, 0.00998747255653143, -0.013761858455836773, -0.2460290640592575, 0.06802156567573547, 0.015933187678456306, 0.010553902015089989], [-0.07302094250917435, -0.10291125625371933, 0.003001911100000143, -0.015498548746109009, 0.06387338042259216, -0.0007325327605940402, 0.08605492115020752, 0.11158715188503265, 0.05450006574392319, 0.1032632365822792, -0.03489234298467636, -0.036191049963235855, 0.00024504298926331103, -0.1708337366580963, -0.11862321197986603, -0.043911997228860855, -0.002122251782566309, -0.006436742842197418, -0.038043104112148285, 0.02785002812743187, -0.14597201347351074, -0.01977301388978958, 0.11712373793125153, 0.1854984164237976, 0.061853475868701935, 0.14064107835292816, -0.018336990848183632, -1.47720129461959e-07, 7.742930847598473e-07, 4.317455932323355e-06, 0.06514420360326767, 0.0006965222419239581, 0.06119271740317345, -0.11403251439332962, 0.009310966357588768, -0.0033509954810142517, -0.2179093360900879, -0.006503461394459009, 0.04655854403972626, 0.007904802449047565], [-0.07111284136772156, -0.05414639040827751, 0.07325159013271332, -0.009426946751773357, 0.018456697463989258, -0.004247230477631092, -0.05437101423740387, -0.08028406649827957, -0.1305341124534607, 0.1437208205461502, -0.17079640924930573, -0.03470993414521217, -0.0005662700277753174, -0.089835524559021, -0.07756734639406204, -0.06640838831663132, -0.007951428182423115, -0.007611026056110859, 0.03474591672420502, 0.06369150429964066, -0.07429301738739014, -0.03471379727125168, -0.012766439467668533, 0.09605374932289124, 0.05218912661075592, -0.009618490003049374, -0.009243782609701157, 1.4522355513690854e-06, -0.020378682762384415, -0.0024075843393802643, 0.11450441181659698, 8.006286407180596e-06, -0.08977160602807999, 0.08314450085163116, 0.0727308914065361, 0.013708786107599735, 0.007238400634378195, -0.01803266629576683, 0.0016450044931843877, -1.0427274901303463e-05], [0.06673815846443176, 0.14158038794994354, -0.06799126416444778, 0.03411936014890671, 0.07524413615465164, -0.03945120796561241, -0.0795859694480896, 0.02511945739388466, 0.05141839757561684, 0.044877491891384125, -0.09855620563030243, 0.0023438178468495607, 0.025375839322805405, 0.10326103866100311, -0.02305583283305168, -0.026409365236759186, 0.11201900243759155, -0.09765907377004623, 0.1419348269701004, 0.06842312216758728, -0.04128647595643997, -0.05029517412185669, 0.08453390002250671, 0.21007739007472992, 0.06680601090192795, -0.07723568379878998, -0.11512205749750137, -4.7082605192372284e-07, 0.0025252329651266336, 0.008160017430782318, 0.1933831423521042, 0.0019913336727768183, 0.1198977679014206, -0.07874172925949097, 0.12312037497758865, -0.046536367386579514, 0.10968567430973053, -0.12657573819160461, 0.06956607103347778, -5.005831553717144e-07], [0.04169384017586708, -0.0872092992067337, 0.0335729755461216, 0.00031572519219480455, -0.10127764940261841, 0.004022880457341671, -0.10402446240186691, 0.09747740626335144, 0.12908408045768738, -0.05179023742675781, 0.06695247441530228, -0.046695854514837265, -3.7694010757149954e-07, -0.08985664695501328, 0.030502507463097572, 0.06927528232336044, -0.07189556211233139, 0.05629071220755577, -0.10915297269821167, -0.0425715371966362, -0.07706282287836075, 0.0020274827256798744, 0.07831115275621414, 0.026404526084661484, -0.07006519287824631, -0.13266108930110931, 0.01394746731966734, 2.4792836939013796e-07, 0.009785574860870838, -9.357551675748255e-07, -0.1357470154762268, 0.002983564743772149, -0.05042421817779541, 0.0030987237114459276, -0.09370064735412598, -0.0024048087652772665, 0.09763801842927933, -0.02523050084710121, 0.12682799994945526, 5.510091796168126e-07], [0.09559272974729538, 0.03703787177801132, 0.10507473349571228, -0.0013029801193624735, -0.0739084780216217, -0.004101776983588934, -0.0860527902841568, -0.10631978511810303, -0.12390771508216858, 0.0893111526966095, -0.11246919631958008, -0.18280886113643646, 0.0006032183300703764, -0.0566791333258152, 0.006876475643366575, -0.048369765281677246, 0.10321027785539627, -0.10856930911540985, 0.08211145550012589, 0.0027902298606932163, -0.010455765761435032, 0.11522599309682846, 0.08113439381122589, -0.03577188029885292, -0.06479387730360031, 0.056023236364126205, 0.1367599070072174, -0.010314472019672394, -0.032720766961574554, -0.027209503576159477, -0.1533374786376953, -0.0227352362126112, 0.13264451920986176, 0.11738493293523788, 0.13005748391151428, 0.003262842772528529, -0.18211202323436737, 0.09802677482366562, -0.028617320582270622, -2.629618052196747e-07], [-0.09440204501152039, -0.06526786088943481, -0.13968926668167114, 0.08900187909603119, -0.031005196273326874, -0.01969091407954693, 0.03844955191016197, -0.07130008190870285, -0.022152671590447426, -0.059949249029159546, -0.021970439702272415, 0.03581344336271286, -1.5497937511099735e-07, 0.18090559542179108, 0.0027430583722889423, 0.03252969682216644, 0.13278134167194366, 0.03311200812458992, 0.14145463705062866, 0.15509378910064697, 0.13280870020389557, 0.09842896461486816, 0.02806553989648819, -0.06319619715213776, 0.15471318364143372, -0.1565108597278595, -0.12541379034519196, 0.00010567676508799195, -0.00946102011948824, -2.2778067432227544e-06, -0.12755149602890015, -8.04928731668042e-06, 0.02411365881562233, -0.06685907393693924, -0.005405401345342398, -0.07123808562755585, 0.08666013926267624, 0.0674508661031723, 0.012912028469145298, -0.00020470797608140856], [-0.033471353352069855, -0.057034239172935486, 0.1384325474500656, 7.724007446086034e-05, 0.12409539520740509, 0.043290384113788605, 0.09247792512178421, -0.1346256583929062, -0.08314243704080582, -0.11196631193161011, 0.017715489491820335, -0.09986847639083862, 4.91462117224728e-07, -0.10845213383436203, -0.1701374351978302, 0.05376133695244789, -0.09478181600570679, 0.01768694631755352, -0.05276806280016899, -0.01991439051926136, 0.015186716802418232, 0.15960407257080078, 0.12128553539514542, 0.03861156478524208, 0.12043055146932602, -0.05287040024995804, -0.014121945947408676, -0.03228934109210968, 0.0011580156860873103, 0.003952525090426207, 0.14903679490089417, 1.952857076048531e-08, -0.03975772485136986, 0.05049731582403183, -0.007847288623452187, -0.004513957072049379, -0.1638936549425125, 0.01264966931194067, 0.02310057543218136, 0.025482041761279106], [0.10746127367019653, 0.0910729393362999, -0.07770794630050659, -0.0293271504342556, -0.0443461649119854, -0.0015568030066788197, -0.0278067234903574, -0.05499237775802612, -0.07562510669231415, 0.1332942545413971, -0.1787770390510559, -0.09207179397344589, -3.677584743400075e-07, -0.031664859503507614, -0.21562078595161438, -0.07165414839982986, 0.041618626564741135, -0.06688902527093887, 0.09557957947254181, -0.04933631420135498, -0.010971524752676487, 0.018246391788125038, 0.05046364665031433, 0.04480386897921562, 0.014748554676771164, -0.1393183469772339, 0.145780548453331, -0.008781937882304192, 1.116831845138222e-05, 7.14593568318378e-07, -0.023083191365003586, 5.1275910664116964e-05, -0.015524590387940407, 0.08140837401151657, -0.06663914024829865, -0.0009930074447765946, -0.11497049033641815, 0.031249158084392548, -0.051990117877721786, -4.303572609387629e-07], [0.03459111601114273, -0.0646495670080185, -0.010693343356251717, -0.0007435884326696396, 0.04453812912106514, -0.008977789431810379, -0.024211350828409195, -0.03220738098025322, 0.07139648497104645, -0.09969062358140945, -0.012182991951704025, 0.003238547593355179, 1.0905642966463347e-07, 0.08719244599342346, 0.09370361268520355, -0.038979195058345795, 0.0034480250906199217, -0.003688086988404393, 6.738376396242529e-05, -0.13988138735294342, 0.010433674789965153, 0.09912499785423279, 0.1254235953092575, 0.015568461269140244, 0.0987643375992775, 0.035573553293943405, 0.06943170726299286, 9.22825265092797e-08, 0.0007292168447747827, 0.022122303023934364, 0.1812320500612259, 4.5169338136474835e-07, -0.0987924262881279, 0.13128617405891418, -0.02071424387395382, -0.00031877521541900933, -0.14007888734340668, -0.15609565377235413, -0.02151927910745144, -6.260300722260581e-08], [0.0661918893456459, 0.041776567697525024, 0.06718490272760391, 0.002929135924205184, -0.11225774884223938, 0.003934867214411497, 0.07948943227529526, 0.027445727959275246, 0.0696987584233284, -0.007349616382271051, 0.06281735002994537, 0.10949841141700745, -0.0007875401643104851, -0.09891222417354584, 0.08309679478406906, -0.03597067669034004, -0.01988508738577366, -0.013553173281252384, -0.018305322155356407, -0.16428503394126892, -0.004247664008289576, 0.00486396299675107, -0.10123316198587418, -0.11635465919971466, 0.13020247220993042, 0.05250578746199608, 0.13240541517734528, 0.00845894031226635, 0.0284434761852026, 6.155823484732537e-06, -0.09520796686410904, 2.182219986934797e-07, -0.008602958172559738, 0.07854117453098297, 0.0063673872500658035, 0.027608122676610947, -0.0015471767401322722, 0.050269659608602524, 0.008895722217857838, -0.0020260547753423452], [0.0905660018324852, 0.030219899490475655, -0.05280740186572075, 0.04267830401659012, -0.026831721886992455, -0.06572501361370087, 0.09310086071491241, -0.07922404259443283, 0.07051593065261841, 0.016038844361901283, 0.11220856010913849, 0.041598398238420486, 1.5544502218745038e-07, 0.07042402029037476, -0.020343847572803497, 0.03175635635852814, -0.04510554298758507, -0.01203573402017355, 0.12475145608186722, 0.011688502505421638, -0.0571153499186039, 0.10424751788377762, -0.1509198695421219, 0.09410383552312851, 0.018776897341012955, 0.05306006222963333, -0.11861849576234818, 4.3923819248448126e-07, 4.886912563506485e-08, -1.574123302816588e-07, -0.07409342378377914, 2.7449655704003817e-07, 0.008031399920582771, 0.09437331557273865, 0.12118323892354965, -0.03720724210143089, 0.07849614322185516, 0.14506812393665314, -0.13245455920696259, -3.84456271262934e-08], [-0.04706574231386185, -0.052259039133787155, -0.03642137721180916, 0.03174864500761032, 0.03577987104654312, -0.0007185383583419025, -0.10195749253034592, 0.07594455033540726, 0.11912509799003601, 0.024041680619120598, 0.06522176414728165, 0.11011004447937012, -2.253903176097083e-06, 0.17516638338565826, -0.03866302967071533, -0.01860450766980648, 0.008300208486616611, -0.03256111219525337, -0.028111383318901062, -0.06478895992040634, -0.07930927723646164, 0.08026247471570969, 0.05760837346315384, -0.08511742204427719, -0.1040462851524353, -3.4863114706240594e-07, -0.11165329068899155, -0.00022478691244032234, 0.029052123427391052, -1.7011072941386374e-06, -0.10858563333749771, -0.003153763944283128, 0.08325324952602386, -0.03371582180261612, -0.009854006581008434, 0.002905527362599969, 0.09955288469791412, 0.008881316520273685, -0.04509080946445465, -0.009753606282174587], [0.13228556513786316, 0.028717700392007828, 0.003242391860112548, 0.030688581988215446, 0.1117122545838356, -0.05862967297434807, 0.06377909332513809, -0.043638069182634354, -0.14144764840602875, 0.13495835661888123, -0.1424580067396164, -0.08983717858791351, -1.0466273181464203e-07, -0.11466854065656662, -0.11344852298498154, -0.04247273877263069, -0.04272928088903427, 0.11583983153104782, 0.062402740120887756, 0.0058500319719314575, -0.11475908756256104, 0.04693414643406868, 0.008020834997296333, -0.009984444826841354, 0.14858746528625488, 0.1278846263885498, 0.0060313791036605835, -0.00031592242885380983, 0.007737496867775917, -0.0031028983648866415, 0.04235832020640373, 1.0245751127513358e-06, -0.06691619008779526, -0.03370731323957443, -0.07166862487792969, -0.0028232894837856293, -0.02455325238406658, 0.14591242372989655, -0.08973229676485062, 0.0001284274912904948], [0.01965872384607792, -0.1100621446967125, 0.07563961297273636, 0.019043223932385445, -0.01864912547171116, 0.025940312072634697, 0.05323867127299309, 0.14909173548221588, 0.08639323711395264, -0.017119605094194412, -0.06710194796323776, 0.07393605262041092, -0.011158924549818039, 0.029892483726143837, -0.11926630884408951, 0.08449253439903259, 0.12839509546756744, 0.10735665261745453, -0.012159300968050957, -0.17475107312202454, 0.14448799192905426, 0.14585557579994202, 0.14140436053276062, -0.04954388737678528, -0.196958526968956, -0.09883252531290054, 0.08084550499916077, 3.9706140597672857e-08, -3.718944014963199e-07, 0.030834419652819633, -0.17065007984638214, 0.0057671573013067245, 0.03600608929991722, 0.10731032490730286, -0.11291514337062836, -0.006413889583200216, 0.038288284093141556, -0.13934864103794098, 0.11782277375459671, 0.005868252366781235], [0.0193315502256155, -0.07350697368383408, 0.04075191542506218, 0.003789021633565426, -0.04554534703493118, 0.000439545139670372, 0.06341807544231415, 0.06129685044288635, 0.046194035559892654, -0.1154080480337143, -0.06617877632379532, -0.038597069680690765, -1.1462703923825757e-06, 0.09669498354196548, -0.11149151623249054, 0.04215458035469055, 0.004056328907608986, 0.0032809104304760695, -0.005637439899146557, 0.1289808303117752, 0.07500962913036346, -0.05325108766555786, -0.11933274567127228, 0.016617918387055397, -0.046772781759500504, -0.05875452235341072, 0.0022747854236513376, 0.031006017699837685, 7.73477665916289e-07, 1.1463686888646407e-07, -0.08352326601743698, 0.001378239830955863, 0.0360751673579216, -0.07826878875494003, 0.11925408244132996, 0.026610488072037697, -0.06684283912181854, 0.015133583918213844, -0.025381604209542274, 0.0004019176121801138], [0.006097640376538038, 0.10903662443161011, 0.09855932742357254, 0.010936129838228226, 0.017766263335943222, -0.056498654186725616, -0.08673185855150223, 0.03130197152495384, -0.0468224473297596, 0.1099928766489029, -0.005790237803012133, -0.05709473416209221, -0.000607944093644619, -0.07857596129179001, -0.11058401316404343, 0.0016800261801108718, 0.11911069601774216, -0.04399816691875458, -0.025211356580257416, 0.05684495344758034, 0.06412379443645477, -0.048730529844760895, -0.009196026250720024, 0.0801113024353981, -0.09989649802446365, -0.1474599540233612, 0.0863596647977829, -2.8178212119200907e-07, 0.00877060554921627, 0.0238921120762825, -0.08817360550165176, -6.809135300045455e-08, -0.05113614350557327, -0.049120888113975525, -0.1235058531165123, -0.0261413361877203, 0.12073608487844467, -0.11940699070692062, -0.037171803414821625, 4.2788155951711815e-06], [-0.04119068756699562, 0.12736140191555023, 0.03483748808503151, -0.030226338654756546, -0.018208324909210205, 0.006084874738007784, -0.07164230942726135, 0.11991135776042938, 0.021125730127096176, 0.04275894910097122, 0.09753766655921936, -0.015219256281852722, -2.1550902147282613e-06, 0.02186315506696701, 0.029619427397847176, 0.09548842161893845, -0.11000441759824753, 0.14348335564136505, -0.0029860606882721186, 0.038047488778829575, -0.019486984238028526, -0.002492622472345829, 0.06049206480383873, 0.13872896134853363, -0.0023744346108287573, -0.027736222371459007, -0.05021495372056961, -0.0005299231852404773, -0.0009281605016440153, 0.0008085666340775788, 0.06452822685241699, 0.021765515208244324, -0.04385868459939957, -0.04431396350264549, -0.015188113786280155, -0.035240475088357925, 0.07918508350849152, -0.13114440441131592, -0.1031949445605278, -6.543459676322527e-06], [-0.01852690801024437, -0.11107000708580017, -0.050045374780893326, 0.046810705214738846, 0.08156871050596237, 0.022852743044495583, 0.05779373645782471, 0.12202765792608261, 0.038588933646678925, 0.05649625137448311, 0.15776614844799042, 0.07821975648403168, 1.9016648593606078e-06, -0.0794421136379242, -0.012523000128567219, -0.008630914613604546, -0.016386603936553, 0.004313807934522629, 0.004168697167187929, -0.01798356883227825, -0.055656224489212036, -0.10647561401128769, -0.032003652304410934, -0.18925358355045319, 0.019154086709022522, -0.15105769038200378, -0.013639477081596851, 3.886376021000615e-07, 0.01745554804801941, 1.4539286894432735e-06, 0.07070799171924591, -0.007450399454683065, 0.042918868362903595, -0.08736643195152283, 0.12907545268535614, 0.0612909309566021, 0.14978651702404022, 0.1473931521177292, -0.10596997290849686, -0.006550265476107597], [0.08470956236124039, -0.0508023202419281, 0.025711363181471825, -0.003671090817078948, 0.044140804558992386, -0.004759658593684435, -0.06434984505176544, 0.10435931384563446, -0.17787107825279236, 0.10584986209869385, -0.14436979591846466, 0.01094623003154993, 1.2966837914518692e-07, -0.06714186072349548, -0.03869607672095299, -0.04062029346823692, -0.03417282551527023, -0.04696701094508171, -0.0005986389005556703, 0.07075221091508865, -0.16771550476551056, -0.10654667019844055, -0.08294795453548431, -0.05948701873421669, 0.0992032065987587, 0.0769408568739891, 0.02225610427558422, -0.002949063666164875, 0.00847327895462513, 1.2628008860815498e-08, -0.11263450980186462, 4.946700300934026e-06, 0.08498264104127884, -0.022345416247844696, -0.04281127452850342, 0.07108055800199509, -0.17406827211380005, 0.05036073178052902, 0.11430707573890686, 4.131935327222891e-07], [-0.06313207745552063, -0.06851333379745483, 0.0008244977798312902, 0.013014860451221466, -0.09421209990978241, -0.021253088489174843, 0.039521463215351105, -0.07255730777978897, 0.08858999609947205, -0.018933838233351707, -0.021409034729003906, 0.018589084967970848, -0.014995092526078224, -0.12049878388643265, -0.13975021243095398, -0.005424130242317915, -0.003712971694767475, -0.04029422998428345, -0.021766675636172295, -0.1121096983551979, -0.06244537606835365, -0.10589269548654556, 0.09979251027107239, 0.1326170265674591, -0.05896306037902832, 0.1075945794582367, 0.015363963320851326, 0.005820421501994133, 5.426746611192357e-06, -0.010621054098010063, 0.03002993017435074, 0.006144473794847727, -0.06925728172063828, -0.04126783832907677, 0.11867471784353256, 0.03144431859254837, 0.02275598980486393, 0.08389471471309662, -0.15937000513076782, 4.4944888941245154e-05], [-0.050068069249391556, 0.022024257108569145, 0.03731835260987282, -0.050735391676425934, 0.13759362697601318, 0.008004914969205856, 0.07876386493444443, -0.05560390651226044, 0.08393402397632599, 0.13235139846801758, -0.19885574281215668, 0.027763593941926956, -0.006217560265213251, -0.06115797162055969, 0.13304227590560913, 0.03956511616706848, -0.09282830357551575, -0.03572103753685951, 0.030439289286732674, 0.1375325471162796, 0.13759146630764008, -0.1086687296628952, 0.028479132801294327, -0.048174917697906494, -0.1214563325047493, 0.07025255262851715, 0.12151513993740082, 0.011030465364456177, 0.004719614516943693, -0.0014073806814849377, 0.02124754711985588, 1.5912057733658003e-06, -0.12104440480470657, 0.10202334076166153, 0.0860816165804863, -0.05912508815526962, -0.03245878964662552, 0.13537803292274475, -0.05192972347140312, -0.0056479452177882195], [-0.0743366926908493, -0.09128482639789581, -0.039438631385564804, -0.05609596520662308, 0.05607425421476364, 0.03302407264709473, 0.1083865836262703, -0.05048372969031334, 0.02115156687796116, 0.00495007773861289, 0.17380791902542114, 0.08211661875247955, -0.016317512840032578, 0.10170668363571167, 0.22462908923625946, -0.054473571479320526, 0.1157061830163002, 0.011978586204349995, 0.07317208498716354, 0.014005018398165703, -0.14051958918571472, -0.13190513849258423, 0.1340850442647934, -0.21461819112300873, -0.002602092456072569, 0.0030512437224388123, -0.08712213486433029, -0.017825165763497353, 1.10866653812991e-06, 1.1194319085916504e-05, -0.06893038004636765, -2.1742488343079458e-07, 0.1254594922065735, 0.07666657119989395, 0.019437309354543686, 0.032442547380924225, 0.027693135663866997, 0.09154049307107925, -0.052014969289302826, -0.0015082983300089836], [0.087761789560318, 0.048013363033533096, 0.031875383108854294, 0.012267502024769783, 0.08030962198972702, 0.03969787433743477, 0.09986051172018051, -0.05415353551506996, 0.11711138486862183, -0.029578950256109238, -0.07697194069623947, 0.09789395332336426, 0.013164341449737549, -0.06307263672351837, 0.12734392285346985, 0.01933339424431324, -0.10938149690628052, -0.14162278175354004, -0.08462119847536087, -0.10269913822412491, 0.15484623610973358, -0.023881684988737106, 0.12797121703624725, 0.09212440252304077, -0.09826619178056717, 0.07685141265392303, 0.03197428211569786, -6.731396524628508e-07, 0.000518076412845403, 0.014065081253647804, -0.004389945883303881, 1.9332741629796146e-08, 0.11980002373456955, 0.07491891831159592, 0.05864274874329567, -0.002874065423384309, -0.09114433079957962, -0.06508513540029526, 0.0536852590739727, -0.00015444264863617718], [0.07083222270011902, -0.12402047961950302, -0.0361115038394928, 0.053221650421619415, 0.033389944583177567, -0.0253940150141716, -0.0886431634426117, 0.011539781466126442, -0.044662296772003174, -0.006119048222899437, 0.16910186409950256, -0.018678445369005203, 0.0007579077500849962, 0.0551089383661747, 0.21138159930706024, 0.04176465421915054, -0.09576086699962616, -0.09522143006324768, 0.03881606087088585, -0.03480905666947365, 0.059431128203868866, 0.09823545068502426, 0.08180388063192368, -0.08335907757282257, -0.012889554724097252, 0.02659282274544239, -0.010586039163172245, -0.006874855142086744, -0.03299183398485184, 3.49769507010933e-05, -0.028006605803966522, -0.02758043445646763, -0.04841703921556473, 0.09527461230754852, 0.04021640494465828, 0.05096222460269928, 0.004962554667145014, 0.06978432089090347, -0.020074011757969856, 0.014578945003449917], [-0.06865686923265457, 0.05746234580874443, 0.16314390301704407, 0.001893083332106471, -0.04161670804023743, -0.06307979673147202, -0.07382730394601822, 0.0492953397333622, -0.12353044748306274, 0.14791922271251678, 0.07920141518115997, -0.110928975045681, -0.02864142134785652, 0.016714174300432205, -0.11815857142210007, -0.0443231426179409, -0.06178956851363182, 0.11202139407396317, 0.004781762138009071, 0.05053310841321945, -0.147184357047081, 0.13350112736225128, 0.005202992353588343, 0.15243272483348846, 0.16286364197731018, 0.08786681294441223, -0.011868704110383987, -2.070001841047997e-07, -0.0027512656524777412, -0.00029173598159104586, 0.03542893007397652, -0.020819325000047684, -0.013058040291070938, -0.04464055225253105, -0.09012813866138458, 0.01432809978723526, -0.0045446185395121574, -0.109474778175354, 0.03112482652068138, -0.000253622536547482], [0.05667709559202194, 0.11185965687036514, -0.07033470273017883, 0.02640475146472454, -0.07243891805410385, 0.044179096817970276, -0.026970189064741135, 0.15038055181503296, 0.02281629666686058, -0.08657259494066238, 0.0052886176854372025, 0.06293381005525589, 0.008411112241446972, -0.05120440572500229, 0.1327936202287674, 0.045035019516944885, 0.1315595954656601, 0.0013698150869458914, -0.06962654739618301, 0.11047668009996414, 0.15133453905582428, -0.0065069301053881645, 0.03411559388041496, 0.1636810153722763, 0.07280432432889938, -0.0895504429936409, 0.10430876910686493, -0.0019669285975396633, 0.004643148276954889, -2.1530167941818945e-06, 0.12527410686016083, 0.01243340689688921, -0.09630360454320908, -0.017666563391685486, -0.0031902517657727003, 0.07765323668718338, 0.13250315189361572, -0.07028640806674957, -0.0933588370680809, 0.0007247975445352495], [-0.02483939379453659, 0.038233157247304916, 0.03294631466269493, 0.04120565205812454, 0.04172186926007271, -0.0063044228591024876, -0.008711623959243298, 0.029800642281770706, 0.05852117761969566, -0.07376478612422943, -0.011792889796197414, -0.013257540762424469, 1.6615976150546885e-08, 0.08755005896091461, -0.13575299084186554, -0.0008772516157478094, 0.004118746612221003, -0.00169229949824512, 0.007423040457069874, 0.11250779032707214, -0.035680580884218216, 0.16899006068706512, 0.15547959506511688, 0.07712586969137192, 0.02245369739830494, 0.1230166032910347, -0.011251697316765785, -0.02560059353709221, -0.009443423710763454, 1.2885791988992423e-08, -0.05875541642308235, 0.005361026618629694, -0.008950391784310341, -0.07906802743673325, -0.047999460250139236, 6.4616860981914215e-06, -0.17659412324428558, -0.1689535528421402, -0.024269714951515198, 0.0037317422684282064], [-0.0621325746178627, 0.09849635511636734, 0.14006009697914124, 0.005125781521201134, -0.038609374314546585, 0.07695884257555008, 0.13114073872566223, 0.098996102809906, 0.13966362178325653, 0.10519909858703613, -0.1479797214269638, -0.024287860840559006, -2.8872563007098506e-07, 0.10670281946659088, 0.03586738556623459, -0.051490940153598785, -0.04489271342754364, -0.04805371165275574, -0.12064997106790543, 0.06982199102640152, 0.13022121787071228, 0.057947129011154175, -0.00038281045272015035, -0.10577626526355743, 0.034309271723032, 0.13298015296459198, 0.05086708813905716, 1.160543251899071e-05, 7.945635616124491e-07, -0.010913610458374023, 0.02449207380414009, -0.015861019492149353, -0.07802115380764008, 0.00854071881622076, -0.03723619133234024, -0.01535275112837553, 0.05789684131741524, 0.042121127247810364, -0.06818930059671402, 0.024033376947045326], [-0.01320697646588087, -0.0769459456205368, 0.11610966175794601, -0.020544398576021194, -0.07791059464216232, -0.00025679657119326293, 0.11599027365446091, 0.027095016092061996, 0.14228597283363342, 0.10293523967266083, -0.07369748502969742, -0.021420909091830254, -6.007318802403461e-07, 0.035276323556900024, -0.04266491159796715, -0.05859309434890747, -0.06178344786167145, -0.04881463199853897, -0.01924966275691986, -0.11036171019077301, 0.16030654311180115, -0.1119050532579422, -0.11786603182554245, 0.09136263281106949, 0.09394676238298416, -0.029848385602235794, -0.022374678403139114, -0.0015008409973233938, -5.333457693268429e-07, -0.0035569306928664446, -0.05179981142282486, -2.525536046960042e-07, -0.03661017492413521, 0.1274741142988205, -0.10312707722187042, -7.614282367285341e-05, -0.018764855340123177, 0.09956569969654083, -0.06865891069173813, -2.8700718246454926e-08], [-0.06468625366687775, -0.02340044640004635, -0.054797351360321045, 0.026353061199188232, -0.13367602229118347, -0.07166289538145065, 0.1228589341044426, 0.023968245834112167, 0.10762991011142731, -0.12288402020931244, -0.0988369807600975, -0.013883084058761597, 0.0030540144070982933, -0.0824030339717865, 0.13936255872249603, -0.07436510920524597, 0.01203357893973589, 0.037128645926713943, -0.106185682117939, 0.09466682374477386, -0.06372664123773575, -0.09317083656787872, -0.15556292235851288, 0.08749473094940186, -0.005164297763258219, 0.03128170594573021, 0.10599353164434433, 8.555544627597556e-05, 1.1015002883141278e-06, 0.000265629671048373, -0.12692202627658844, 0.006086995359510183, 0.14005953073501587, 0.11247182637453079, -0.08701916038990021, 0.05789178982377052, 0.14560846984386444, 0.12535451352596283, 0.019465377554297447, -0.03199341893196106], [-0.09807191044092178, -0.013485534116625786, -0.05326547101140022, -0.0025513519067317247, 0.10664848983287811, -0.02209572307765484, -0.0017224065959453583, 0.13763214647769928, -0.15062807500362396, -0.10588882118463516, 0.0007513612508773804, -0.14797694981098175, 3.1227722502080724e-05, -0.02825203351676464, -0.12123948335647583, 0.06093673035502434, 0.1302403211593628, -0.052651405334472656, 0.10293260961771011, 0.015949584543704987, -0.08218593895435333, 0.11382259428501129, 0.011056563816964626, 0.048435863107442856, -0.12359636276960373, -0.03516290709376335, 0.1387263536453247, 0.0019227005541324615, 2.499403990441351e-06, -0.00013696473615709692, 0.09685708582401276, -0.0005171103402972221, -0.10499807447195053, -0.11557136476039886, 0.041676219552755356, -0.03771916776895523, 0.027211572974920273, 0.12701033055782318, 0.038637593388557434, -2.2774490844312822e-06], [0.014278067275881767, -0.054400715976953506, -0.0911223441362381, -0.050571415573358536, 0.003116106614470482, 0.015693889930844307, 0.12457624077796936, 0.08884669095277786, -0.004485624376684427, 0.1158946305513382, -0.02793128974735737, -0.10028159618377686, 1.4467329947365215e-06, 0.03926106542348862, -0.1914696842432022, 0.0149410180747509, -0.04381411895155907, 0.0372283011674881, -0.03747302293777466, 0.060050010681152344, -0.06041106581687927, 0.07210765779018402, -0.012953395023941994, 0.15240392088890076, 0.07464180886745453, 0.012144207023084164, -0.03284502774477005, -0.005277608055621386, -0.0015288041904568672, -0.021774176508188248, -0.10818220674991608, 0.0007673202781006694, -0.05010436102747917, 0.008069276809692383, -0.15647940337657928, 0.03411688283085823, -0.16750457882881165, 0.08375721424818039, 0.036850880831480026, 0.004132849629968405], [-0.06784308701753616, 0.002091776579618454, 0.06138581410050392, 0.00929024163633585, -0.006292662583291531, 0.005987306125462055, -0.08958452939987183, 0.05242149904370308, -0.08962639421224594, 0.03509197011590004, 0.047454915940761566, -0.015374359674751759, -5.748236731051293e-07, -0.09170474857091904, 0.09992895275354385, -0.000861697131767869, -0.0008450565510429442, -0.031962472945451736, 0.006105685140937567, 0.11739633977413177, 0.08751282095909119, -0.04857654124498367, -0.03051842376589775, 0.006954185198992491, -0.010556615889072418, 0.08371228724718094, -0.012586704455316067, 0.022417152300477028, -0.006719335447996855, -1.8051554206977016e-06, 0.11416415125131607, -0.00024105681222863495, -0.13379232585430145, -0.034421924501657486, -0.15268944203853607, 0.011974438093602657, 0.03878866136074066, -0.12878966331481934, -0.10710864514112473, -0.01800207421183586], [-0.018885789439082146, -0.11229691654443741, -0.024288412183523178, -0.027579860761761665, -0.059133000671863556, 0.01573360525071621, -0.028589263558387756, -0.14633624255657196, 0.038517311215400696, -0.13865654170513153, 0.11052180826663971, 0.1062786653637886, -0.0006798332906328142, 0.02384793944656849, -0.019390566274523735, 0.01976265385746956, -0.0065401955507695675, 0.037046317011117935, -0.00915801152586937, -0.15657177567481995, 0.14210407435894012, -0.17173896729946136, -0.05347660183906555, -0.05103200301527977, -0.021889228373765945, -0.03719276934862137, -0.056813571602106094, -1.632539010643086e-06, -0.006598035804927349, 0.0007167237927205861, -0.1923585832118988, -0.015965383499860764, -0.09425313025712967, -0.0616581104695797, -0.0009243336389772594, 7.902321522124112e-05, 0.02717467211186886, -0.1289217174053192, 0.06870447844266891, 2.132374902430456e-06], [-0.058756984770298004, -0.057403020560741425, 0.01772403158247471, 0.012586337514221668, -0.10096709430217743, -0.0007611473556607962, 0.007686583790928125, 0.1009758785367012, 0.09137645363807678, 0.003520444268360734, -0.07706093788146973, -0.010389009490609169, 0.031181590631604195, -0.09778949618339539, -0.1669216752052307, -0.024682236835360527, -0.00012027922639390454, -0.02147330529987812, -0.023236742243170738, 0.018095457926392555, 0.03686973452568054, -0.0016942343208938837, -0.08318443596363068, 0.08656761050224304, -0.0286093782633543, -0.12004530429840088, 0.011725279502570629, 0.031199844554066658, 0.015437752939760685, -2.470314974800658e-08, -0.07269448786973953, -0.013097969815135002, -0.07247035205364227, -0.027848826721310616, -0.010990849696099758, -0.00027261514333076775, -0.044334739446640015, -0.0015897112898528576, 0.007338478695601225, -0.0068010021932423115], [0.03321548178792, -0.09899228811264038, 0.17186680436134338, -0.0007330204825848341, 0.17312894761562347, -0.0005110861384309828, 0.0052485596388578415, 0.09343302994966507, -0.0952325090765953, 0.03528549522161484, -0.17661410570144653, -0.1345544159412384, 1.1907194163995882e-07, -0.23829475045204163, -0.11382529884576797, -0.005772207397967577, 0.003913249354809523, -0.039512816816568375, -0.03127840533852577, -0.046588171273469925, 0.08757331222295761, 0.08190707862377167, -0.08917191624641418, 0.14194166660308838, 0.11702777445316315, 0.09773807972669601, 0.13854126632213593, -0.011736012995243073, 0.016042139381170273, -0.006169977132230997, 0.13469408452510834, -0.0006254944601096213, -0.0938321202993393, -0.012630096636712551, 0.1684434562921524, 0.010841487906873226, -0.282487154006958, 0.05073624849319458, -0.007227606140077114, -1.6058349501690827e-05], [-0.14847595989704132, -0.13872013986110687, -0.06942020356655121, 0.038919512182474136, 0.04526655003428459, 0.0796303078532219, 0.03999882563948631, -0.08997165411710739, -0.1257994920015335, 0.04052075743675232, -0.12482099235057831, -0.046154413372278214, -0.010022695176303387, -0.1293206810951233, -0.09820298850536346, -0.09316399693489075, -0.04621937498450279, 0.04884886369109154, 0.03008682280778885, 0.0014168856432661414, 0.1523924320936203, 0.019423631951212883, 0.09093223512172699, 0.13261613249778748, -0.010961675085127354, 0.043871570378541946, -0.006097086705267429, 0.017090503126382828, 5.483129257299879e-07, -9.495662567360341e-08, 0.03921801224350929, -0.02649768814444542, 0.11229494214057922, -0.05515071749687195, 0.10007930546998978, 0.045490507036447525, -0.06415202468633652, 0.08697427809238434, 0.049351658672094345, -2.19285034575023e-09], [0.024133730679750443, 0.024658290669322014, 0.05910312011837959, 0.04323625564575195, 0.02801324427127838, 0.0029166291933506727, 0.049459390342235565, 0.0722842663526535, 0.13620468974113464, 0.15301714837551117, 0.11093476414680481, -0.05798077583312988, -0.008892691694200039, 0.006311072502285242, 0.1243230551481247, 0.007965391501784325, -0.05585334077477455, 0.10542893409729004, 0.12246843427419662, -0.12203329801559448, -0.0206757765263319, -0.02564571052789688, 0.05789551883935928, -0.16414953768253326, 0.11506015062332153, -0.061244409531354904, -0.15370702743530273, -0.0004864071379415691, -4.3369209379306994e-06, 1.4649617696704809e-06, -0.12056232988834381, 0.020173968747258186, -0.051707565784454346, 0.12574386596679688, 0.013574035838246346, 0.019895698875188828, -0.11315935850143433, -0.13909748196601868, 0.11616529524326324, -5.480869276652811e-06], [0.028934529051184654, -0.008455082774162292, 0.09092855453491211, 0.0003071058017667383, -0.02327064797282219, 0.002618627855554223, -0.10372935980558395, -0.10610586404800415, -0.1465524435043335, -0.18492890894412994, -0.033722758293151855, 0.07057297229766846, -4.624940288522339e-07, -0.02519424445927143, 0.06173565238714218, 0.1213068887591362, 0.00042428370215930045, 0.12666824460029602, 0.10649136453866959, 0.02686396986246109, 0.004942279774695635, -0.0037115782033652067, 0.09665315598249435, 0.007821228355169296, -0.08209885656833649, 0.07991565018892288, -0.04047103971242905, 0.003457238432019949, 4.3337563511158805e-06, -0.0007032427238300443, -0.20057274401187897, -1.193571250723835e-07, -0.13605427742004395, 0.01664969138801098, -0.06755813956260681, -0.0013341461308300495, -0.03253666311502457, 0.10471241921186447, 0.07742909342050552, 7.697879027546151e-07], [-0.12509317696094513, -0.1221158355474472, 0.004230249673128128, -0.07471512258052826, -0.08713582158088684, 0.06500101834535599, 0.14531254768371582, -0.014652050100266933, 0.076542429625988, 0.1514706313610077, 0.028008703142404556, 0.040609389543533325, 0.0007133285398595035, 0.05905084311962128, 0.17809221148490906, 0.03302677720785141, -0.10815846920013428, -0.06336402148008347, 0.06268173456192017, -0.025970397517085075, -0.05776094272732735, 0.11651004105806351, 0.08970945328474045, 0.08595320582389832, 0.17027997970581055, -0.006768690887838602, 0.030581718310713768, -4.0031434878073924e-07, 1.1678308986518005e-08, -0.029062548652291298, -0.09385452419519424, -0.0010420226026326418, -0.09347430616617203, -0.014824786223471165, 0.07875137031078339, 0.053275901824235916, -0.07235227525234222, -0.03354709595441818, -0.014426975511014462, 2.068103867713944e-06], [0.01934829354286194, 0.13763007521629333, 0.08373219519853592, 0.021942948922514915, 0.1125873550772667, 0.030850453302264214, 0.08725874125957489, -0.09921842813491821, 0.026133336126804352, 0.003964024130254984, -0.08452588319778442, -0.0559765100479126, 6.953367847017944e-05, 0.046037010848522186, 0.01923871971666813, -0.052505768835544586, -0.0313858725130558, 0.006683460436761379, -0.05974641069769859, -0.027731334790587425, -0.06380382925271988, -0.0501977913081646, -0.06116004288196564, -0.011486155912280083, -0.07070232182741165, 0.14711174368858337, 0.1068364605307579, -0.0008625782211311162, -0.02414642833173275, -0.027820033952593803, 0.08664043247699738, 2.328230948478449e-06, -0.05596365034580231, 0.11458922922611237, -0.04748731851577759, 0.007573493756353855, -0.052986498922109604, 0.07083461433649063, -0.11713053286075592, 0.0034378727432340384], [0.14464721083641052, 0.056025631725788116, 0.08027389645576477, -0.06457066535949707, 0.09298332780599594, -0.0046167136169970036, 0.04154567793011665, 0.04901023209095001, 0.08075737208127975, 0.06399737298488617, -0.21461154520511627, -0.17409498989582062, 2.0829629576724074e-08, -0.20718680322170258, -0.21224498748779297, 0.09199228882789612, 0.061632320284843445, -0.1428130865097046, 0.10486998409032822, -0.0646040290594101, 0.09711578488349915, 0.0723167285323143, 0.06818735599517822, -0.04169394448399544, -0.1127076968550682, -0.015211899764835835, 0.03844273462891579, 0.022410014644265175, -0.008306654170155525, 0.0017020204104483128, -0.10166513919830322, 3.934850155928871e-06, -0.15218037366867065, 0.07852030545473099, 0.056311000138521194, -0.05381076782941818, -0.10405365377664566, 0.12951341271400452, -0.02114444226026535, -0.0004495354660321027], [0.09418316185474396, -0.0952664390206337, 0.04211967810988426, -0.006758279167115688, 0.01636565290391445, -0.052159179002046585, 0.018736591562628746, 0.11841239780187607, 0.09887497872114182, -0.13850858807563782, 0.12319605052471161, 0.05604827031493187, -0.02186102420091629, 0.21522824466228485, -0.03434305638074875, -0.07008440047502518, -0.008093212731182575, 0.08620208501815796, -0.059629738330841064, -0.014565357007086277, -0.10622525215148926, 0.10988876223564148, -0.09818536043167114, -0.06124359741806984, -0.000993153895251453, -0.031185125932097435, -0.11857572197914124, 0.000540918845217675, -4.239612735545961e-06, -0.014260453172028065, -0.12112624943256378, 0.03383369371294975, -0.1408161073923111, -0.04649332910776138, 0.02735939249396324, 0.019892917945981026, 0.20927990972995758, 0.11287318915128708, -0.07366306334733963, -1.6186044149435475e-07], [0.04585488885641098, -0.10708127915859222, 0.10233745723962784, 0.030664047226309776, -0.036841198801994324, -0.10542045533657074, -0.08631839603185654, -0.044087428599596024, 0.12039461731910706, 0.07018588483333588, -0.051196832209825516, -0.09616131335496902, -1.4483259747066768e-06, 0.06648922711610794, 0.055016759783029556, 0.015348013490438461, -0.012991747818887234, -0.05666431784629822, -0.04233003035187721, 0.04786175116896629, -0.06537821143865585, -0.0706656351685524, -0.10364608466625214, 0.1310359537601471, 0.0623774453997612, 0.06919397413730621, 0.11020227521657944, -0.015706971287727356, -2.6053879054188656e-08, -0.012050643563270569, 0.10213471949100494, 5.239340907792212e-07, 0.1081518605351448, 0.018438762053847313, 0.1331740766763687, 0.018550025299191475, -0.15572327375411987, 0.0026574309449642897, 0.041948460042476654, -3.2876703244255623e-06], [-0.12272298336029053, 0.10328799486160278, -0.09806438535451889, -0.05554056540131569, 0.08555793762207031, 0.05147445201873779, -0.028908947482705116, -0.1297696828842163, -0.05971653014421463, -0.14793454110622406, 0.08019187301397324, 0.05663389712572098, -0.015467669814825058, 0.10851108282804489, 0.21427090466022491, 0.028954196721315384, -0.041262079030275345, 0.12800712883472443, 0.07388964295387268, 0.08304017037153244, 0.12549549341201782, -0.010203417390584946, -0.13952668011188507, -0.07244376093149185, -0.06507305055856705, -0.01707668974995613, -0.05458619073033333, 0.003051514271646738, -4.4009599520222764e-08, 0.00015469086065422744, -0.1119425967335701, -3.003374615673238e-08, -0.13953475654125214, 0.12846919894218445, 0.07021065801382065, 0.027081014588475227, 0.07279321551322937, 0.10425031930208206, -0.06229705736041069, -7.49079481465742e-05], [0.05769513174891472, 0.12417666614055634, -0.11347563564777374, -0.04738110303878784, -0.0538291409611702, 0.0022737637627869844, 0.007197164464741945, 0.10883590579032898, -0.0819954201579094, 6.733937334502116e-05, -0.10423333942890167, -0.11392906308174133, 0.0009521207539364696, -0.012990166433155537, 0.02765503339469433, -0.02924259565770626, 0.10881298035383224, -0.023663170635700226, 0.031847067177295685, 0.0440693125128746, 0.04734106734395027, 0.03386940434575081, 0.07601338624954224, -0.04485948383808136, 0.01162082701921463, 0.14689449965953827, 0.05089865252375603, -0.0019454018911346793, 0.026430102065205574, -0.004200378432869911, -0.13328027725219727, 4.7519371548787603e-08, -0.09506510943174362, 0.11925715953111649, -0.10887862741947174, -0.017649298533797264, 0.009987191297113895, -0.0045288302935659885, -0.013887721113860607, 3.3544110920047387e-06], [0.08271748572587967, 0.015034590847790241, -0.019410304725170135, 0.0019608589354902506, -0.010078218765556812, -0.03455871343612671, 0.10654033720493317, 0.07819243520498276, 0.004687167704105377, 0.12246629595756531, 0.0026511591859161854, -0.02520616352558136, 0.0002852319448720664, 0.01944633200764656, -0.0323157012462616, 0.08869802206754684, -0.08717150241136551, -0.0433182455599308, 0.02753278613090515, 0.05513870716094971, 0.12945371866226196, -0.1498977392911911, -0.1253916472196579, -0.16130313277244568, 0.05277521535754204, 0.08937426656484604, -0.1242542713880539, -0.0008214402478188276, -0.0025538539048284292, 3.0263890948845074e-07, -0.0076393554918468, 0.022293873131275177, 0.011289261281490326, -0.1080639436841011, -0.08888857066631317, -0.020454877987504005, 0.09467954933643341, 0.1099848747253418, -0.07105042785406113, 0.011479443870484829], [-0.017082281410694122, -0.12569235265254974, -0.11313496530056, 0.004083435982465744, -0.05892124027013779, -0.017251010984182358, 0.13864490389823914, -0.06915398687124252, -0.12920615077018738, 0.021548336371779442, -0.049864262342453, 0.09695854038000107, -0.014668791554868221, -0.030524609610438347, -0.01860745996236801, -0.013918832875788212, -0.05663863196969032, 0.02248482219874859, -0.0031446258071810007, -0.02684405818581581, 0.0874137282371521, -0.1376577764749527, 0.15789343416690826, -0.08879531919956207, -0.053927548229694366, 0.11282852292060852, -0.07928283512592316, -4.336994152254192e-06, -0.03107060305774212, 0.013448048382997513, 0.004201494622975588, -0.01486872136592865, 0.014599769376218319, -0.12010221928358078, 0.11215132474899292, -0.036448217928409576, 0.009380162693560123, -0.019455907866358757, 0.023748688399791718, -0.0007722220034338534], [-0.010621941648423672, 0.01934673637151718, -0.08085158467292786, -0.029791884124279022, -0.06883680820465088, -0.026921305805444717, -0.03382846340537071, 0.06064273789525032, 0.03168141841888428, -0.12818937003612518, 0.03264784812927246, -0.029581688344478607, -0.029062263667583466, 0.019272541627287865, 0.11013256013393402, -0.006291497498750687, -0.011117163114249706, 0.005912197753787041, 0.0054253763519227505, 0.06203358992934227, 0.13482064008712769, -0.13343223929405212, -0.05125876143574715, -0.028360383585095406, -0.01750241033732891, -0.12094254046678543, -0.12621942162513733, -0.031804803758859634, 0.015810931101441383, 6.570888331225433e-07, 0.04812145233154297, -3.202943048563611e-07, 0.001335754874162376, 0.04386625811457634, -0.04415268823504448, 0.005306574050337076, 0.21391214430332184, -0.10116204619407654, -0.10673709958791733, 0.0019042835338041186], [0.06712120026350021, 0.07997368276119232, 0.10992342233657837, 0.0654049888253212, 0.0052002971060574055, 0.025451114401221275, -0.061923492699861526, -0.14732369780540466, -0.1377069354057312, 0.10552152246236801, -0.02997734770178795, 0.09607016295194626, -0.017034510150551796, 0.024665387347340584, 0.11705028265714645, -0.045826397836208344, 0.09296902269124985, -0.03189036250114441, -0.0310735572129488, -0.029588906094431877, 0.008948092348873615, 0.015310308896005154, 0.14533402025699615, 0.0780981034040451, -0.009397870860993862, -0.028331520035862923, -0.11770424246788025, -4.1729464328454924e-07, -0.014973245561122894, -0.03293900564312935, 0.10601098090410233, 0.0006586126401089132, -0.11427725851535797, 0.13172592222690582, -0.12232108414173126, 0.02456674911081791, 0.06020670011639595, -0.023623062297701836, 0.025377964600920677, 2.520947894879555e-08], [0.03566937893629074, 0.05545755848288536, 0.04158417880535126, 0.02020961605012417, 0.17541377246379852, -0.05311562120914459, 0.019938534125685692, -0.05313669890165329, -0.14130499958992004, 0.03159879520535469, -0.1221478059887886, -0.06537695974111557, -1.4593894775316585e-05, -0.11776929348707199, -0.11258117109537125, -0.11952720582485199, 0.0652579814195633, -0.03376733884215355, 0.13953176140785217, -0.005103909410536289, 0.06794437766075134, -0.061845384538173676, 0.1285829097032547, 0.14076779782772064, 0.10126902163028717, -0.07502652704715729, 0.02150246500968933, 1.191624278362724e-06, -1.2789425909431884e-06, -0.017091140151023865, 0.20747140049934387, -1.0653013305272907e-05, -0.017453612759709358, 0.008979889564216137, -0.14403146505355835, -0.019756825640797615, -0.17602229118347168, 0.03685673326253891, 0.012296735309064388, -5.640886229230091e-06], [0.06047992780804634, -0.16234803199768066, 0.03598703071475029, 0.03876735270023346, -0.15882991254329681, -0.01985885202884674, 0.01769588142633438, 0.006745230406522751, -0.01192533504217863, 0.0700264424085617, 0.10560920089483261, 0.048137787729501724, 2.0240895537426695e-06, 0.1417030245065689, 0.0561024509370327, -0.02790203131735325, -0.02764967642724514, -0.004605008289217949, -0.0032968700397759676, -0.14045952260494232, -0.10256044566631317, -0.04819181188941002, -0.06591877341270447, 0.0744253396987915, -0.13112059235572815, -0.15457364916801453, -0.1818283051252365, -0.0072210486978292465, 0.02420927956700325, 1.5274573570422945e-06, 0.021622544154524803, -9.245729597751051e-05, -0.08696345239877701, -0.03371043875813484, 0.05978997051715851, -0.00030584167689085007, 0.05140434950590134, 0.1378745287656784, 0.026150189340114594, 9.967089863494039e-05], [0.039873793721199036, 0.1433643102645874, 0.12677717208862305, 0.016121329739689827, 0.16865931451320648, -0.002480689901858568, 0.1144903376698494, -0.06252981722354889, 0.19158102571964264, 0.09263399988412857, 0.09881576150655746, -0.04174189269542694, -0.012481688521802425, -0.03196602687239647, -0.011530540883541107, 0.03953130543231964, -0.10185906291007996, 0.06553378701210022, 0.07836855947971344, -0.10153337568044662, 0.11920185387134552, -0.0911090299487114, -0.009789746254682541, 0.1380230337381363, -0.009107745252549648, -0.06763873994350433, 0.06289918720722198, 0.0013931967550888658, 0.003011145628988743, 1.06738370959647e-05, 0.0008600231376476586, -0.029937542974948883, -0.07042861729860306, -0.09087137877941132, -0.09444671124219894, -4.613808778231032e-05, 0.08219024538993835, -0.15856657922267914, -0.07551878690719604, -2.937666795332916e-05], [-0.09738536179065704, -0.05327123776078224, 0.08377249538898468, 0.01935877837240696, -0.09756746143102646, 0.022641496732831, 0.06896045804023743, 0.0382876992225647, -0.10977978259325027, -0.006667836103588343, 0.12737171351909637, -0.0029754049610346556, -0.03352613002061844, 0.07776080071926117, 0.1014108657836914, 0.07887721061706543, 0.09015960246324539, -0.048980433493852615, -0.016529081389307976, 0.0035335891880095005, -0.07812119275331497, 0.03577587008476257, -0.08629061281681061, -0.021382693201303482, -0.025685075670480728, -0.05687414109706879, -0.009498721919953823, 0.003650579135864973, -0.02024674415588379, 1.626430048418115e-07, 0.0869985818862915, 3.331887910462683e-06, 0.07486412674188614, -0.1009867712855339, 0.008394697681069374, -0.008546074852347374, -0.012124401517212391, -0.04061729460954666, 0.026736441999673843, 1.2265033547009807e-05], [-0.0078055779449641705, 0.026729900389909744, 0.10022757202386856, -0.0060614631511271, 0.04741179943084717, 0.060194991528987885, 0.033276885747909546, 0.002942429855465889, -0.07875999063253403, 0.0915871411561966, -0.046370979398489, 0.07954486459493637, 0.00010268330515827984, -0.14528030157089233, 0.022292068228125572, -0.011790340766310692, -0.11542358249425888, 0.0405791737139225, 0.06952090561389923, -0.1070399284362793, 0.13675722479820251, 0.13198083639144897, -0.08080770820379257, 0.024332428351044655, 0.05034944415092468, 0.03042004443705082, 0.06799400597810745, -0.007967737503349781, -0.0034715544898062944, -0.01634806953370571, 0.0045129237696528435, -0.026814842596650124, -0.11909566819667816, -0.04157032072544098, 0.09249551594257355, -0.00041112967301160097, -0.15272003412246704, -0.13148483633995056, 0.132078155875206, -3.763678790846825e-08], [0.050719428807497025, 0.02257850021123886, 0.07999362051486969, 0.00012075153790647164, -0.05953388288617134, 0.00021022354485467076, 0.024441029876470566, 0.04198615625500679, -0.06525862216949463, -0.01566748507320881, 0.038900695741176605, 0.01581808365881443, 0.0009756805957295001, 0.028136221691966057, -0.010798036120831966, -0.005433971527963877, 0.05454030632972717, 0.061735887080430984, -0.021836161613464355, 0.03816469386219978, -0.044580813497304916, -0.06528284400701523, -0.05468571186065674, 0.08587700873613358, -0.06424196064472198, -0.03153485432267189, -0.03496556729078293, -0.002394256182014942, -0.010940974578261375, -0.0010167730506509542, 0.0013025356456637383, -0.033339254558086395, -0.007355857640504837, -0.06562845408916473, 0.0163417998701334, -0.00010376382851973176, -0.03349611535668373, -0.024032574146986008, -0.13918769359588623, 0.00680193118751049], [-0.13487425446510315, 0.06392369419336319, -0.10356135666370392, 0.014988518320024014, -0.013973926194012165, 0.003670490114018321, 0.02930106595158577, -0.027206843718886375, -0.08024337887763977, 0.11894002556800842, -0.014874204061925411, 0.09123280644416809, -0.0317666232585907, 0.049945492297410965, 0.08542720973491669, 0.12244759500026703, -0.01592142879962921, 0.0929495170712471, -0.010824503377079964, -0.1801941692829132, -0.08072751015424728, -0.10442866384983063, -0.15213073790073395, 0.010407446883618832, -0.08871523290872574, 0.04420262202620506, 0.11082768440246582, -3.011112141848571e-07, 4.521659491274477e-07, -3.2494909874003497e-07, -0.05075429752469063, -0.005192555952817202, 0.011205934919416904, 0.08089570701122284, 0.0011493638157844543, -0.0023958866950124502, 0.16246922314167023, 0.09674923121929169, -0.12025095522403717, -0.0019794036634266376], [-0.015314186923205853, -0.09632368385791779, 0.007885448634624481, -0.059644345194101334, -0.10030855238437653, -0.014049776829779148, 0.09178482741117477, -0.15829873085021973, -0.15970110893249512, -0.0913371816277504, 0.06301731616258621, -0.02609703131020069, 0.005925863515585661, 0.18456107378005981, 0.1264200359582901, 0.005042983219027519, 0.001502092694863677, -0.033179521560668945, -0.026684844866394997, 0.12052708119153976, -0.16241128742694855, 0.07027674466371536, -0.1297658234834671, -0.1357845962047577, -0.13817109167575836, -0.1699923425912857, -0.013410661369562149, -4.2960505197697785e-06, 0.02003375068306923, -1.2594431382240145e-06, 0.05936305969953537, -4.00163071390125e-06, 0.04648052901029587, 0.09217581897974014, -0.13394750654697418, 0.032717812806367874, 0.021101387217640877, 0.14533409476280212, -0.006195464171469212, 7.172904588514939e-05], [0.10989631712436676, 0.03898090869188309, 0.025352036580443382, -0.03002098761498928, -0.01226764265447855, -0.0033040731213986874, -0.08156893402338028, 0.028948763385415077, 0.05944211035966873, -0.14138516783714294, 0.0722336620092392, 0.18361796438694, 1.3623036920762388e-06, 0.22315263748168945, 0.24950599670410156, 0.14517667889595032, -0.003681295784190297, 0.03602803498506546, 0.01881764456629753, 0.04253111034631729, -0.12168926000595093, -0.020035339519381523, -0.005605238955467939, -0.1722104549407959, 0.09387288242578506, -0.11882378160953522, -0.1880294680595398, 0.00045516176032833755, 0.0017929994501173496, 5.818630597786978e-05, -0.004347608424723148, -1.4639642813563114e-06, -0.14202505350112915, -0.006700728088617325, -0.06181900575757027, -0.007679002359509468, -0.010559727437794209, 0.060495149344205856, -0.0030306773260235786, -8.288846515824844e-07], [0.02956523187458515, -0.09820196777582169, -0.07620760798454285, -0.03843255713582039, 0.025865279138088226, 0.042584128677845, 0.060670726001262665, 0.13360939919948578, 0.06864156574010849, 0.0838838443160057, -0.18013238906860352, -0.10136165469884872, -2.1667123917268327e-07, 0.008880844339728355, -0.09394476562738419, -0.0037967937532812357, -0.02097173035144806, 0.003809808986261487, 0.00704781711101532, 0.07740635424852371, 0.011877236887812614, 0.08614672720432281, 0.018828673288226128, 0.21086430549621582, -0.06985708326101303, -0.057755716145038605, 0.06935679912567139, 5.00192847141534e-08, -0.027678826823830605, -0.006785521283745766, 0.12858915328979492, -0.001955839339643717, -0.08004531264305115, 0.1464153677225113, 0.004674412310123444, 0.003712686477228999, -0.11540048569440842, 0.031835515052080154, -0.06243913248181343, 0.0018906460609287024], [-0.029907196760177612, 0.028822138905525208, -0.06900905072689056, 0.05097982659935951, -0.0688803642988205, 0.0706373006105423, -0.03886672109365463, 0.10614672303199768, -0.09876305609941483, 0.07788459211587906, 0.10991474241018295, -0.01889929734170437, 0.029886675998568535, -0.1291523426771164, 0.1404241919517517, -0.02838170900940895, 0.032940346747636795, -0.004239353816956282, -0.028118694201111794, 0.06077707186341286, -0.11793600767850876, 0.007808146066963673, -0.017591608688235283, -0.04640036076307297, -0.052971743047237396, 0.10821275413036346, -0.030488749966025352, 0.015117915347218513, 3.18529117748767e-07, -0.004283088259398937, -0.05634969100356102, 0.020139973610639572, 0.07522325217723846, 0.03746609762310982, -0.08492142707109451, 0.0074077812023460865, -0.056068941950798035, -0.057641804218292236, -0.12152113765478134, 0.007992365397512913], [-0.15089045464992523, -0.08789711445569992, -0.07698992639780045, -0.006740623619407415, -0.010501086711883545, -0.03271696716547012, -0.15037119388580322, -0.09591333568096161, 0.14323467016220093, -0.12828819453716278, 0.12746290862560272, -0.07424313575029373, -1.7352172108076047e-06, 0.05465105548501015, 0.1181878075003624, -0.04066544026136398, 0.01711883768439293, 0.013007372617721558, -0.10388214886188507, 0.04145790636539459, 0.12218969315290451, -0.08563068509101868, 0.08534767478704453, -0.12181183695793152, 0.05746569484472275, 0.11050103604793549, 0.04627299681305885, 0.024039829149842262, 0.017582742497324944, 1.4790049363000435e-06, -0.0391080267727375, 0.011130123399198055, 0.08441910892724991, -0.03716886416077614, -0.14063620567321777, -0.03700985386967659, 0.02732248790562153, 0.007287216372787952, 0.14677634835243225, -0.03386274725198746], [0.07102847844362259, 0.09196227043867111, 0.07318950444459915, 0.05728956684470177, -0.03596876561641693, 0.016724620014429092, -0.13006319105625153, -0.05653633177280426, -0.028645725920796394, -0.05420830473303795, 0.12675808370113373, 0.1325545310974121, 0.0003803246945608407, -0.06455480307340622, 0.0735500156879425, 0.09042568504810333, 0.08723541349172592, -0.03976832702755928, 0.11286459118127823, 0.15340983867645264, -0.07250138372182846, 0.08775205165147781, 0.1584353893995285, -0.09387393295764923, -0.10314428806304932, 0.13177801668643951, -0.010293993167579174, -0.026517977938055992, 9.306131687480956e-08, -2.313969162059948e-06, 0.09425827115774155, -0.010417980141937733, 0.014565270394086838, -0.012658286839723587, -0.07141183316707611, 0.004756992217153311, 0.15895162522792816, -0.014477582648396492, -0.010493913665413857, 3.956128296067618e-07], [0.037406813353300095, 0.12731091678142548, 0.10144680738449097, -0.011297415010631084, 0.011267893016338348, -0.02035670541226864, -0.0844845324754715, -0.013546290807425976, -0.06095732003450394, -0.04068630188703537, 0.03616318479180336, 0.08364897221326828, 0.0007333719986490905, -0.008605011738836765, 0.016447074711322784, 0.03857046365737915, 0.09200325608253479, 0.03869131952524185, 0.08574896305799484, 0.1676681786775589, 0.05659818276762962, -0.11137393862009048, 0.0776241347193718, 0.17157725989818573, -0.030249645933508873, 0.11587867140769958, -0.09875710308551788, 0.0012801889097318053, -0.008325004018843174, 0.015978753566741943, -0.005269572138786316, 7.791466316575679e-08, 0.06548624485731125, -0.11067939549684525, 0.03165197744965553, 0.003892393782734871, -0.08311393857002258, -0.06541281193494797, 0.0599304623901844, 1.108954393203021e-06], [-0.034956496208906174, -0.0337805449962616, -0.12083563953638077, 0.04190053790807724, 0.03549277037382126, -0.0008076446247287095, -0.024997372180223465, -0.013271398842334747, -0.11023806035518646, -0.08351045101881027, 0.24113699793815613, 0.13124306499958038, 0.006865503266453743, 0.00537949288263917, 0.09797751158475876, 0.0941275805234909, -0.009218120947480202, 0.04462800174951553, -0.08613347262144089, -0.1033804789185524, -0.030822407454252243, -0.1014811173081398, -0.07764969766139984, 0.010222755372524261, -0.0679059624671936, -0.022247137501835823, 0.071871817111969, 0.02028251439332962, 0.008817438036203384, 0.007037539035081863, -0.14692986011505127, -3.729467721313995e-07, 0.08806227892637253, 0.035366788506507874, -0.09327233582735062, -0.007630411069840193, 0.24292097985744476, 0.09220504760742188, -0.05459018051624298, -0.003750486997887492], [0.05423558130860329, 0.014329674653708935, -0.13685309886932373, 0.0717160776257515, -0.14988388121128082, -0.010446290485560894, -0.08094947040081024, -0.11846199631690979, -0.16237914562225342, 0.04888344556093216, 0.10993122309446335, 0.2188468873500824, -0.0003585522063076496, -0.07351725548505783, 0.1941881626844406, 0.040498100221157074, -0.05804678052663803, 0.09105747193098068, -0.02319907210767269, 0.0814124047756195, -0.1296178251504898, -0.15733103454113007, -0.03390592709183693, -0.18062786757946014, -0.03974274918437004, 0.05626795440912247, 0.005200115963816643, 0.02809160016477108, -7.830561798982671e-07, 1.9891908209501707e-07, -0.12703527510166168, -1.3926300113098478e-08, -0.12815357744693756, -0.09136879444122314, 0.06150411069393158, -0.07422421872615814, 0.07723288983106613, 0.08027919381856918, 0.14447104930877686, 0.022445039823651314], [-0.041606802493333817, 0.0035315612331032753, -0.0786513239145279, -0.000891294504981488, -0.08514775335788727, -4.375778007670306e-05, -0.04977792128920555, 0.08718953281641006, -0.017313450574874878, -0.014833144843578339, -0.014456330798566341, -0.05928565561771393, -1.5000495068306918e-07, 0.00792542565613985, 0.036935608834028244, -0.03737371787428856, -0.016675952821969986, -0.03554455190896988, -0.03383878245949745, -0.08450745791196823, 0.08879515528678894, -0.14044466614723206, -0.04354739189147949, -0.10608626157045364, -0.1544531136751175, -0.06791271269321442, 0.1491517424583435, -1.18637690320611e-05, -0.01733720488846302, -0.0033095101825892925, 0.01301607210189104, -1.8645195041244733e-06, -0.09640294313430786, -0.0976264476776123, 0.06227046996355057, -5.527270695893094e-05, -0.029258569702506065, -0.1312474012374878, -0.005500971805304289, 6.142557253951964e-07], [0.07343415915966034, -0.029715359210968018, 0.019389720633625984, 0.0003439265419729054, 0.11051531136035919, -0.006262438837438822, -0.10168243944644928, 0.03160903975367546, -0.05485481768846512, -0.13845522701740265, 0.1360578089952469, 0.0742432102560997, 0.001769142341800034, 0.032397232949733734, 0.04851684719324112, 0.031596142798662186, -6.014617974869907e-05, 0.009155810810625553, -0.031290389597415924, 0.08009083569049835, 0.07765393704175949, 0.10666817426681519, -0.12270569056272507, -0.041049130260944366, -0.09027037769556046, -0.024741878733038902, -0.04224555194377899, 0.026074739173054695, 0.02703407220542431, -0.006403119303286076, -0.01059009786695242, -0.019576122984290123, -0.03930480778217316, 0.08829036355018616, -0.09355251491069794, 0.013641644269227982, -0.043333832174539566, 0.03867526352405548, -0.10703747719526291, -1.9743194457078062e-07], [-0.09965544939041138, -0.1372631937265396, -0.002534927101805806, -0.038356635719537735, -0.09258799254894257, -0.030287638306617737, -0.07178711891174316, -0.07505225390195847, 0.12785853445529938, 0.08498676866292953, 0.05020878091454506, 0.15662650763988495, 0.026873618364334106, 0.12473170459270477, -0.01989426091313362, -0.014182149432599545, -0.05481485649943352, -0.008431394584476948, -0.0077432915568351746, -0.12064753472805023, 0.1427030712366104, -0.09691791981458664, 0.10900071263313293, -0.20385423302650452, -0.026723423972725868, 0.05176331475377083, -0.1713632494211197, -0.00934554636478424, 0.01665343903005123, -0.015062945894896984, -0.1117355152964592, -0.0331251323223114, -0.08754706382751465, -0.11980753391981125, -0.017075877636671066, -0.039418719708919525, 0.08722984790802002, 0.08046002686023712, 0.010037863627076149, 3.6434985872801917e-07], [0.09021276235580444, 0.004465882666409016, 0.059739887714385986, -0.04760733246803284, 0.1207309290766716, 0.051040805876255035, -0.11166723817586899, 0.11998961120843887, -0.1022527739405632, 0.14232137799263, -0.04686453565955162, 0.007652676664292812, 1.1500902473926544e-05, -0.20254221558570862, -0.13327588140964508, -0.01116232480853796, 0.0835663378238678, 0.10186433047056198, -0.11385440826416016, 0.12062419950962067, 0.06780567765235901, 0.12035491317510605, -0.11511032283306122, 0.10739508271217346, 0.17894095182418823, 0.08971443772315979, 0.011623435653746128, -0.0019451002590358257, 8.269649356407172e-07, 1.2600038417076576e-06, 0.171900674700737, 0.0033863575663417578, 0.00021332674077712, -0.0635121613740921, -0.01498269010335207, -0.024145066738128662, -0.21577350795269012, 0.004341387189924717, 0.02424655668437481, 1.998164300687222e-08], [0.15512727200984955, 0.13213452696800232, 0.13920360803604126, -0.027021368965506554, -0.08029846847057343, 0.00019247698946855962, 0.14424899220466614, -0.10859858989715576, -0.02902497909963131, -0.02155415341258049, -0.00921048503369093, -0.21990977227687836, -2.060487531707622e-07, -0.16184137761592865, -0.2529589831829071, 0.01045108400285244, -0.0030867396853864193, -0.04915685951709747, 0.0025575316976755857, 0.1288248896598816, 0.059115439653396606, -0.022337770089507103, -0.10232775658369064, 0.21586260199546814, 0.02194272354245186, 0.04402707889676094, 0.12554395198822021, 5.553371238420368e-07, 0.006692619062960148, 0.0010451724519953132, 0.1509048193693161, 1.3079682048555696e-06, 0.18484053015708923, -0.08484615385532379, 0.13433398306369781, 0.002326210727915168, -0.19203494489192963, 0.0642920434474945, -0.060064781457185745, 0.01635073870420456], [-0.06527883559465408, -0.1083964854478836, -0.011745027266442776, 0.018477223813533783, 0.014979924075305462, -0.018204491585493088, -0.08363786339759827, 0.07211761921644211, -0.13600383698940277, 0.14442966878414154, 0.014819315634667873, 0.15104752779006958, 0.007442655507475138, 0.034881725907325745, 0.07434726506471634, -0.04222514480352402, -0.09753904491662979, 0.0830719918012619, -0.04938538372516632, -0.015855727717280388, 0.051839664578437805, 0.10938721150159836, 0.09654133021831512, -0.03843734413385391, -0.1169513687491417, -0.16392232477664948, 0.13590192794799805, -0.0220334455370903, 1.6140937475483952e-08, -0.00023910835443530232, -0.1637224704027176, 1.2666723705478944e-05, -0.13021700084209442, 0.022198116406798363, -0.02612452395260334, -0.00990596879273653, -0.08251015096902847, 0.08431152999401093, 0.11642606556415558, -2.210323145845905e-06], [0.04113241657614708, -0.040514133870601654, -0.1382122039794922, -7.55748333176598e-05, -0.0811612457036972, 0.0025328893680125475, 0.02639097534120083, 0.03893072530627251, 0.014002176001667976, -0.10815104097127914, 0.06681303679943085, 0.0015302919782698154, 0.009074023924767971, 0.21372859179973602, 0.23993562161922455, 0.01663326285779476, -0.010414933785796165, 0.0006182329379953444, -0.014426232315599918, -0.16073919832706451, 0.051759809255599976, -0.044130269438028336, 0.05017203837633133, 0.03885956108570099, 0.030163373798131943, -0.11069811880588531, -0.15571576356887817, -0.0034085200168192387, -2.128998403350124e-06, -0.022890957072377205, -0.04678862541913986, 4.069870271905529e-07, -0.04505292698740959, -0.025046534836292267, -0.0834454596042633, 0.021925536915659904, -0.004937394522130489, 0.06348536908626556, -0.11485213786363602, 0.03152741119265556], [0.0015480008441954851, -0.12483257800340652, 0.07274790108203888, 0.03577059507369995, 0.1357693076133728, -0.005713609978556633, -0.08948218822479248, 0.1407775729894638, 0.03470589965581894, -0.07446697354316711, -0.04007141292095184, 0.00511651486158371, -0.011204746551811695, 0.018285393714904785, -0.21653787791728973, 0.03489365428686142, -0.05000849813222885, -0.10580860078334808, 0.09152930229902267, 0.10502606630325317, 0.022412456572055817, 0.08886340260505676, 0.09062254428863525, 0.027789553627371788, 0.03336470201611519, -0.07061503827571869, -0.037893764674663544, 0.025762975215911865, 0.0023770774714648724, 0.001997703220695257, 0.13614945113658905, 0.0007478190236724913, 0.09725552797317505, 0.11294552683830261, -0.012376533821225166, -0.05203676596283913, -0.2332150936126709, 0.11841655522584915, 0.05329594016075134, 6.340398613247089e-06], [-0.0587492510676384, 0.043795015662908554, -0.038680192083120346, -0.00016572442837059498, 0.10140299052000046, -0.0692240446805954, 0.04189988970756531, 0.02397744543850422, 0.04663870856165886, 0.023176532238721848, 0.0649176836013794, -0.01244897861033678, -0.0007930161082185805, -0.13802355527877808, 0.1446274220943451, -0.013146842829883099, 0.013386893086135387, 0.07207679003477097, -0.021956218406558037, 0.06582608819007874, 0.022944191470742226, -0.005933600012212992, 0.0969560295343399, -0.08378387242555618, -0.15079757571220398, -0.14683201909065247, 0.1265684962272644, 5.684781172021758e-06, 8.280784413727815e-07, -1.3928258795203874e-06, 0.09661951661109924, 0.016860222443938255, -0.12580278515815735, -0.0985918864607811, 0.022702079266309738, -0.015431543812155724, -0.0688764899969101, -0.05370377004146576, 0.0754774808883667, 0.005443444475531578], [0.08405409008264542, 0.09741447865962982, -0.12589026987552643, 0.04923277348279953, 0.09684102237224579, -0.02009502239525318, 0.12819130718708038, 0.06976723670959473, -0.02420789748430252, 0.10005153715610504, 0.0283872801810503, -0.07253989577293396, -9.437702885861654e-08, -0.0018899965798482299, 0.0640895813703537, 0.0529622919857502, 0.14028392732143402, 0.03978243097662926, 0.08317285031080246, 0.08363935351371765, -0.04738474264740944, 0.05746115371584892, -0.11744218319654465, 0.10174424201250076, 0.06674961000680923, -0.0042282287031412125, 0.13726197183132172, 0.0015382503625005484, -1.1268211608239653e-07, 0.0016214529750868678, -0.08764508366584778, 1.1243955668760464e-06, 0.0228667501360178, 0.06563106179237366, -0.1167454719543457, 0.0604744590818882, 0.1319570541381836, -0.007585118990391493, -0.10870135575532913, -0.02212299406528473], [0.02097502537071705, 0.09600830078125, -0.014034002088010311, 0.10448766499757767, 0.0064763352274894714, 0.0338250957429409, 0.0571984127163887, 0.08099000155925751, -0.09737861156463623, 0.11772818863391876, -0.07732391357421875, -0.05771252140402794, -0.0019492481369525194, 0.0028374390676617622, 0.07018298655748367, 0.12573078274726868, -0.05195999890565872, 0.13884127140045166, -0.10321074724197388, 0.12195323407649994, -0.016561513766646385, 0.05814409628510475, -0.06160565838217735, -0.042195070534944534, 0.1337052881717682, 0.05610114708542824, 0.14946497976779938, 1.1804357313849323e-07, -0.023274891078472137, 6.493595265055774e-06, 0.13633185625076294, -0.029561741277575493, 0.12222054600715637, 0.005372889805585146, -0.04118785262107849, -0.030053289607167244, 0.0058898525312542915, -0.03255835548043251, 0.09877750277519226, 0.007658362854272127], [0.00169046176597476, -0.06150234863162041, 0.027800552546977997, -0.0021679759956896305, 0.0652429386973381, -0.0006221405346877873, -0.09456905722618103, -0.020649347454309464, -0.12260862439870834, 0.10924728214740753, 0.09368407726287842, 0.03839220479130745, -0.001760808750987053, 0.07796064764261246, 0.0379672534763813, 0.04242594167590141, -0.03187935799360275, -0.009139944799244404, 0.04807913675904274, -0.0008665291825309396, 0.13080763816833496, -0.0989864245057106, 0.006312476471066475, -0.0489513985812664, -0.07937028259038925, 0.10748139023780823, -0.10227711498737335, -0.03141830861568451, 1.1055536219828355e-07, 1.3960180922367726e-06, -0.016180766746401787, -0.0206463485956192, 0.04812679439783096, 0.03203617036342621, 0.02859341725707054, -0.0013036939781159163, 0.11397436261177063, -0.09089192748069763, -0.16573087871074677, 6.52435460324341e-07], [-0.027190236374735832, 0.0015841084532439709, -0.08912533521652222, -0.023661179468035698, 0.018941329792141914, 0.019810862839221954, 0.058937087655067444, -0.1538609117269516, -0.12782485783100128, 0.06410571187734604, 0.11202112585306168, 0.17821256816387177, -0.00012253448949195445, 0.0759296715259552, 0.21221375465393066, -0.0041595278307795525, -0.055274300277233124, 0.08045314997434616, 0.00031066499650478363, -0.07321041077375412, -0.086392343044281, -0.16531766951084137, -0.03323602303862572, 0.011324595659971237, -0.1977677196264267, -0.12884320318698883, -0.14112690091133118, -4.221431026962819e-06, 0.012883608229458332, 0.010633408091962337, 0.011343508027493954, -2.606034001928492e-07, -0.09442482888698578, -0.13185660541057587, -0.08502767235040665, -0.0016890192637220025, 0.22531414031982422, -0.007082744035869837, 0.01859142817556858, 9.543111900711665e-07], [0.07016818225383759, -0.06210624426603317, -0.09372079372406006, 0.014890607446432114, 0.04895709082484245, 1.2922828318551183e-05, -0.060669172555208206, 0.1422654688358307, -0.005277253221720457, 0.10290194302797318, 0.11794538050889969, 0.14178620278835297, 0.015144583769142628, 0.001597110414877534, -0.02540723793208599, 0.010420692153275013, -0.04135159030556679, 0.018316790461540222, 0.02153952792286873, -0.10617989301681519, -0.09332451969385147, 0.03538963198661804, 0.13603882491588593, 0.0690845251083374, -0.11533938348293304, -0.07410898804664612, 0.1490926593542099, 1.908112423620878e-08, -1.3302501145062706e-07, 0.020932460203766823, 0.12350330501794815, -5.9117276407505415e-08, 0.15966275334358215, 0.06313084810972214, 0.010539352893829346, -0.010189857333898544, -0.03972410783171654, -0.05766625702381134, -0.15197892487049103, -8.997015470413317e-07], [0.08613959699869156, -0.010149136185646057, -0.023757606744766235, 0.02248964086174965, 0.10201124846935272, -0.005798573140054941, -0.08369015902280807, -0.04277601093053818, -0.11399097740650177, 0.038077212870121, 0.15892468392848969, 0.21399064362049103, 